-0.118114
-0.130963
-0.117548
-0.115192
-0.116014
-0.115192
-0.115192
-0.187909
-0.168957
-0.179023
-0.119942
-0.115192
-0.115192
-0.199309
-0.115192
-0.258048
-0.132984
-0.119989
-0.224264
-0.115262
-0.127547
-0.119034
-0.115192
-0.115192
-0.115192
-0.115192
-0.115192
-0.115192
-0.119034
-0.115192
-0.115192
-0.115192
-0.115192
-0.115192
-0.115192
-0.120080
-0.115192
-0.115192
-0.115192
-0.337827
-0.115192
-0.123425
-0.115192
-0.115192
-0.115192
-0.115192
-0.115192
-0.115192
-0.115192
-0.115511
-0.130823
-0.115192
-0.127045
-0.115192
-0.123982
-0.115192
-0.115192
-0.115192
-0.119254
-0.117957
-0.187828
-0.115192
-0.121159
-0.139470
-0.139734
-0.353810
-0.147474
-0.153074
-0.153074
-0.139734
-0.139734
-0.139734
-0.277034
-0.143006
-0.139734
-0.139734
-0.139734
-0.143576
-0.142727
-0.139734
-0.139734
-0.139734
-0.139734
-0.142656
-0.155569
-0.294030
-0.314677
-0.139734
-0.151338
-0.206691
-0.370753
-0.311088
-0.139734
-0.353123
-0.139734
-0.139734
-0.144901
-0.139734
-0.139734
-0.143178
-0.532618
-0.166664
-0.194133
-0.195548
-0.139734
-0.145642
-0.139734
-0.139734
-0.139734
-0.139734
-0.139734
-0.143403
-0.139734
-0.139734
-0.147047
-0.140216
-0.217863
-0.142727
-0.141146
-0.139734
-0.139734
-0.259124
-0.139734
-0.139734
-0.144486
-0.139803
-0.140725
-0.178985
-0.149426
-0.139734
-0.139734
-0.142656
-0.162098
-0.141130
-0.140991
-0.139734
-0.139734
-0.750349
-0.139734
-0.225699
-0.147872
-0.139734
-0.139734
-0.179614
-0.139734
-0.145597
-0.139734
-0.139734
-0.313895
-0.139734
-0.220482
-0.438619
-0.139734
-0.139734
-0.139734
-0.156177
-0.151443
-0.183190
-0.206205
-0.158186
-0.204858
-0.175976
-0.139734
-0.139734
-0.145905
-0.139734
-0.139734
-0.139734
-0.148944
-0.185693
-0.140271
-0.173829
-0.166403
-0.289104
-0.139826
-0.168501
-0.139734
-0.140184
-0.139734
-0.139734
-0.189574
-0.139734
-0.139734
-0.139734
-0.139734
-0.139803
-0.160998
-0.139734
-0.186355
-0.241420
-0.150962
-0.139734
-0.139734
-0.139734
-0.241336
-0.142837
-0.139734
-0.139734
-0.078803
-0.066688
-0.132925
-0.181052
-0.219415
-0.074938
-0.104814
-0.132896
-0.072561
-0.411645
-0.146126
-0.085095
-0.085095
-0.085095
-0.085095
-0.085095
-0.125239
-0.085095
-0.092300
-0.085095
-0.085095
-0.085095
-0.085095
-0.085095
-0.105953
-0.144474
-0.085095
-0.085095
-0.088559
-0.085095
-0.089380
-0.124200
-0.085095
-0.605563
-0.125758
-0.092428
-0.093284
-0.110149
-0.103409
-0.085095
-0.121118
-0.090460
-0.085095
-0.121696
-0.085095
-0.092012
-0.086314
-0.085095
-0.113101
-0.183550
-0.076241
-0.219134
-0.280841
-0.145715
-0.061912
-0.066972
-0.134466
-0.061912
-0.121386
-0.079683
-0.160030
-0.563248
-0.290955
-0.079332
-0.059185
-0.059185
-0.098571
-0.122680
-0.047067
-0.082817
-0.051105
-0.087156
-0.057711
-0.153437
-0.087156
-0.047067
-0.047067
-0.074544
-0.047067
-0.096083
-0.265869
-0.067485
-0.087757
-0.100365
-0.153437
-0.617864
-0.047067
-0.061643
-0.124145
-0.106877
-0.048325
-0.069165
-0.092215
-0.155712
-0.047067
-0.048205
-0.059425
-0.055720
-0.055720
-0.059668
-0.055720
-0.065688
-0.055720
-0.107832
-0.006692
-0.007625
-0.020677
-0.006692
-0.043509
-0.006692
-0.023227
-0.071652
-0.017077
-0.156407
-0.065928
-0.063730
-0.012577
-0.006692
-0.059419
-0.075410
-0.054681
-0.060403
-0.054681
-0.152584
-0.054681
-0.071009
-0.066344
-0.054681
-0.072612
-0.054932
-0.061835
-0.059419
-0.059419
-0.072417
-0.074135
-0.103055
-0.064019
-0.059419
-0.066602
-0.063205
-0.059419
-0.157380
-0.075410
-0.054681
-0.054681
-0.054681
-0.054681
-0.072717
-0.054681
-0.054681
-0.054681
-0.002998
-0.003068
-0.004994
-0.022965
-0.058476
-0.023058
-0.004044
-0.002998
-0.002998
-0.213060
-0.005360
-0.010691
-0.005360
-0.002998
-0.004044
-0.002998
-0.002998
-0.003948
-0.043977
-0.137722
-0.016918
-0.055408
-0.002998
-0.012465
-0.004148
-0.002998
-0.022965
-0.014162
-0.003948
-0.028824
-0.002998
-0.021146
-0.002998
-0.007140
-0.031816
-0.031816
-0.100169
-0.115689
-0.033353
-0.028903
-0.050637
-0.161768
-0.028903
-0.055028
-0.028903
-0.077255
-0.028903
-0.028903
-0.028903
-0.130366
-0.028903
-0.028903
-0.028903
-0.028903
-0.031816
-0.043369
-0.003209
-0.003209
-0.052946
-0.003209
-0.007051
-0.044319
-0.005317
-0.058088
-0.058088
-0.052857
-0.019200
-0.015926
-0.023176
-0.003209
-0.226222
-0.003209
-0.003209
-0.003209
-0.014872
-0.116008
-0.089321
-0.003209
-0.163948
-0.003209
-0.020172
-0.003209
-0.004143
-0.004143
-0.004143
-0.003209
-0.020633
-0.004143
-0.032549
-0.009946
-0.003209
-0.028905
-0.003209
-0.003209
-0.073682
-0.003209
-0.011055
-0.004143
-0.004143
-0.003209
-0.003209
-0.003209
-0.003209
-0.109119
-0.003209
-0.131770
-0.003209
-0.003209
-0.003209
-0.012421
-0.007674
-0.059977
-0.005400
-0.011501
-0.006401
-0.004655
-0.003209
-0.012595
-0.003209
-0.003209
-0.056745
-0.040022
-0.003209
-0.003209
-0.003209
-0.007353
-0.006157
-0.003209
-0.315467
-0.027343
-0.003209
-0.003209
-0.257764
-0.026813
-0.099889
-0.047665
-0.033989
-0.026813
-0.055851
-0.029554
-0.041042
-0.026813
-0.026813
-0.052080
-0.026813
-0.026813
-0.045667
-0.026813
-0.026813
-0.046334
-0.096367
-0.054861
-0.033039
-0.034051
-0.040704
-0.042911
-0.074667
-0.031872
-0.026813
-0.168975
-0.107145
-0.068705
-0.052727
-0.044584
-0.033479
-0.041383
-0.026813
-0.026813
-0.026813
-0.026813
-0.026813
-0.040471
-0.030875
-0.029554
-0.026813
-0.026813
-0.026813
-0.044006
-0.028690
-0.026813
-0.026813
-0.033781
-0.027704
-0.070011
-0.167577
-0.007973
-0.008580
-0.023062
-0.008042
-0.012098
-0.012098
-0.007973
-0.007973
-0.007973
-0.007973
-0.007973
-0.007973
-0.130634
-0.007973
-0.007973
-0.007973
-0.007973
-0.007973
-0.007973
-0.007973
-0.008906
-0.088643
-0.007973
-0.007973
-0.007973
-0.007973
-0.007973
-0.059092
-0.011270
-0.007973
-0.011164
-0.008952
-0.011642
-0.023013
-0.022624
-0.007973
-0.064410
-0.009230
-0.011468
-0.008928
-0.075859
-0.007586
-0.118674
-0.068263
-0.100260
-0.030778
-0.008160
-0.011055
-0.007586
-0.007586
-0.052136
-0.007656
-0.007586
-0.025110
-0.035977
-0.007586
-0.035538
-0.010508
-0.016735
-0.011943
-0.007627
-0.007586
-0.007586
-0.010921
-0.010859
-0.007586
-0.007691
-0.019249
-0.015824
-0.074761
-0.007586
-0.008160
-0.007586
-0.007586
-0.013607
-0.011493
-0.007586
-0.007586
-0.007586
-0.186934
-0.007586
-0.024494
-0.007586
-0.178363
0.009066
-0.002098
-0.111558
0.009066
0.009066
0.009066
0.009066
-0.041108
-0.033082
-0.092271
-0.044101
-0.023608
-0.009779
-0.005594
0.009066
0.009066
0.009066
0.009066
0.009066
0.009066
0.004239
0.009066
0.009066
0.005352
-0.136098
-0.016200
0.009066
0.009066
0.009066
-0.018196
0.009066
0.009066
0.009066
-0.065523
0.009066
0.009066
0.003712
0.009066
0.009066
0.009066
0.009066
-0.066540
-0.013876
-0.004544
0.004089
-0.016080
0.000363
0.009066
-0.020639
-0.031584
0.008244
-0.002861
0.009066
0.009066
-0.033444
-0.010541
-0.009967
-0.023096
-0.041068
-0.009967
-0.012752
-0.011374
-0.012889
-0.009967
-0.037020
-0.009967
-0.009967
-0.084019
-0.009967
-0.009967
-0.009967
-0.023953
-0.113552
-0.047176
-0.009967
-0.009967
-0.009967
-0.009967
-0.009967
-0.009967
-0.009967
-0.009967
-0.009967
-0.138994
-0.009967
-0.076390
-0.009967
-0.010163
-0.019250
-0.009967
-0.010786
-0.009967
-0.139100
-0.057293
-0.009967
-0.009967
-0.009967
-0.112324
-0.009967
-0.009967
-0.009967
-0.009967
-0.013697
-0.009967
-0.073904
-0.022756
-0.013239
-0.029973
-0.009967
-0.009967
-0.009967
-0.096927
-0.014717
-0.010218
-0.011374
-0.009967
-0.009967
-0.009967
-0.009967
-0.009967
-0.108421
-0.041819
-0.009967
-0.009967
-0.038908
-0.009967
-0.009967
-0.013657
-0.014311
-0.029426
-0.009967
-0.011374
-0.009967
-0.009967
-0.009967
-0.010917
-0.012889
-0.009967
-0.009967
-0.009967
-0.009967
-0.009967
-0.009967
-0.117219
-0.009967
-0.035335
-0.037153
-0.064856
-0.037222
-0.037975
-0.037153
-0.037153
-0.040033
-0.038165
-0.053732
-0.077519
-0.037153
-0.042553
-0.071505
-0.037153
-0.175461
-0.066143
-0.037153
-0.136738
-0.062658
-0.069839
-0.058058
-0.055028
-0.074178
-0.084931
-0.037153
-0.037153
-0.037153
-0.037153
-0.037153
-0.060135
-0.037153
-0.070025
-0.004771
-0.074928
-0.004771
-0.007765
-0.090962
-0.015834
-0.004771
-0.004771
-0.006029
-0.006213
-0.004771
-0.014521
-0.004771
-0.071052
-0.004771
-0.004771
-0.004771
-0.008717
-0.004771
-0.008430
-0.004771
-0.041962
-0.004771
-0.004771
-0.004771
-0.004910
-0.004771
-0.004771
-0.020721
-0.004771
-0.005222
-0.077016
-0.083242
-0.009884
-0.022542
-0.018190
-0.004771
-0.004771
-0.004771
-0.004771
-0.024164
-0.015755
-0.004771
0.004894
0.004320
0.004894
0.004894
0.004894
-0.183083
0.001056
0.004894
-0.021260
0.001995
0.004894
0.004894
-0.065340
0.001018
0.004894
0.004894
0.004894
0.004894
0.004894
0.004824
0.004894
0.004894
0.004320
0.004894
0.004894
0.004894
0.004894
-0.030695
0.004894
0.001981
0.004894
-0.076574
-0.001038
0.004894
0.004894
0.004894
0.004894
-0.019733
0.004894
0.004894
0.004894
0.004894
0.004894
0.000252
-0.046206
0.000948
0.004503
0.004894
-0.009092
0.002229
0.004824
0.004520
0.004894
0.004894
0.004754
0.004894
0.004894
0.004894
0.004894
0.004894
0.004894
0.004894
0.004643
0.004894
0.004894
0.001812
-0.036129
0.001812
0.004894
0.004894
0.004894
0.004894
0.004894
0.004894
-0.011549
-0.054198
0.004894
0.004894
-0.010896
-0.004622
-0.054138
-0.002499
0.004894
0.004894
0.004894
0.004894
0.004894
0.004894
0.004894
0.005173
0.005173
0.005173
0.001297
-0.059165
0.004194
0.005173
-0.017768
-0.056919
0.005173
0.004722
0.000436
0.005173
-0.001775
0.001224
0.005173
0.005173
0.000436
-0.016755
0.002251
0.005173
0.004599
0.005173
0.005173
0.004023
0.005173
0.005173
0.002179
0.005173
0.002179
-0.002052
0.005068
-0.020094
-0.023985
-0.021243
0.005173
0.002812
0.005173
0.005173
-0.007771
-0.007771
-0.030527
-0.007771
-0.011832
-0.007771
-0.007771
-0.007771
-0.007771
-0.007771
-0.007771
-0.215652
-0.007771
-0.021844
-0.007771
-0.007771
-0.007771
-0.008988
-0.007771
-0.007771
-0.007771
-0.007771
-0.007771
-0.010852
-0.007771
-0.008253
-0.007771
-0.014066
-0.007771
-0.024214
-0.024409
-0.076112
-0.096754
-0.115148
-0.106187
-0.076493
-0.076112
-0.078889
-0.091883
-0.076112
-0.076112
-0.075928
-0.076112
-0.076112
-0.075928
-0.076112
-0.076112
-0.076112
-0.089075
-0.075928
-0.076112
-0.075928
-0.093813
-0.076112
-0.076112
-0.076112
-0.076112
-0.081614
-0.075928
-0.120011
-0.075928
-0.076112
-0.146802
-0.087222
-0.076217
-0.075928
-0.075928
-0.082540
0.000917
-0.034358
0.003279
0.003279
0.003279
-0.056281
-0.056281
-0.056281
-0.056281
-0.056281
-0.056281
-0.056281
-0.067945
-0.171437
-0.056281
-0.056281
-0.056281
-0.059203
-0.056281
-0.116977
0.008988
0.008988
0.005995
0.004167
0.008988
0.008988
0.008988
0.008988
0.004797
0.008988
0.008988
0.008988
0.008988
0.008988
0.008849
-0.086094
0.008988
0.008988
0.008988
0.008988
0.008988
0.005250
0.005250
0.005250
-0.124962
-0.006413
-0.025899
0.005250
-0.037660
-0.001553
0.005250
0.005250
0.002804
0.003843
0.003843
0.002256
0.005250
0.003843
0.003843
0.005250
0.005250
0.005250
0.001318
0.005250
0.005250
-0.013899
0.005250
0.005250
0.005250
0.005250
0.005250
0.005250
0.005250
0.003843
0.002509
0.005250
-0.029911
0.005250
-0.015560
0.002337
0.005250
-0.015508
0.005250
0.004931
-0.002516
0.005250
0.004278
-0.088778
-0.002596
0.005250
0.006808
0.006739
0.006808
0.006808
0.002966
0.003815
-0.041977
-0.068765
0.006808
-0.010573
-0.000346
0.006808
0.006808
0.006808
-0.011149
0.006808
0.006808
0.000758
0.006808
-0.003636
0.006808
0.006808
0.006808
0.006808
0.006808
0.006808
0.006808
0.006808
0.006808
0.006808
0.006808
0.006808
0.006808
0.003184
0.003076
-0.008380
0.006808
0.006808
0.006808
0.006808
0.006808
0.006808
0.006808
0.006808
0.006808
0.006808
0.006808
0.006808
0.006808
0.006739
0.006808
0.006808
0.006808
0.006808
0.006808
0.006808
-0.012038
0.006808
0.006808
0.006808
0.006808
0.006808
0.006808
-0.020498
-0.005336
0.007036
0.001151
-0.024471
0.004042
-0.023290
-0.000379
-0.011682
0.007036
-0.018231
0.006785
-0.011728
0.007036
0.007036
0.007036
0.004114
0.001193
0.007036
-0.046028
-0.045181
0.007036
0.004123
0.007036
0.007036
0.007036
-0.022500
0.007036
0.007036
-0.057497
0.003160
0.007036
0.007036
-0.003859
0.007036
-0.001307
0.006874
0.007036
-0.010093
0.007036
-0.000810
0.001769
-0.029226
-0.029226
-0.029226
-0.029226
0.009426
0.009426
-0.014528
-0.005912
0.009426
0.009426
0.000580
0.009426
0.009426
0.009426
0.009426
0.009426
-0.109717
-0.034288
0.009426
-0.001403
0.009426
0.009426
0.008984
0.009426
0.004975
0.009426
0.009426
0.009426
0.009426
0.004101
0.009426
0.009426
0.009426
0.009426
0.009426
0.006649
0.009426
0.009426
0.009426
0.009426
0.009426
0.009426
0.009426
-0.004303
-0.052911
0.009426
-0.004303
0.009426
0.009426
0.008207
0.009426
-0.004303
-0.027767
0.006433
0.006427
0.009426
0.009426
0.009426
0.009426
-0.006315
0.009426
-0.038345
0.006093
0.009426
0.009426
-0.022749
0.008984
0.009426
0.009426
-0.029307
-0.015649
-0.005501
-0.010296
-0.001663
-0.001663
-0.001663
-0.001848
-0.001733
-0.001663
-0.001663
-0.001663
-0.001663
-0.022297
-0.001663
-0.001663
-0.001663
-0.001663
-0.002882
-0.005854
-0.001663
-0.001663
-0.001663
-0.001663
-0.001663
-0.010488
-0.001663
-0.005595
-0.001663
-0.001663
-0.023148
-0.001663
-0.001663
-0.065158
-0.001663
-0.011139
-0.001663
-0.001663
-0.001663
-0.001663
-0.001663
-0.001663
-0.001663
-0.001663
-0.029035
-0.029035
-0.029035
-0.029035
-0.029035
-0.029035
-0.029035
-0.029035
-0.029035
-0.029035
-0.029035
-0.033773
-0.037825
-0.029035
-0.029035
-0.029035
-0.029035
-0.029035
-0.029035
-0.029035
-0.045658
-0.030293
-0.054169
-0.029035
-0.029035
-0.050652
-0.029035
-0.029035
-0.029035
-0.042560
-0.029035
-0.134662
-0.029035
-0.029035
-0.029035
-0.074184
-0.029035
-0.029035
-0.029035
-0.029035
-0.029035
-0.029035
-0.029035
-0.029035
-0.029035
-0.029035
-0.127237
-0.142504
-0.029140
-0.029035
-0.029035
-0.029035
-0.046468
-0.029035
-0.029035
-0.048412
0.005793
-0.057164
0.006062
0.006188
-0.011231
0.009110
0.009110
0.009110
-0.024003
0.009110
0.007911
0.006331
-0.020428
0.006331
0.009110
0.009110
0.009110
-0.072917
0.009110
0.009110
0.009110
0.006331
0.004919
0.008618
0.006331
0.006331
0.002641
0.006331
0.006331
-0.010815
0.005358
0.006331
0.006331
0.006331
0.006331
0.006331
0.001487
0.006331
0.006331
0.006331
0.006331
0.006331
0.006331
0.002140
0.006331
0.006331
0.006331
-0.011796
0.006331
0.003001
0.003553
0.006331
0.006331
0.006331
0.006331
0.002455
0.006331
0.006331
0.006331
0.006331
0.006331
0.006331
0.006331
-0.018242
0.003049
0.007273
-0.000187
0.007273
0.007273
0.007221
-0.001164
-0.001164
-0.005040
-0.001164
-0.017607
-0.001164
-0.001164
-0.001164
-0.001164
-0.001164
-0.001164
-0.001164
-0.001164
-0.022875
-0.001824
-0.001164
-0.001164
-0.001164
-0.001234
-0.001164
-0.001164
-0.001164
-0.001349
-0.001164
-0.001164
-0.009347
-0.001164
-0.061716
-0.001164
-0.001164
-0.001164
-0.001164
-0.001164
-0.001164
-0.001164
-0.016935
-0.058424
-0.001164
0.004094
0.001732
0.007087
0.007087
0.007087
0.007087
0.007087
0.007087
0.007087
0.007087
0.007087
-0.001598
0.007087
0.007087
0.007087
0.007087
0.003643
0.007087
0.007087
0.007087
0.007087
0.007087
0.001757
0.007087
0.007087
0.007087
0.007087
0.007087
0.006124
0.006124
0.006124
0.006124
0.006124
0.006124
0.006124
0.006124
0.006124
-0.000102
0.006124
0.006124
0.006124
-0.050232
0.006124
0.006124
0.006124
0.006124
0.005145
0.006124
0.006124
0.006124
0.006124
0.006124
0.004719
0.006124
-0.021371
-0.113107
0.006124
0.006124
0.006124
0.006124
-0.019860
0.006124
0.006124
0.006124
0.006124
-0.019143
0.006124
0.003763
0.001051
0.005152
0.006124
-0.006177
0.006124
0.006124
0.006124
0.006124
0.006124
0.006124
-0.048664
0.006124
0.005464
0.006124
-0.003098
0.006124
0.006124
0.006124
0.006124
0.006124
0.006124
0.006124
0.006124
0.006124
0.006124
0.006124
0.006124
0.006124
0.006124
0.006124
0.004717
-0.000154
0.006124
0.006124
0.006124
0.006124
0.006124
0.006124
0.006124
0.005152
0.006124
0.006124
0.006124
0.006124
0.006124
0.006124
0.006124
0.006124
0.006124
0.006124
0.006124
0.006124
0.006124
0.006124
0.001864
0.006124
0.006124
-0.016308
0.006124
0.006124
0.006124
0.006163
0.006163
0.006163
0.005397
0.006163
0.006163
0.006163
0.005625
0.006163
0.006163
0.003169
0.000319
0.005912
0.006163
0.006163
0.006163
0.006093
0.006163
0.006163
-0.022354
-0.005648
-0.106488
0.006163
0.006093
0.006163
-0.016269
0.006163
0.006163
-0.017714
0.006163
0.006163
0.000832
0.006163
-0.010465
0.006163
0.006163
0.006163
0.006163
-0.007146
0.006163
0.006163
0.006163
0.006163
0.006163
0.000558
0.007644
0.007644
-0.028976
0.004372
0.007644
0.007644
0.007644
0.007644
0.007644
0.007644
0.007644
0.006653
0.007107
0.007644
0.007644
0.007644
0.007644
0.007644
0.007644
0.001759
-0.007552
0.007644
0.007644
0.007644
0.007644
0.007644
0.007644
0.007644
-0.001637
-0.015740
0.007644
0.007644
-0.001086
0.007644
0.007644
-0.006014
0.006689
0.004180
0.007644
0.007644
0.007644
0.007644
0.007644
0.003050
0.007644
0.007644
0.007644
0.007644
-0.013861
0.004697
0.006229
0.007644
0.007644
0.007644
0.004115
0.004115
0.004115
0.004115
0.004115
0.004115
0.004010
0.002858
0.004115
0.004115
0.004115
0.004115
0.002858
0.004115
-0.046008
0.004115
0.004115
0.004115
0.004115
0.004115
0.004115
-0.047933
0.003976
0.004115
0.004115
-0.009543
-0.004236
0.004115
0.004115
0.004115
0.004115
-0.000944
-0.000944
0.004115
0.004115
0.004115
0.004115
-0.066457
0.006052
-0.027847
0.007006
0.007006
0.007006
0.007006
0.007006
-0.004915
0.007006
-0.009611
0.007006
0.007006
0.007006
0.007006
-0.113972
0.007006
-0.013603
0.007006
0.007006
0.007006
0.006185
0.007006
0.007006
-0.005521
0.001318
0.007006
0.007006
0.007006
0.007006
0.007006
0.007006
0.007006
0.007006
0.007006
0.007006
0.007006
0.006222
0.007006
0.004059
-0.005910
0.007006
0.007006
0.007006
0.007006
-0.027684
-0.011712
0.007006
0.007006
0.007006
0.007006
0.001676
0.007006
0.007006
0.007006
0.006052
0.007006
0.007006
0.005787
0.007006
0.007006
0.007006
0.006406
0.007006
0.007006
0.007006
0.007006
0.007006
-0.031652
0.006867
0.007006
0.007006
0.007006
-0.035262
0.007006
0.007006
0.007006
0.007006
0.004669
0.004669
-0.020464
-0.005193
0.004669
0.003697
0.004669
0.004669
-0.017314
0.004669
-0.012752
0.004669
-0.063727
0.004669
0.004669
0.004669
0.003278
-0.021827
0.004669
0.004669
0.004669
0.004388
0.004669
-0.007141
0.004669
0.003224
0.004669
0.004669
0.004669
0.004669
-0.000461
-0.013161
0.004669
-0.005299
0.004669
-0.040479
0.004669
0.004669
0.004669
0.004669
0.004669
0.004669
-0.003412
0.004669
0.004017
0.006918
0.006918
0.006918
0.006918
0.006826
0.006918
0.006918
0.006918
0.006918
0.006918
0.006918
-0.031601
-0.019091
0.006918
0.006813
0.006918
0.003066
0.006918
0.006918
0.006918
0.006813
0.006918
0.006918
0.006918
0.006918
0.006918
-0.057452
0.002727
0.006918
0.006918
0.006918
0.006918
0.006918
0.006918
0.003891
0.006918
-0.000928
0.006918
0.006441
0.006918
0.006918
0.006918
0.006918
0.006918
0.006918
0.006918
-0.004686
-0.004686
0.008742
0.008558
0.008292
0.008742
-0.012417
0.008742
-0.000237
0.008742
0.008742
0.008742
0.005743
0.008742
-0.075935
0.008742
0.008742
0.007544
0.008742
0.008742
0.008742
0.008742
-0.001116
0.008742
0.008742
0.002921
0.008742
0.007514
0.008742
0.008742
0.008742
0.008742
0.008742
0.008742
0.008742
0.008742
0.008742
0.008742
0.008742
0.008742
0.008742
0.005409
0.008742
0.008742
0.008742
-0.005771
-0.005771
-0.005771
-0.005771
-0.005771
-0.005771
-0.005771
-0.005771
-0.005910
-0.005771
-0.005771
-0.005771
-0.006039
-0.005771
-0.005771
-0.006694
-0.005771
-0.005771
-0.005771
-0.005771
-0.005771
-0.005771
-0.005771
-0.005771
-0.008718
-0.022214
-0.005771
-0.005771
-0.006161
-0.005771
-0.005771
-0.005771
-0.005771
-0.005771
-0.005771
-0.005771
-0.005771
-0.066467
-0.005771
-0.005771
-0.005771
-0.033393
-0.005771
-0.005771
-0.005771
-0.005771
0.007053
0.007053
0.006662
0.006400
0.004061
0.007053
0.007053
0.007053
0.007053
0.007053
-0.057607
-0.002452
0.007053
0.007053
0.007053
0.007053
0.007053
0.007053
0.007053
0.007053
0.007053
0.007053
0.007053
0.007053
0.007053
-0.074089
0.007053
0.007053
0.002662
0.006098
0.007053
0.007053
0.007053
0.003720
0.007053
0.003121
0.007053
0.007053
0.007053
0.007053
0.006057
-0.006677
0.003121
0.007053
0.003720
0.007053
-0.010836
0.007053
0.007053
0.007053
0.005035
-0.005866
-0.002594
-0.022258
0.007053
0.007053
0.007053
0.007053
0.007053
-0.002916
0.007053
0.007053
0.007053
0.007053
0.007053
0.007053
0.007053
-0.003889
-0.030089
-0.034349
-0.030089
-0.030089
-0.061492
0.005263
-0.058232
0.005263
0.005263
0.005263
0.005263
0.005263
-0.015748
0.005263
0.005263
0.005263
0.005263
0.005263
0.005263
0.005263
0.005263
-0.017040
0.004731
0.009050
0.009050
0.009050
0.009050
0.009050
0.008071
0.009050
0.009050
0.009050
0.009050
0.009050
0.008004
0.009045
0.009045
0.009045
0.009045
0.009045
0.008261
-0.088995
0.009045
0.009045
0.008444
-0.066839
0.004727
-0.006143
0.009045
-0.000341
0.009045
0.009045
0.009045
0.009045
0.009045
0.009045
0.009045
0.009045
0.009045
0.009045
0.009045
0.009045
0.009045
0.009045
0.009045
0.009045
0.008814
0.009045
0.009045
0.005225
0.009045
0.009045
0.009045
0.009045
0.008865
0.009045
0.009045
0.009045
0.009045
0.009021
0.008571
-0.056734
0.003962
0.009021
0.009021
0.009021
0.005566
-0.054995
0.009021
0.009021
0.009021
0.009021
0.009021
0.009021
0.009021
0.009021
0.009021
0.009021
0.009021
0.009021
0.009021
0.009021
0.009021
0.009021
0.009021
0.009021
0.009021
0.003761
0.009021
0.009021
0.009021
0.009021
0.004086
0.009021
0.009021
0.009021
0.009021
0.009021
0.008484
0.009021
0.004761
0.008882
0.009021
0.009021
0.009021
0.009021
0.009021
0.004941
0.004941
0.004941
0.004941
0.004941
0.000998
-0.025488
0.004941
-0.002664
0.002579
0.004941
0.004941
0.004941
0.004941
0.004941
0.004941
0.004941
0.004941
-0.006838
0.004941
0.004941
-0.025488
0.004941
0.004941
0.004941
-0.016961
0.004941
0.008954
0.008954
0.008954
0.008954
0.005676
0.008954
0.008954
0.008954
0.008680
0.008954
0.008954
0.008954
0.008954
0.008954
0.008954
0.008954
0.009634
-0.015359
0.009908
0.009634
0.009634
0.009908
0.009908
0.009908
0.009908
0.009908
0.009908
0.009634
0.009908
-0.009657
0.009908
0.009908
0.009908
0.009908
0.009908
0.009908
0.001315
0.009908
0.009908
0.009908
0.009908
-0.002002
0.009908
0.009634
0.009908
0.009908
0.009634
0.009908
0.009908
0.009908
0.009908
0.009908
0.009908
0.009908
0.009908
0.009895
0.009895
-0.009211
0.009895
0.009895
0.009895
0.009895
-0.012910
0.009895
0.009895
0.009895
0.009895
0.006623
0.009895
0.009895
0.009895
0.009895
0.009895
0.009895
-0.062915
0.009895
-0.041500
0.009895
0.009895
-0.047148
0.009895
0.009895
0.009895
0.009895
0.009895
0.009895
0.009895
0.009895
-0.054819
0.009895
0.009895
0.009895
0.007154
0.009895
0.003131
0.009895
0.009895
0.009895
0.009895
0.009895
-0.029122
0.009076
0.009895
0.009895
-0.032467
0.009895
0.009895
0.009895
0.009895
0.009895
0.009895
0.009895
-0.015372
0.009895
0.009895
0.009895
0.009895
0.009895
-0.008975
0.009895
0.009895
0.009895
0.009815
0.009815
0.009815
0.009815
-0.000153
0.009815
0.009815
0.009815
0.001914
0.009815
0.009815
-0.001995
0.000031
0.000031
0.000031
0.000031
0.000031
0.000031
0.000031
0.000031
0.000031
0.000031
0.000031
0.000031
0.000031
0.000031
0.000031
0.000031
0.000031
0.000031
0.000031
0.000031
0.000031
0.000031
0.000031
0.000031
0.000031
0.000031
0.000031
0.000031
-0.099417
0.000031
-0.088679
0.000031
0.000031
0.000031
0.000031
0.000031
0.000031
0.000031
0.000031
0.000031
0.000031
0.000031
-0.016390
0.000031
-0.002330
0.000031
0.000031
-0.000788
-0.054519
0.000031
-0.015267
-0.015267
-0.015267
-0.030296
-0.015267
-0.030273
-0.016978
-0.015267
-0.015267
-0.015267
-0.015267
-0.024255
-0.015267
0.009518
0.009518
0.009518
0.009518
0.009518
0.008980
0.009518
0.009518
0.009518
0.009518
0.009518
0.009518
0.009518
0.009518
0.009518
0.009518
0.009518
0.009518
-0.053977
0.009518
0.009518
0.009518
0.009518
0.009518
-0.090688
0.009518
0.009518
0.009518
0.009518
0.006728
0.006728
0.006728
0.006728
0.006728
0.006728
0.005321
0.006728
0.006728
0.006728
0.006728
0.006728
0.006728
0.006728
0.006728
0.006728
0.006728
0.006728
0.006728
-0.007258
0.006728
0.006728
0.006728
0.006728
0.006728
0.006728
0.006728
0.006728
0.004366
0.006728
0.006728
0.006728
0.006728
0.006728
0.006728
0.006728
0.006728
0.006728
0.006728
0.005509
0.006728
-0.009984
0.006728
0.006728
0.006728
-0.036402
0.006728
-0.006930
0.004366
0.006236
0.006728
0.006728
0.006728
0.006728
0.006728
0.006728
0.006728
0.006728
0.006728
-0.013705
0.001705
0.006728
0.006728
0.006728
0.006728
0.006728
0.006728
0.006728
-0.002226
0.006017
0.006227
0.006728
-0.151691
0.006728
-0.024963
0.003774
0.003774
0.003774
0.001006
-0.001155
0.003774
0.003774
0.003774
0.003774
0.003774
-0.015791
0.003774
0.003505
0.006514
0.003774
0.003774
0.002744
-0.046824
0.003733
0.006084
0.006514
0.003774
0.006514
0.006514
0.003774
-0.008564
0.004153
0.006514
-0.019867
0.006474
0.003774
0.003774
0.003774
0.006514
0.003774
0.003774
0.003774
0.003774
0.003774
0.003774
-0.030586
-0.009955
0.003774
0.003774
0.003774
0.003774
0.003774
0.003774
0.003774
0.001356
0.006514
0.006514
0.006514
0.006514
0.009550
0.009550
0.009550
0.009550
-0.067708
0.009550
0.007132
0.009550
0.009550
0.009550
-0.070919
-0.038657
0.009550
0.009550
0.009550
0.009550
0.009550
0.009550
0.009550
0.009550
0.009550
0.009550
-0.022533
0.009550
0.009550
0.009550
0.009550
0.009550
0.009480
0.009550
0.009142
0.009550
0.009550
0.009550
0.009550
0.009550
0.009550
0.009550
0.009550
0.009550
-0.027308
0.009550
0.008890
0.004564
0.009550
0.009550
0.009550
0.009550
0.009550
0.008330
0.009550
0.009550
0.009550
0.009550
0.009550
0.009550
0.009550
0.009550
0.009550
0.009550
0.009550
0.009550
0.009550
0.009550
0.009550
0.009550
0.009550
0.009550
0.009550
0.009550
0.009550
0.009550
0.009550
0.001648
0.009550
-0.002812
0.009550
0.009550
0.009550
0.009550
0.009550
0.009550
0.009550
0.009550
0.009550
-0.003986
-0.003986
-0.003986
-0.003986
-0.035586
-0.003986
-0.011451
-0.003986
-0.003986
-0.003986
-0.003986
-0.071132
-0.003986
-0.003986
-0.003986
-0.003986
-0.003986
-0.015819
-0.003986
-0.003986
-0.006750
-0.003986
-0.003986
-0.004236
-0.003986
-0.003986
-0.009026
-0.003986
-0.003986
-0.003986
-0.003986
-0.003986
0.005809
0.005809
0.005809
0.004990
0.005809
0.005809
0.005809
0.005809
0.005809
0.005809
0.005809
0.000042
0.005809
0.005809
0.005809
0.005809
0.005809
0.005809
0.005809
0.005809
0.005809
0.005809
0.005809
0.005809
-0.009380
0.005809
0.005809
0.005809
0.005809
0.005809
-0.015295
0.004837
0.005809
0.005809
0.005809
0.005809
0.005809
0.005809
0.005809
0.005809
0.005809
0.005809
0.005809
0.005809
0.005809
0.005809
0.005809
0.005809
0.005809
0.005809
0.005809
0.005809
-0.000450
0.005809
0.005809
-0.054082
0.005809
0.005809
0.005809
0.005809
0.005809
0.005739
0.003032
0.005809
0.005809
0.005809
0.005809
0.005809
0.005809
0.005809
0.005809
0.004918
0.005809
0.005809
0.005809
-0.015804
0.005809
0.005809
0.005809
-0.033244
0.005809
-0.029991
0.005809
0.005809
-0.028910
-0.023400
0.005809
0.005809
0.005809
0.005809
0.005809
0.005809
0.005809
0.005809
0.007078
0.007078
0.007078
0.007078
0.007078
0.007078
0.007078
0.007078
0.007078
0.007078
0.007078
0.007078
0.007078
0.007078
0.007078
0.007078
0.007078
0.007078
-0.009365
-0.078454
-0.067965
0.007078
0.007078
0.006187
0.007078
0.007078
0.007078
0.007078
0.007078
0.007078
-0.009326
0.006883
0.007078
0.007078
0.007078
0.007078
0.007078
-0.008669
-0.017684
0.006259
0.007078
0.007078
0.007078
0.007078
0.007078
0.007078
0.007078
0.007078
0.007078
0.007078
0.007078
0.007078
0.006541
0.007078
0.007078
0.004717
0.007078
0.007078
0.007078
0.007078
0.007078
0.007078
0.007078
-0.011999
-0.008663
0.005671
0.009727
0.009727
0.009727
-0.006515
0.005101
0.007281
0.009727
0.009727
0.009727
-0.005462
-0.092185
0.009727
0.009727
0.009727
0.009727
0.009727
0.009727
0.007259
0.007259
0.007259
0.007259
0.007259
0.007259
0.007259
0.007259
0.007259
0.007259
0.007259
0.007259
0.007259
0.007259
0.009930
0.009930
-0.025721
0.009930
-0.015740
0.009930
0.009930
0.009930
0.009930
0.009930
0.009930
0.009930
0.009930
0.009930
0.009930
0.009930
0.009930
0.009930
0.009930
0.009930
0.009930
0.009930
0.009930
0.009930
0.009930
-0.001880
0.009930
0.009930
0.008788
0.009930
0.009930
0.009930
0.009930
0.009930
0.009930
0.009930
0.009930
-0.053543
0.009930
0.009930
-0.009580
0.009930
0.009930
0.009930
0.009930
-0.005258
0.009930
0.009930
0.009930
0.009930
0.009930
0.009930
0.009930
0.009930
0.009930
0.009930
-0.012741
0.009930
0.009930
0.009930
0.009930
0.009930
0.009930
0.009930
0.007387
0.009930
0.009930
0.009930
0.009930
0.009930
0.008524
0.009930
0.007639
0.007639
-0.004722
0.007639
0.007639
0.007639
0.006232
0.007639
0.007639
-0.009194
0.007639
0.007639
0.007639
0.003707
0.007639
0.007639
0.007639
0.007639
0.007639
0.007639
0.007639
0.007639
-0.011926
0.007639
0.007639
0.007639
0.007639
0.004175
0.007639
0.007639
0.007639
0.007639
0.007639
0.007639
0.007639
0.007639
0.007639
0.007639
0.007639
0.007639
0.007639
0.007639
0.007639
0.007639
0.007639
0.007639
0.007639
0.007639
0.007101
0.007639
0.007639
0.007639
0.007639
0.007639
0.007639
0.007639
0.007639
0.007639
0.007639
0.007639
0.007639
0.007639
0.007639
0.007639
0.007639
0.007639
0.007639
0.007639
0.007639
0.007639
0.007639
0.007639
-0.008804
0.007639
0.007639
0.007639
0.007639
0.007639
0.007639
0.007639
0.007639
-0.003658
-0.003658
-0.003658
-0.003658
-0.003658
-0.005231
-0.003658
-0.003658
-0.003658
-0.067152
-0.003658
-0.003658
-0.003658
-0.003658
-0.003658
-0.003658
-0.003658
-0.006443
-0.006443
-0.028525
-0.006443
-0.006443
-0.006443
-0.006443
-0.006443
-0.088627
-0.006443
-0.006443
-0.006443
-0.006443
-0.021634
-0.006443
-0.006443
-0.006443
-0.006443
-0.006443
-0.006443
-0.006443
-0.006443
-0.006443
-0.006443
-0.006980
-0.006443
-0.006443
-0.006443
-0.006443
-0.006443
-0.006944
-0.006443
-0.006443
-0.006443
-0.006443
-0.010285
-0.006443
-0.006443
-0.006443
-0.006443
-0.006443
-0.006443
-0.006443
-0.006443
-0.006443
0.009463
0.009463
0.009463
0.009463
0.009463
0.009463
0.009463
0.009463
0.009463
0.009463
0.009463
0.009463
0.009463
0.009463
0.003690
-0.041599
0.009463
0.009463
0.009463
-0.040939
0.009463
0.001086
0.009463
0.009463
0.009463
0.008644
0.008644
0.009463
0.009463
0.009463
0.009463
0.009463
0.002309
0.009463
0.009463
0.009463
0.009463
0.008058
0.002271
0.009463
0.009463
0.009463
0.009463
0.009463
0.009463
0.008644
0.009463
0.009463
0.009463
0.009463
0.009463
-0.005725
0.009463
0.009463
0.009463
0.002751
0.003642
0.009463
0.009463
0.009463
0.009463
0.008593
0.008593
0.008593
0.008593
0.008593
0.008593
0.008593
0.008593
0.008593
0.008593
0.008593
0.008593
0.008593
0.008593
0.008593
0.008593
0.008593
0.008552
0.008593
0.000373
0.008593
0.008593
0.008593
0.008593
0.008593
0.008593
0.007774
0.008593
0.008593
0.008593
0.008593
0.008593
0.008593
0.008593
0.008593
0.008593
0.008593
0.008593
0.008593
0.008593
0.008593
0.008593
0.008593
0.008593
0.009216
0.009216
0.000427
0.009216
0.008244
0.009216
0.009216
0.009216
0.009216
0.009216
0.009216
0.009216
0.007770
0.009216
0.009216
0.009216
0.009216
0.009216
0.009216
0.008965
0.006158
0.006158
0.006158
0.000931
0.006158
0.006158
0.006158
0.006158
0.006158
0.005839
0.006158
0.006158
0.006158
0.006158
0.006158
0.006158
0.006158
0.006158
0.002469
0.006158
0.006158
0.006158
0.006158
0.006158
-0.058555
0.006158
0.006158
-0.003700
0.006158
0.006158
0.006158
0.006158
0.006158
0.006158
0.004960
0.005527
0.006158
0.006158
0.006158
0.006158
0.006158
0.006158
0.006158
0.006158
0.006158
0.006158
0.006158
-0.005747
0.006158
0.006019
0.006158
0.006158
0.006158
0.006158
0.006158
0.006158
0.004939
-0.109231
-0.109231
-0.109231
-0.109231
-0.109231
-0.109231
-0.109231
-0.109231
-0.109231
-0.109231
-0.109231
-0.109231
-0.109231
-0.109231
-0.109231
-0.109231
-0.109231
-0.109231
-0.109231
-0.109231
-0.109231
-0.109231
-0.109231
-0.109231
-0.109231
-0.109231
-0.109231
-0.109231
-0.109231
-0.109231
-0.109231
-0.109231
-0.121592
-0.109231
-0.109231
-0.109231
-0.109231
-0.109231
-0.109231
-0.109231
-0.109231
-0.109231
-0.109231
-0.109231
-0.109231
-0.109231
-0.109231
-0.109231
-0.109231
-0.109231
-0.109231
-0.109231
-0.109231
0.009042
-0.000981
0.009861
-0.004759
0.009861
-0.178680
-0.119673
0.009861
0.009861
0.002707
0.009861
0.009861
0.009861
0.009861
0.008933
0.009861
0.009861
-0.012571
0.008199
0.009861
0.009861
0.009861
0.009861
0.009861
0.009861
0.009861
0.009861
0.009861
0.009861
0.009861
-0.012055
0.009861
0.009861
0.009861
0.009861
0.009861
0.009861
0.009861
0.009861
-0.002013
0.009861
0.009861
0.009861
0.006865
0.009861
0.009861
0.007601
0.009861
0.009861
0.009861
0.009861
0.009861
0.009861
0.004040
0.009861
-0.140099
0.009861
0.009861
0.009861
0.009861
0.009861
0.009861
0.009861
0.009861
0.009861
0.009861
0.009861
0.009861
0.009861
0.009820
0.009861
0.006397
0.009861
0.009861
0.009861
0.009861
0.007753
0.009861
0.009260
0.009861
-0.004897
0.009861
0.008662
0.009861
0.009861
0.009861
0.009861
0.009861
0.009861
0.009861
0.009861
0.009861
0.009861
0.009861
0.009861
0.009861
0.009861
0.009861
0.009861
0.009861
0.008970
0.009861
0.009861
0.009861
0.009861
0.009861
0.008970
0.009861
0.009861
0.008662
0.009861
0.009861
0.003954
-0.016351
0.004588
-0.031632
0.002896
-0.024074
-0.052216
0.004773
-0.006417
-0.068367
-0.196968
0.001956
-0.021000
0.004773
0.004773
0.004588
-0.013332
0.003695
0.004773
0.004773
0.001777
-0.030191
0.004773
0.004773
0.003712
-0.084287
-0.018314
0.004773
0.004773
0.004773
0.004773
-0.199560
0.004773
0.004773
-0.006963
0.004773
0.004773
0.004773
0.001440
-0.011214
0.004773
0.003800
0.004773
0.004773
0.004773
-0.097737
-0.070469
-0.070469
-0.179082
-0.083272
-0.094243
-0.078173
-0.094907
-0.071914
-0.070469
-0.070469
-0.070469
-0.084536
-0.070469
-0.070469
-0.070469
-0.070469
-0.133178
-0.070469
-0.094785
-0.016530
-0.037775
-0.015370
-0.015133
-0.015133
-0.016530
-0.016010
-0.016010
-0.015953
-0.031541
-0.016329
-0.015133
-0.015133
-0.045038
-0.015133
-0.015133
-0.015133
-0.015133
-0.015133
-0.036576
-0.103439
-0.015133
-0.112207
-0.026872
-0.015133
-0.019394
-0.015133
-0.015915
-0.037135
-0.015133
-0.028159
-0.015133
-0.015133
0.009028
0.009028
0.009028
0.009028
0.009028
0.009028
0.009028
0.009028
0.009028
0.009028
0.009028
-0.011581
0.009028
0.009028
0.009028
0.009028
0.009028
-0.060574
0.009028
0.009028
0.009028
0.009028
0.009028
0.009028
0.009028
-0.016400
0.009028
0.009028
0.009028
0.009028
-0.051332
-0.039494
0.009028
0.009028
0.009028
0.009028
0.009028
0.009028
0.009028
-0.022211
0.009028
0.009028
0.009028
0.009028
0.009028
0.009028
0.009028
0.009028
0.009028
0.009028
0.009028
0.009028
0.009028
0.009028
0.009028
0.009028
0.009028
0.006250
0.009028
0.009028
-0.018744
-0.018354
-0.009565
-0.009565
-0.029172
-0.009565
-0.023294
-0.034616
-0.040496
-0.039456
-0.055326
-0.072721
-0.021261
-0.097958
-0.116697
-0.009565
-0.009565
-0.024753
-0.037462
-0.009565
-0.009565
-0.009565
-0.009750
-0.009565
-0.010007
-0.023479
-0.009565
-0.009750
-0.009565
-0.034808
-0.010898
-0.060935
-0.009565
-0.009565
-0.019827
-0.009565
-0.009565
-0.010065
-0.009565
-0.038864
-0.160417
-0.009565
-0.011673
-0.033664
-0.010763
-0.018609
-0.017938
-0.016719
-0.009565
-0.010217
-0.012010
-0.009565
-0.020063
-0.064483
-0.009565
-0.009565
-0.039600
0.005131
0.003323
0.005131
0.009732
0.006268
0.005131
0.008286
0.008800
-0.011505
0.009732
0.009732
-0.011062
0.009732
0.009732
0.008533
-0.031561
0.009732
0.009732
-0.066193
0.009732
0.009732
0.009732
0.007624
0.005131
0.009732
0.009732
0.009732
0.004451
0.006955
0.009732
0.009732
0.009732
0.008559
0.009732
0.009732
0.009732
0.009732
0.009732
0.009732
0.009732
0.002650
0.009732
0.009732
0.006268
0.005670
0.009732
0.009732
0.005583
0.009732
0.008143
-0.002629
0.009732
0.009732
0.009732
0.009732
0.009732
0.009732
0.009732
0.009732
0.009732
0.009732
0.009732
0.009732
0.009732
0.009732
0.009732
0.009732
0.009732
0.009732
0.009732
0.008347
0.009557
0.007112
0.009557
0.008667
0.009557
0.005297
0.009557
0.009557
0.008347
0.008347
-0.012110
0.008898
0.009557
0.009557
0.008112
0.009557
-0.037787
-0.071191
0.009557
0.009557
0.008738
0.009362
0.009557
0.009557
0.009557
0.005834
0.009557
0.009557
0.009557
0.009557
0.009557
0.008898
-0.016663
0.008667
-0.017420
0.009557
0.009557
-0.029017
-0.155025
-0.004556
-0.005189
-0.005189
0.009557
0.000171
0.009557
-0.005568
0.009557
-0.001151
0.006094
0.009557
0.009557
-0.013281
0.009557
0.007198
0.009557
0.009557
0.009557
0.009557
-0.063967
-0.035148
-0.041704
-0.036553
-0.051839
-0.037950
-0.036553
-0.078265
-0.072207
-0.035148
-0.046339
-0.064586
-0.035148
-0.035148
-0.035148
-0.035148
-0.035148
-0.035148
-0.035148
-0.035148
-0.035148
-0.035148
-0.047509
-0.035148
-0.035148
-0.035148
-0.035148
-0.035148
-0.080328
-0.035148
-0.035148
-0.035148
-0.042302
-0.035148
-0.042995
-0.035148
-0.035148
-0.035148
-0.035148
-0.035148
-0.051481
-0.043050
-0.035148
-0.053231
-0.048157
-0.042302
-0.035148
-0.035148
0.009109
0.009109
-0.054820
-0.000045
0.008827
-0.012333
0.009109
0.009109
0.009109
0.009109
0.009109
0.008290
-0.005477
0.009109
0.009109
0.009109
0.009109
0.009109
-0.025492
0.009109
0.009109
0.009109
0.007001
0.009109
0.009109
0.001263
0.009109
0.002776
0.009109
0.009109
0.009109
0.009109
0.009109
0.009109
0.009109
-0.000528
-0.008856
0.009109
0.009109
0.009109
0.006332
0.009109
0.009109
0.009109
0.009109
-0.016556
0.009109
0.009109
0.009109
0.006114
0.009109
0.009109
0.009109
0.009109
0.009109
0.009109
0.009109
0.009109
0.009109
0.005780
0.009109
0.008508
0.009109
0.009109
0.008249
0.009109
-0.005545
0.009109
0.009109
0.009109
0.009109
-0.003192
0.005646
0.009109
0.009109
0.009109
0.009109
0.009109
0.009109
0.008858
-0.011442
-0.011442
-0.082727
-0.011442
-0.011442
-0.011442
-0.011442
-0.011442
-0.011442
-0.011442
-0.011442
-0.011442
-0.011442
-0.011442
-0.011442
-0.020035
-0.011442
-0.012319
-0.011442
-0.011442
-0.011442
-0.011442
-0.011442
-0.011442
-0.011442
-0.011442
-0.011442
-0.011442
-0.011442
-0.011442
-0.011442
-0.011442
-0.023967
-0.011442
-0.011442
0.005740
0.005740
0.005740
0.005740
0.005740
0.005740
0.005740
0.005740
0.005740
0.000589
0.000589
0.005740
0.005740
0.005740
0.005740
0.005740
-0.010713
-0.037026
0.005740
-0.067588
0.005740
0.005740
0.005740
0.005740
0.005248
-0.001414
0.005699
0.005740
0.005248
0.005740
0.005740
0.005699
0.005350
0.005740
0.005740
-0.054956
0.005740
0.005740
0.005740
0.004918
0.005740
0.005740
0.005740
0.004918
0.005740
-0.058645
-0.049027
0.005740
-0.002301
-0.002301
-0.002301
-0.002301
-0.002301
-0.002301
-0.002301
-0.002301
-0.014916
-0.002301
-0.002301
-0.006363
-0.002301
-0.002301
-0.002620
-0.002301
-0.002301
-0.002301
-0.016941
-0.002301
-0.002301
-0.002301
-0.002301
-0.010986
-0.002301
-0.002301
-0.002301
-0.002301
-0.002301
-0.002301
-0.015177
-0.002301
-0.003085
-0.015432
-0.002301
-0.002301
-0.002301
-0.027063
-0.002342
-0.002301
-0.002301
-0.002301
-0.002301
-0.002301
-0.002301
-0.002301
-0.002301
-0.002301
-0.002301
-0.002301
-0.002301
-0.007588
0.001315
0.001315
0.001315
0.001315
0.001315
0.001315
-0.013534
0.001315
0.001315
0.001315
0.001315
0.001315
0.001315
0.001315
0.001315
0.001315
0.001315
-0.002404
0.001315
0.001315
0.001315
0.001315
-0.024926
0.001315
0.001315
0.001315
0.001315
0.001315
0.001315
0.001315
0.001315
0.001315
0.001315
0.000714
0.000496
-0.007754
0.001033
0.001315
0.000814
0.001315
0.000438
0.001315
0.001315
0.001315
0.001315
-0.004548
0.009181
0.009181
0.009181
0.009181
0.009181
-0.008821
-0.008821
0.009181
0.009181
-0.104278
0.009181
0.009181
-0.012566
0.001335
0.009181
0.009181
-0.062816
0.007735
0.009181
0.009181
0.009181
0.009181
0.009181
0.009181
0.009181
0.009181
0.009181
-0.004938
0.009181
0.009181
0.009181
0.009181
-0.004067
0.009181
0.007982
0.009181
0.009181
0.009181
0.009181
-0.002629
0.009181
0.007982
0.009181
0.008580
-0.018911
0.009181
0.009181
0.009181
0.009181
0.009181
0.009181
0.009181
0.009181
0.009181
0.009181
0.009181
0.009181
0.009181
-0.002313
-0.019871
0.009181
0.009181
0.009181
0.008930
0.009181
0.009181
0.009181
-0.015581
-0.015581
0.009181
0.004580
0.009181
0.009181
0.009181
-0.000109
0.009181
0.009181
0.009181
0.009181
0.009181
0.009181
0.009181
0.003459
0.007982
-0.010263
0.001335
0.008485
0.009181
0.009181
0.009181
0.009181
0.008304
0.009181
0.007581
0.009181
0.005210
0.009181
0.009181
0.009181
0.009181
-0.003729
-0.003729
-0.003729
-0.003729
-0.003729
-0.003729
-0.028491
-0.003729
-0.031452
-0.003729
-0.018917
-0.003729
-0.068487
-0.003729
-0.003729
-0.003729
-0.023786
-0.066101
-0.020346
-0.003729
-0.028491
-0.003729
-0.003729
-0.003729
-0.003729
-0.003729
-0.003729
-0.003729
-0.003729
-0.003729
-0.003729
-0.003729
-0.003729
-0.003729
-0.003729
-0.003729
-0.003729
-0.003729
-0.003729
-0.007419
-0.004119
-0.003729
-0.003729
-0.003729
-0.160739
-0.009423
-0.045801
-0.016977
-0.003729
-0.003729
-0.003729
-0.005837
-0.011714
-0.004928
-0.003729
-0.003729
-0.017690
-0.005216
-0.003729
-0.003729
-0.003729
-0.003729
-0.003729
-0.003729
-0.004611
-0.003729
-0.005175
-0.003729
-0.003729
-0.003729
-0.003729
-0.004011
-0.003729
-0.007419
-0.003729
-0.014762
-0.018824
-0.014762
-0.014947
-0.014762
-0.016641
-0.017208
-0.014762
-0.014762
-0.014762
-0.014762
-0.014762
-0.014762
-0.014762
-0.014762
-0.015961
-0.016478
-0.014762
-0.041823
-0.014762
-0.014762
-0.014762
-0.014762
-0.014762
-0.014762
-0.014762
-0.014762
-0.014762
-0.029870
-0.014762
-0.014762
-0.019293
-0.026366
-0.014762
-0.014762
-0.014762
-0.014762
-0.014762
-0.014762
-0.016022
-0.014762
-0.014762
-0.014762
-0.037475
-0.014762
0.008802
0.008802
0.008802
0.008802
0.008802
-0.000585
0.008802
0.008802
-0.055701
-0.010305
0.008802
0.008802
-0.021495
0.008802
0.008802
0.008802
0.008802
0.008802
0.008802
0.008802
0.008802
0.004631
0.008802
0.008802
0.008802
0.008802
0.008802
0.008802
0.008802
0.008802
0.008802
0.008551
0.008802
0.008617
0.008802
0.008802
0.008802
0.008802
0.008802
0.008802
-0.001085
0.008802
0.008761
0.008802
0.008606
0.008802
0.008802
0.008802
-0.001324
0.008802
0.008802
0.008802
-0.052716
0.008802
0.008802
0.008802
0.008802
0.008802
0.008802
0.008802
0.008802
0.000900
0.008802
0.008802
0.005806
0.008149
0.008802
0.008781
0.001077
-0.012190
0.008781
0.008781
0.008781
0.008781
0.008781
0.008585
0.008781
0.008781
0.008781
0.008781
0.006673
0.008781
0.008781
0.008781
0.008781
0.005451
0.008781
0.008781
0.008781
0.008781
0.008781
0.008781
0.003852
0.008781
0.008781
0.008781
0.008585
0.008781
0.008781
0.007335
0.008781
-0.006960
0.008781
0.008781
0.008740
0.007335
-0.010326
0.005317
0.008781
0.008781
0.008781
0.008781
0.008781
0.008781
0.008781
0.008781
0.008781
0.008781
0.008781
0.008781
0.008781
0.008781
0.008781
0.008781
0.008781
0.008781
-0.003029
0.008781
-0.002155
0.009815
0.009815
0.009815
0.005883
0.009815
0.009815
0.009496
0.009815
0.009815
0.009815
0.009815
0.004664
0.009815
0.009620
0.009815
-0.006927
0.009774
0.009815
0.001222
-0.001923
0.009815
0.009815
0.009815
0.009815
0.009815
0.009815
0.009815
0.009815
0.009815
0.009815
0.009815
0.006486
0.009815
0.008939
0.009815
0.006482
0.009815
0.009815
0.009815
-0.003425
0.008411
0.009815
0.009815
0.009815
0.009815
0.009815
0.009815
0.009815
0.009815
0.009815
0.009815
0.007892
0.007892
0.007641
0.004562
0.007892
0.007892
0.007892
-0.004209
0.007892
-0.011214
0.007892
0.000046
0.007892
-0.006269
0.007892
-0.011214
0.007892
0.007892
0.007892
0.007892
0.007892
0.007892
0.007892
0.007892
0.007892
-0.001494
0.007892
0.007892
0.007892
0.007892
0.007892
0.007892
0.007892
0.006536
0.006536
-0.014453
0.006536
0.006536
0.006536
0.006536
0.002953
0.006286
0.006536
0.006536
0.006536
0.006536
0.006536
0.002847
0.006536
0.006536
0.006536
0.006536
0.006536
0.006536
0.006536
0.006536
0.006536
-0.007229
0.006536
0.006536
-0.001310
0.006536
0.006536
0.006536
0.006536
-0.004340
-0.000126
-0.002890
0.006536
0.006536
0.006341
0.006536
0.006536
0.003893
0.006670
0.006670
0.006670
0.006420
0.006420
-0.002716
0.006670
0.006670
-0.002716
0.006670
0.006670
0.006670
0.006670
0.006670
0.006670
0.006670
-0.002716
0.006670
0.006670
0.006670
0.006670
0.006670
0.006670
0.006670
0.006670
0.006670
0.006670
0.006670
0.006670
0.006670
0.006670
0.006670
0.006670
0.006670
0.006670
0.008554
-0.048658
0.008554
0.002419
0.008554
0.008554
0.003403
0.008554
0.008554
0.008554
0.008554
0.008554
0.003666
0.008554
0.008554
0.008554
0.008554
0.008554
0.008554
0.008554
0.008554
0.008554
0.008554
0.008554
0.008554
0.008554
0.008554
0.008513
0.008554
0.008554
0.008554
0.008164
0.002221
0.008062
0.008554
0.008554
0.008554
0.000295
0.000614
-0.072384
0.000614
0.000614
0.000614
0.000614
0.000614
0.000614
0.000614
0.000614
0.000614
0.000614
0.000614
0.000614
0.000614
0.000614
0.000614
0.000614
-0.026203
0.000614
0.000614
0.000614
0.000614
0.000614
0.000614
0.000614
0.000614
0.000614
0.000614
0.000614
0.000614
0.000614
0.002296
0.002296
0.002296
0.002296
0.002296
0.002296
-0.003525
0.002296
0.002296
0.002296
-0.012710
0.002296
0.002296
-0.001712
0.002296
0.000490
0.006311
-0.001910
0.006311
0.006311
-0.040110
0.006311
-0.014484
0.006311
0.006311
0.006311
0.001423
-0.012757
0.006311
-0.006555
-0.008878
-0.016074
-0.027349
0.006311
0.001423
0.006311
0.006311
0.006311
0.000490
0.006311
0.006311
0.005991
0.006311
0.006311
0.006311
0.006311
0.006311
0.006311
0.006311
0.006029
0.006311
0.006311
0.006311
0.006311
0.009749
0.001903
0.009749
0.009749
0.009749
0.009749
0.009749
0.009749
0.009749
0.009749
0.009749
0.009749
0.009749
0.009749
0.009749
0.009749
0.009749
0.009749
0.009749
0.009749
-0.110453
0.009749
0.009749
0.009749
0.009749
0.009749
0.009749
0.009749
0.009749
0.009749
0.009749
0.009749
0.009749
-0.004837
0.009749
0.009749
0.005124
0.009749
0.009749
0.009749
0.009749
0.009749
0.009749
0.009749
0.003928
0.009749
0.009749
0.007223
0.007223
0.007223
0.007223
0.007223
0.007223
0.006833
-0.007783
0.007223
0.007223
0.007223
0.005346
0.007223
0.007223
0.007223
0.007223
0.007223
0.007223
0.007223
0.007223
0.007223
0.007223
0.007223
0.007223
0.007223
0.007223
0.006731
0.007223
0.007223
0.007223
0.007223
0.007223
0.007223
0.007223
-0.107035
0.007223
0.007223
-0.020931
0.007223
0.007223
0.007223
0.007223
0.007223
0.007223
0.007223
0.009508
0.009508
0.009508
0.009508
-0.009598
0.001854
-0.005680
0.009508
0.009508
0.006809
0.009508
0.009508
0.009508
0.009508
0.009508
0.009508
0.009508
0.009508
0.009508
-0.066376
0.009508
0.000400
0.009508
0.009508
-0.029011
0.009508
0.009508
0.009508
0.009508
0.009508
0.002354
-0.051188
0.009508
0.009508
0.009508
0.009227
0.009508
0.009508
0.009508
0.009508
0.009508
0.009508
0.009508
0.009508
0.009508
0.008686
0.009508
0.009508
0.009508
0.009508
0.009508
0.009508
0.009508
0.009227
0.008112
0.009508
0.009508
0.009508
0.009508
-0.045968
0.009508
0.009508
0.009508
-0.105733
0.009508
-0.006514
0.005112
0.005112
0.001270
0.005112
0.005112
0.005112
0.005112
0.005112
0.005112
0.005112
0.002666
0.005112
0.005112
0.005112
0.005112
0.005112
0.005112
0.005112
0.005112
0.005112
0.005112
0.005112
0.005112
0.005112
0.005112
0.005112
0.005112
0.002846
0.002846
-0.001315
-0.109414
-0.003710
-0.180861
0.002846
-0.002305
0.002846
0.002846
0.002846
0.002345
0.002846
0.002846
0.002846
0.002846
0.002846
0.002846
0.002846
0.002846
0.001970
0.002846
0.002846
0.002846
0.003994
0.005399
0.005399
0.005399
0.005399
-0.017033
-0.006411
0.005399
0.003994
0.005399
0.005399
0.005399
0.005399
0.005399
0.005399
0.005399
0.005399
-0.009538
-0.007187
0.005399
0.005399
0.005399
-0.015395
0.005399
0.005399
0.005399
0.005399
0.005399
0.005399
0.005399
0.005399
0.005399
-0.036420
-0.033670
-0.034241
-0.034241
-0.028519
-0.028519
-0.034241
-0.028519
-0.034241
-0.028519
-0.028519
-0.028519
-0.028519
-0.043525
-0.028519
-0.034241
-0.034241
-0.040880
-0.028519
-0.028519
-0.028519
-0.028519
-0.028519
-0.028519
-0.028519
-0.028519
-0.028519
-0.028519
0.004179
0.004179
0.004179
0.004179
0.004179
0.004179
0.000117
-0.004610
0.004179
0.004179
0.004179
0.002783
0.004179
0.004179
0.003038
0.004179
0.004179
0.004179
0.004179
0.004179
0.004179
0.004179
0.004179
0.004179
0.004179
0.004179
0.003897
0.004179
0.007004
0.007004
0.007004
0.007004
0.005127
0.005127
0.007004
0.007004
0.007004
0.007004
0.007004
0.005127
0.007004
0.007004
0.005127
0.007004
0.007004
0.007004
0.007004
0.007004
0.007004
0.007004
0.007554
0.007554
-0.049532
0.007554
0.007554
0.007554
0.007554
-0.020174
0.007554
0.007235
0.007554
-0.013675
-0.008024
0.007554
0.007554
0.007554
0.007554
0.007554
0.007554
0.007554
0.007554
0.007554
0.007554
0.007554
0.007554
0.007554
0.006895
0.007554
0.007554
-0.004354
0.007235
0.007554
0.007554
0.007554
0.007554
0.007554
0.007554
0.007554
0.009347
0.009347
0.009347
0.009347
0.009347
0.009347
0.009347
0.009347
0.009347
0.009347
0.009347
0.009347
0.009347
0.009347
0.009347
0.009347
0.009347
0.009347
0.009347
0.009347
0.009347
0.009347
-0.005006
-0.005006
-0.005006
-0.005006
-0.005006
-0.005006
-0.005006
-0.005006
-0.005006
-0.005006
-0.005006
-0.005006
-0.005006
-0.005006
-0.012907
-0.005006
-0.005188
-0.005188
-0.006585
-0.006585
-0.005188
-0.005188
-0.005188
-0.005188
-0.005188
-0.005188
-0.005188
-0.005188
-0.005188
-0.005188
-0.005188
-0.005188
-0.005188
-0.005188
-0.005188
-0.005188
-0.005188
0.000142
0.000142
0.000142
0.000142
0.000142
0.000142
0.000142
0.000142
0.000142
0.000142
0.000142
0.000142
0.000142
0.000142
0.000142
0.000142
0.000142
-0.003851
0.000142
-0.009106
-0.009106
-0.009106
-0.020296
-0.009106
-0.009106
-0.009983
-0.009106
-0.014258
-0.013038
-0.020296
-0.009106
-0.009106
-0.009106
-0.009106
-0.009106
-0.009106
-0.009106
-0.009106
-0.009106
-0.009106
-0.009106
-0.009607
-0.009106
-0.009106
-0.009106
-0.009106
-0.053494
-0.053494
-0.053995
-0.053494
-0.053494
-0.053494
-0.053690
-0.053494
-0.053494
-0.053494
-0.053494
-0.053494
-0.053494
-0.053494
-0.053494
-0.053494
-0.053494
-0.053494
-0.053494
-0.053494
-0.053494
-0.001190
-0.001190
-0.001190
-0.001190
-0.001190
-0.001190
-0.001190
-0.001190
-0.006341
-0.001190
-0.001190
-0.001190
-0.001190
-0.001190
-0.001190
-0.001190
-0.007513
-0.001190
-0.001190
-0.001190
-0.001190
-0.001190
-0.001190
-0.030434
-0.010794
-0.010794
-0.011076
-0.010794
-0.010794
-0.010794
-0.010794
-0.010990
-0.011671
-0.010794
-0.010794
-0.010794
-0.014726
-0.014726
-0.010794
-0.019584
-0.010794
-0.026460
-0.010794
-0.010794
-0.010794
-0.017986
-0.010794
-0.019624
-0.010794
-0.010794
-0.010794
-0.010794
-0.022604
-0.022604
-0.010794
-0.010794
-0.010794
-0.010794
-0.010794
-0.010794
0.004278
0.004278
0.004278
0.004278
0.004278
0.004278
0.004278
0.004278
0.004278
0.004278
0.004278
0.004278
0.004278
0.004278
0.004278
-0.008083
-0.008083
0.004278
0.004278
0.004278
0.004278
0.004278
-0.003623
0.004278
0.004278
0.004278
0.004278
0.004278
0.004278
0.000945
0.004278
0.004278
0.004278
0.004278
0.004278
0.004278
0.004278
0.004278
0.004278
-0.003623
-0.019687
0.009681
0.009681
0.009681
0.009640
0.005749
0.009681
0.009681
0.009681
0.009681
0.009681
0.009681
0.009681
0.005749
0.005749
0.009681
0.009681
0.009681
0.009681
0.009681
0.007804
0.009681
0.009681
0.009681
0.009681
0.009681
0.009681
0.009681
0.009681
0.009681
0.009681
0.002099
0.002099
0.002099
0.002099
0.001817
0.002099
0.002099
0.002099
0.002099
0.002099
0.002099
0.002099
0.002099
0.002099
0.002099
0.002099
0.002099
0.002099
0.001598
0.002099
0.002099
0.002099
0.002099
0.002099
0.002099
0.002099
-0.007191
0.002099
0.002099
0.002099
0.002099
0.002099
0.002099
0.002099
0.002099
0.002099
0.002099
0.002099
0.002099
0.002099
0.002099
0.002099
-0.006497
0.002099
0.002099
0.002099
0.002099
0.002099
0.002099
0.002099
0.002099
-0.017558
0.002099
0.001211
0.001211
0.001211
0.001211
-0.000695
-0.006636
-0.054343
0.001211
0.001211
0.001211
0.001211
0.001211
0.001211
-0.010600
0.001211
0.001211
-0.010394
-0.010394
0.001211
0.001211
-0.014171
-0.002361
-0.002862
-0.002361
-0.002361
-0.002361
-0.002361
-0.002962
-0.002361
-0.002361
-0.002361
-0.002361
-0.002361
-0.005694
-0.002361
-0.002361
-0.002361
-0.002361
-0.002361
-0.002361
-0.002361
-0.002361
-0.002361
-0.002361
-0.002361
-0.002361
0.009959
0.009959
0.009959
0.009959
0.009959
0.009959
0.009569
0.009959
0.009959
0.009137
0.009959
0.009959
0.009959
0.009959
0.009959
0.009959
0.009959
0.009959
0.009764
0.005897
0.009959
0.009959
0.009959
0.009959
0.009764
0.009959
0.009959
0.009959
0.009959
-0.002525
0.006068
-0.001778
0.006068
0.006068
0.006068
0.006068
0.006068
0.006068
0.006068
0.006068
0.006068
0.006068
0.005567
0.006068
0.006068
0.006068
0.006068
-0.009673
0.006068
0.006068
0.009124
0.001932
0.009124
-0.002615
0.009124
0.009124
0.009124
0.009124
0.009124
-0.002615
0.009124
0.009124
0.009124
0.009124
-0.006617
0.009124
0.009124
0.009124
0.009124
0.009124
0.009124
0.009124
0.009124
0.009124
0.009124
0.009124
0.009124
0.009124
0.009124
0.009124
0.009124
0.009124
0.009124
0.009124
0.009124
0.009124
0.009124
0.009124
0.009124
0.009124
0.009124
0.009124
0.009124
0.009124
0.009124
0.009124
0.009124
0.009124
0.009124
0.009124
0.002808
0.002808
0.002808
0.002808
0.002808
0.002808
0.002808
0.002527
0.002808
-0.001253
-0.001738
-0.001738
-0.001738
-0.001738
-0.001738
-0.003135
-0.001738
-0.001738
-0.001738
-0.001738
-0.003143
-0.013342
-0.001738
-0.001738
-0.001738
-0.001738
-0.001738
-0.001738
-0.001738
-0.002239
-0.001738
-0.001738
-0.001738
-0.001738
-0.001738
-0.001738
-0.001738
-0.001738
0.008595
0.008595
0.008595
0.008595
0.008595
0.008595
0.000749
0.008595
0.008595
0.008595
0.008595
0.008595
0.008595
0.008595
0.008595
0.008595
0.008595
0.008595
0.008595
0.008595
0.008595
0.008595
0.008595
0.008595
0.008595
0.008595
0.008595
0.008595
0.008595
0.008595
0.008595
-0.039776
0.006667
-0.009074
0.005271
0.006667
0.006667
0.006667
0.006667
0.006667
0.006667
0.006667
-0.004937
-0.004937
0.005845
0.006667
0.006667
0.006667
0.006667
0.006667
0.006667
0.006667
0.006667
0.006667
0.006667
0.006667
0.006667
0.006667
0.006667
0.005938
0.005938
0.005938
0.005938
0.005938
0.005938
-0.005666
0.005938
0.005938
-0.005666
0.005938
0.005938
-0.005666
0.005938
0.005938
0.005938
0.005938
0.005938
-0.007310
0.005938
0.005938
0.005938
0.005938
0.005938
0.005938
0.005938
0.005938
0.005938
-0.054758
0.005938
0.005938
-0.016493
0.005938
0.005938
0.005938
0.005938
-0.005666
0.008123
0.008123
0.008123
0.008123
0.008123
0.008123
0.008123
0.008123
0.008123
0.008123
0.008123
0.008123
0.008123
0.008123
-0.062506
-0.050696
-0.051196
-0.050696
-0.050696
-0.050696
-0.050696
-0.050696
-0.050696
-0.050696
-0.050696
-0.050696
-0.050696
-0.050696
0.009340
0.009340
0.009340
0.009340
0.009340
0.009340
0.009340
0.009340
0.009340
0.009340
0.008840
0.009340
0.009340
0.009340
0.009340
0.009340
0.009340
0.009340
0.008950
0.009340
0.008739
0.009340
0.009340
0.009340
0.009340
0.009340
0.009340
0.009340
0.009399
0.008296
0.008899
0.009399
0.009399
0.008296
0.009399
0.009399
0.009399
0.009399
0.009399
0.009399
0.009399
0.009399
0.009399
-0.102861
0.008003
0.009399
0.009399
0.009399
0.009399
0.009399
0.009399
0.009399
0.009009
0.009399
0.009399
0.009718
0.009718
0.009718
0.009718
0.009718
-0.001886
0.009718
0.009718
0.009718
0.009718
0.009718
0.009718
0.009718
0.009718
0.009718
0.009718
0.009718
0.009718
0.009718
0.009718
0.009718
0.009718
0.009718
0.009718
0.009718
0.008896
0.009718
-0.001886
0.009718
0.009718
0.009718
-0.003530
0.009718
0.009718
0.009718
0.009718
0.009718
0.009718
0.009718
-0.001886
0.009718
0.009718
0.009718
0.009718
0.009718
0.009718
0.009718
0.009718
0.009718
0.009718
0.009718
0.009718
0.009718
0.009718
0.009718
0.009718
0.009718
0.009718
0.009718
0.009718
0.009718
0.009718
0.009718
-0.005741
-0.005741
-0.005741
-0.005741
-0.005741
-0.005741
-0.005741
-0.005741
-0.005741
-0.005741
-0.005741
-0.005741
-0.005741
-0.005741
-0.005741
-0.005741
-0.005741
-0.028172
-0.005741
-0.005741
-0.005741
-0.005741
-0.005741
-0.005741
-0.005741
-0.005741
-0.005741
-0.005741
-0.005741
-0.005741
-0.005741
-0.005741
-0.005741
-0.005741
-0.005741
-0.005741
-0.005741
-0.005741
-0.005741
-0.005741
-0.005741
-0.005741
-0.103657
0.008604
0.008604
-0.103657
0.008604
0.008604
0.008604
0.008604
0.008604
0.008604
0.008604
0.008604
0.008604
0.008604
0.008604
0.008604
0.008604
0.008604
0.009178
0.009178
0.009178
0.009178
0.009178
0.009178
-0.002426
0.009178
0.009178
0.009178
0.009178
0.009178
0.009178
0.009178
0.009178
0.009178
0.009178
0.009178
0.009178
0.009178
0.009178
0.009178
0.009178
0.009178
0.009178
0.009178
0.009178
0.009178
0.009178
0.009178
-0.001604
-0.001604
-0.001604
-0.006755
-0.001604
-0.001604
-0.001604
-0.001604
-0.001604
-0.001604
-0.001604
-0.001604
-0.001604
-0.001604
-0.001604
-0.001604
-0.001604
-0.040402
-0.040402
-0.040402
-0.040402
-0.040402
-0.040402
-0.040402
-0.040402
-0.040402
-0.040402
-0.040402
-0.040402
-0.040402
0.002154
0.002154
0.002154
0.002154
0.002154
0.002154
0.002154
0.002154
0.002154
0.002154
0.002154
0.002154
0.002154
0.002154
0.002154
0.002154
0.002154
0.002154
0.002154
0.002154
0.002154
0.002154
0.002154
0.002154
0.002154
0.002154
0.002154
0.002154
0.002154
0.002154
0.002154
0.002154
0.002154
0.002154
0.002154
0.002154
0.002154
0.002154
0.002154
0.002154
0.002154
0.002154
0.002154
-0.012432
-0.012432
-0.012432
-0.012432
-0.012432
-0.012432
-0.012432
-0.012432
-0.012432
-0.012432
-0.012432
-0.012432
-0.012432
-0.012432
-0.012432
-0.012432
-0.012432
-0.012432
-0.012432
-0.012432
-0.012432
-0.012432
-0.012432
-0.012432
-0.012432
-0.012432
-0.012432
-0.012432
-0.003248
-0.003248
-0.003248
-0.003248
-0.003248
-0.003248
-0.003248
-0.003248
-0.003248
-0.003248
-0.003248
0.009610
-0.002200
0.009610
0.009610
0.009610
0.009610
0.009610
0.009610
0.009610
0.009610
0.009610
0.009610
0.009610
0.009610
0.009610
0.009610
0.009610
0.009610
0.009610
0.009610
0.009610
0.009610
0.009610
0.009610
0.009610
0.009610
0.009610
0.009610
0.009610
0.009610
0.009610
0.009610
0.009610
0.009610
0.009610
0.004849
0.004348
0.004849
0.004849
0.004849
0.004849
0.004849
0.004849
0.004849
0.004849
0.004849
0.004849
0.004849
0.004849
0.004849
0.004849
0.004849
0.004849
0.004849
0.004849
0.004849
0.004849
0.004849
0.004849
0.004849
0.004849
-0.102260
-0.102260
-0.102260
-0.102260
0.001407
0.001407
0.001407
0.001407
0.001407
0.001407
0.001407
0.001407
0.001407
0.001407
0.001407
0.001407
0.009805
0.009805
0.009805
0.009805
0.009805
0.009805
0.009805
0.009805
0.009805
0.009805
0.009805
0.009805
0.009805
0.009805
0.009805
0.009805
0.009805
0.009805
0.009805
0.009805
0.009805
0.009805
0.009805
0.009805
0.009805
0.009805
0.009805
0.009805
0.009805
0.009805
0.009805
0.009805
0.009805
0.009805
0.009805
0.009805
0.009805
0.009805
0.009499
0.009499
0.009499
0.009499
0.009499
0.009499
0.009499
0.009499
0.009499
0.009499
0.009499
0.009499
0.009499
0.009499
0.009499
0.009499
0.009499
0.009499
0.009499
0.009499
0.009499
0.009499
0.009499
0.009499
0.009499
0.009499
0.009499
0.009499
0.009499
0.009499
0.009499
0.009499
0.009499
0.009499
0.009499
0.009499
0.009499
0.009499
-0.001810
-0.001810
-0.001810
-0.001810
-0.001810
-0.001810
-0.001810
-0.001810
-0.001810
-0.001810
-0.001810
-0.001810
-0.001810
-0.001810
-0.001810
-0.001810
-0.001810
-0.001810
-0.038371
-0.038371
-0.038371
-0.038371
-0.038371
-0.038371
-0.038371
-0.038371
-0.038371
-0.038371
-0.038371
-0.038371
-0.038371
-0.038371
