2
784 1 
0.836280 
-1.000000 
-1.000000 
-0.890146 
1.000000 
-0.271101 
-1.000000 
-0.020692 
0.579146 
0.863154 
-0.443633 
-0.814479 
-0.283137 
0.240145 
-0.685108 
1.000000 
-1.000000 
0.912422 
1.000000 
1.000000 
0.721990 
0.578448 
-1.000000 
0.177430 
-0.092255 
-0.647515 
-1.000000 
0.042383 
-0.166280 
0.234853 
0.007331 
1.000000 
-0.725988 
0.524897 
-0.110400 
-0.850523 
0.610023 
-0.232158 
-0.383154 
1.000000 
1.000000 
-0.226805 
-1.000000 
0.822907 
0.881642 
-0.599127 
-0.101604 
-0.001226 
0.775725 
0.420468 
0.645455 
1.000000 
-0.245252 
-0.002048 
1.000000 
-0.116917 
0.594203 
-0.805972 
1.000000 
0.811825 
-0.436180 
0.838335 
-0.392237 
-1.000000 
-0.673023 
1.000000 
-1.000000 
1.000000 
1.000000 
-0.550965 
0.990011 
-0.569313 
-0.781895 
0.933633 
0.847962 
-1.000000 
-0.371599 
0.348723 
0.270898 
0.715808 
0.603343 
-0.163787 
0.912750 
0.054968 
-0.288570 
-0.303881 
-1.000000 
-0.739889 
-0.148473 
-1.000000 
0.492034 
0.345889 
1.000000 
0.290470 
0.062869 
-0.619820 
-0.404728 
0.952295 
0.681589 
-0.497818 
-0.628121 
-0.062580 
-0.985894 
0.244802 
0.051334 
-0.828752 
0.990001 
0.019330 
-0.856420 
1.000000 
-0.267860 
-1.000000 
-0.252210 
-0.895174 
0.616532 
0.125520 
-0.125191 
-0.271391 
1.020000 
-0.414591 
0.418087 
0.692521 
-0.951505 
-0.179312 
-0.362990 
-0.449286 
-0.960001 
-0.331603 
0.979999 
-0.537739 
0.940001 
-1.000004 
-0.953673 
0.841062 
0.306183 
0.785221 
-0.209868 
0.684728 
-0.549928 
1.000000 
-1.000000 
-0.482555 
-0.438856 
-0.310126 
-1.000000 
-0.186892 
-0.214990 
0.316274 
0.730260 
0.763332 
-0.815018 
-0.940000 
1.040000 
0.473291 
-0.082987 
0.692548 
0.927691 
-0.863039 
-0.514462 
0.102271 
0.632991 
-0.119520 
-0.027913 
-0.305292 
-0.997661 
0.612670 
0.400110 
-0.469530 
0.450703 
1.000000 
1.000000 
-0.415188 
-0.677554 
-0.980000 
1.030000 
1.069999 
-0.150263 
-0.900016 
0.065311 
-0.900000 
-0.940000 
-0.013782 
0.835523 
0.223930 
-0.853608 
1.020000 
-0.555318 
1.040000 
0.676334 
-0.849708 
1.006545 
-0.661999 
-0.979326 
-1.000000 
-1.000000 
-0.065401 
-0.413864 
1.000000 
0.499166 
0.532096 
1.000000 
-0.946884 
-0.059752 
0.903172 
0.010739 
-0.676172 
-0.323944 
0.911261 
1.080000 
-0.960000 
0.138030 
-0.784718 
0.593265 
0.549884 
-0.959999 
0.275594 
-0.920001 
1.016113 
0.966336 
1.055903 
-0.980077 
0.311780 
1.000000 
-1.000000 
-1.000000 
1.000000 
1.000000 
0.076051 
0.447257 
-0.053069 
0.264409 
-0.103881 
0.142484 
-0.144078 
-0.570674 
0.080865 
-0.017774 
1.020000 
0.277229 
-0.508541 
0.960000 
-0.703420 
-0.016734 
1.023050 
1.100000 
-0.048268 
0.743753 
1.038291 
-0.960488 
-1.000000 
0.767341 
0.162744 
0.554028 
1.000000 
-1.000000 
0.288955 
-1.000000 
-0.306347 
-0.425823 
-0.706998 
-0.710712 
0.440632 
-0.636008 
-0.014752 
0.769894 
1.000000 
-0.119384 
0.103176 
0.578402 
0.764164 
0.601013 
-0.920000 
0.096319 
-0.603756 
0.722454 
-0.900000 
1.012593 
0.257133 
-0.051456 
0.888737 
-0.140828 
0.173951 
-0.587122 
0.131968 
0.990001 
-0.785691 
-0.816609 
-0.452173 
-0.900000 
0.953720 
0.419439 
-0.359119 
0.932577 
-0.905860 
0.900000 
-0.375625 
-0.828285 
0.154738 
-0.893052 
0.093952 
-0.212173 
-0.860640 
-0.781752 
-0.900000 
-0.135245 
1.000000 
1.000000 
-0.843041 
-0.183422 
-0.028024 
0.029501 
-0.872047 
0.990001 
-0.526758 
0.530601 
-0.900000 
0.058505 
-0.360388 
-0.164282 
0.808001 
0.009353 
-1.100000 
-0.190752 
0.151737 
0.900000 
-1.059999 
-0.496143 
-0.514562 
-0.159777 
1.100000 
-0.149950 
-0.900000 
-0.615747 
-0.780196 
-1.000000 
1.000000 
-0.360360 
1.000000 
1.000282 
-1.000000 
1.010000 
-0.272528 
0.319650 
0.478436 
1.100000 
-0.772291 
0.722975 
1.040000 
0.270362 
0.078385 
0.189105 
-0.925953 
-0.046729 
-0.035213 
-0.238013 
0.192035 
-0.900000 
0.534679 
-0.464840 
0.916766 
0.295778 
1.009999 
-1.000000 
-0.658467 
0.905918 
-0.095385 
-0.650671 
1.000000 
-0.979929 
-0.590832 
-0.746018 
-0.900000 
0.987103 
-0.900000 
0.552615 
0.476733 
0.177762 
-0.043910 
-0.097045 
-0.723553 
-0.466658 
-0.266511 
1.049762 
0.185264 
-0.900000 
0.541810 
-0.900000 
0.484091 
1.089999 
1.010000 
1.000000 
-0.852983 
0.410025 
-0.022544 
0.908483 
0.240025 
0.769182 
0.585115 
-0.123083 
-0.380333 
-0.040598 
0.443683 
0.509588 
0.158564 
-1.080000 
0.900000 
-0.667415 
-0.361562 
0.495891 
-0.292978 
-0.586610 
1.100000 
1.046231 
-0.900000 
0.376261 
-0.900000 
0.009641 
-0.990000 
0.614181 
1.000000 
0.905233 
-0.412024 
1.000000 
-0.151521 
0.340504 
1.100000 
1.100000 
-0.026972 
0.331555 
0.221342 
-0.940326 
0.940006 
0.811790 
0.845889 
-1.086437 
0.900000 
-0.568987 
-1.009235 
0.767110 
-0.478712 
-0.068268 
0.852611 
0.466146 
-0.900000 
-0.437966 
0.652772 
-1.000000 
-0.684037 
0.089624 
0.584009 
1.000000 
0.496657 
1.067033 
-0.412221 
-0.698862 
-0.900000 
1.100000 
1.028667 
0.480914 
-0.596345 
0.532030 
-0.374037 
0.429985 
-1.100000 
-0.006573 
1.030827 
1.007062 
0.005006 
0.002080 
0.996686 
1.100000 
0.735128 
-0.012019 
-0.788415 
1.000000 
0.180563 
-0.976753 
1.000000 
0.751271 
-0.848280 
0.397769 
-0.487134 
-0.738075 
-0.900000 
-0.161373 
-0.392927 
-0.974113 
-0.638475 
-0.557991 
-1.100000 
-1.100000 
-0.540468 
0.754823 
-0.920030 
-0.515603 
-0.871325 
-0.900000 
-0.602041 
0.329368 
1.089991 
0.429542 
1.010000 
0.965521 
0.921327 
-0.489421 
-0.235649 
1.000000 
-0.599642 
-0.486034 
0.781444 
-0.033662 
0.479719 
1.100000 
0.388627 
0.597317 
0.919999 
-1.100000 
-0.688208 
0.280306 
0.550229 
0.940003 
-0.900000 
0.085667 
-0.900000 
0.056803 
0.282665 
-0.674322 
1.080000 
-0.920004 
-0.990002 
0.704106 
-1.000000 
0.664819 
-0.466028 
-1.000000 
0.247909 
1.071388 
-0.409310 
1.100000 
1.100000 
0.625175 
-0.809516 
-0.979999 
0.940005 
0.900000 
0.782425 
0.296934 
0.900000 
0.504748 
-0.528176 
-0.900000 
-0.900000 
0.150803 
0.788783 
0.002231 
0.699779 
0.407982 
0.356005 
-1.000000 
-0.899530 
-1.000000 
-0.320747 
1.000000 
1.000000 
-0.930892 
0.435970 
0.724218 
-0.125458 
-0.900000 
-0.242888 
-0.542683 
0.815939 
-0.296613 
-1.052125 
0.900000 
-0.354863 
-0.283936 
-0.920000 
1.100000 
-0.288402 
-0.552315 
1.089994 
0.625350 
0.317102 
-0.950001 
-0.691796 
0.734945 
-1.000000 
0.814141 
1.000000 
1.000000 
1.000000 
-0.948532 
0.662100 
1.030025 
0.034067 
0.447318 
0.104204 
-0.566435 
0.176296 
-0.817994 
-1.020000 
-0.575905 
0.975407 
0.460603 
0.590090 
-0.039011 
0.169292 
0.921578 
1.079997 
-0.930001 
-0.950001 
0.902586 
-1.000000 
1.000000 
0.134523 
0.584510 
0.493320 
-1.000000 
-0.933969 
-0.979350 
-0.958252 
1.010002 
-0.487920 
-0.440424 
-0.074867 
0.465099 
0.527386 
0.723849 
-0.980003 
-1.000000 
-0.605719 
-0.940001 
-0.858482 
-0.079039 
-0.169662 
1.070000 
-0.049859 
-0.834735 
-0.990000 
-1.000000 
1.000000 
0.667510 
-0.902394 
-1.000000 
0.024358 
0.252393 
-1.000000 
-1.000118 
-0.980012 
0.649480 
0.863138 
-1.000000 
0.132459 
-0.980000 
0.311405 
1.000000 
1.000000 
0.897299 
-0.078294 
0.206035 
-0.585593 
-0.920005 
-0.536210 
1.029919 
0.377184 
1.000000 
-1.000000 
0.914076 
-1.000000 
-0.364680 
-1.000000 
-0.876155 
-0.619078 
-0.521519 
0.093744 
-0.713258 
1.009821 
-0.990137 
0.045833 
-0.208355 
0.980012 
1.019986 
-0.198382 
0.732772 
-0.274735 
-0.761807 
-0.027343 
0.295125 
-0.685035 
-0.990039 
0.102396 
0.911732 
0.104736 
-0.719437 
1.000000 
0.668771 
0.868913 
0.875464 
-0.985572 
0.875078 
-1.000000 
0.852581 
-0.131065 
1.000000 
0.632860 
-1.000000 
0.933626 
-0.503771 
-0.587197 
0.191664 
0.682320 
-1.000000 
-0.294068 
-1.000000 
-1.000000 
-0.310930 
0.695583 
0.357889 
-1.000000 
-1.000000 
1.000000 
0.672412 
0.766319 
-0.110982 
-1.000000 
0.051193 
-0.410833 
-0.185196 
1.000000 
-0.496419 
-1.000000 
0.091356 
-1.000000 
-0.142070 
1.000000 
-1.000000 
-0.277351 
0.546287 
1.000000 
1.000000 
1.000000 
0.111340 
-0.048672 
0.740668 
0.518849 
-0.119043 
0.945681 
-1.000000 
0.559012 
-1.000000 
-0.948439 
-0.428515 
-0.332539 
1.000000 
-0.656306 
-1.000000 
1.000000 
1.000000 
1.000000 
1.000000 
-0.654171 
-1.000000 
1.000000 
-0.162903 
0.266525 
-0.700745 
0.682416 
-1.000000 
0.299064 
1.000000 
1.000000 
-0.326479 
1.000000 
1.000000 
0.183749 
-0.156468 
0.069220 
-1.000000 
0.072931 
-1.000000 
-0.257566 
-1.000000 
1.000000 
1.000000 

