4
784 128 32 10 
-0.100000 0.100000 0.100000 -0.100000 -0.100000 -0.100000 0.100000 0.100000 -0.100000 -0.100000 -0.100000 0.100000 0.100000 0.100000 -0.100000 -0.003829 0.100000 0.100000 -0.100000 -0.100000 -0.100000 -0.100000 -0.100000 -0.016474 0.100000 0.100000 -0.100000 0.100000 0.100000 -0.100000 -0.100000 -0.083004 -0.100000 0.100000 -0.100000 0.100000 0.100000 -0.100000 0.051010 0.100000 -0.100000 0.100000 -0.100000 -0.100000 -0.100000 0.100000 0.100000 0.100000 -0.100000 -0.100000 0.100000 0.100000 -0.100000 0.100000 -0.006863 -0.100000 -0.100000 0.100000 0.100000 0.100000 -0.100000 0.100000 -0.100000 0.100000 0.100000 0.100000 -0.028155 0.100000 -0.100000 0.100000 0.100000 0.100000 -0.100000 -0.100000 -0.100000 -0.100000 -0.100000 0.100000 -0.100000 -0.100000 0.100000 0.096451 0.100000 0.100000 0.100000 0.100000 -0.100000 -0.100000 -0.100000 0.100000 -0.100000 0.100000 -0.100000 -0.100000 0.100000 -0.100000 -0.100000 0.100000 -0.100000 0.100000 -0.100000 -0.100000 0.100000 0.100000 -0.100000 0.100000 -0.100000 -0.100000 -0.100000 -0.100000 0.100000 -0.100000 -0.100000 -0.100000 0.100000 0.100000 0.100000 -0.100000 -0.100000 -0.100000 -0.058286 -0.100000 -0.100000 -0.100000 0.100000 0.100000 -0.100000 -0.100000 
-0.100000 -0.100000 -0.100000 -0.100000 -0.100000 0.100000 -0.100000 -0.100000 0.100000 -0.100000 -0.100000 0.100000 -0.100000 0.100000 -0.100000 0.100000 -0.100000 -0.100000 -0.100000 0.100000 -0.100000 0.100000 -0.100000 -0.100000 0.100000 -0.100000 -0.100000 0.100000 0.100000 0.100000 0.100000 -0.100000 0.094872 0.021050 0.100000 -0.100000 -0.100000 -0.100000 0.100000 0.100000 -0.070784 -0.100000 0.100000 -0.100000 0.100000 -0.100000 -0.100000 -0.042958 0.100000 -0.100000 -0.100000 -0.100000 0.100000 0.100000 -0.100000 -0.100000 -0.100000 -0.100000 -0.100000 -0.100000 0.100000 -0.100000 0.100000 0.087158 -0.100000 -0.046661 -0.100000 -0.041146 -0.100000 -0.100000 0.100000 0.100000 0.100000 -0.100000 -0.100000 0.100000 -0.100000 0.100000 -0.100000 0.100000 0.100000 -0.100000 0.100000 0.100000 -0.100000 0.100000 0.100000 0.100000 0.100000 -0.100000 -0.100000 0.100000 -0.100000 0.100000 0.100000 -0.100000 0.100000 0.100000 -0.100000 0.100000 0.100000 0.100000 0.100000 0.034091 -0.100000 0.100000 0.100000 -0.100000 0.100000 -0.100000 -0.100000 0.100000 -0.012045 0.100000 0.100000 0.100000 0.100000 0.100000 -0.100000 0.100000 0.100000 -0.100000 -0.100000 0.035380 -0.100000 -0.100000 0.100000 -0.100000 
0.100000 -0.100000 -0.100000 -0.033671 0.100000 -0.100000 -0.100000 0.100000 0.100000 0.100000 -0.100000 -0.100000 0.100000 -0.100000 -0.100000 -0.100000 0.090885 0.100000 -0.100000 -0.100000 -0.100000 0.100000 -0.007063 -0.100000 0.100000 -0.006717 0.100000 -0.100000 0.100000 -0.100000 -0.100000 -0.040089 0.100000 -0.100000 -0.100000 -0.100000 0.100000 -0.100000 0.100000 0.100000 -0.100000 -0.100000 -0.100000 -0.100000 -0.100000 0.100000 -0.100000 0.013129 0.100000 -0.100000 0.100000 -0.100000 0.100000 0.100000 0.100000 -0.100000 -0.100000 0.100000 0.083513 0.100000 0.067116 -0.100000 0.100000 -0.061500 -0.100000 0.100000 -0.043572 0.100000 -0.089935 0.100000 -0.100000 0.100000 -0.100000 0.100000 0.100000 -0.100000 -0.100000 0.081998 0.003672 -0.100000 -0.100000 0.100000 -0.100000 0.100000 -0.100000 0.100000 -0.100000 -0.100000 -0.100000 -0.100000 0.044370 -0.100000 0.077413 0.100000 0.100000 0.100000 0.100000 0.100000 0.045067 0.100000 -0.100000 -0.100000 -0.100000 -0.100000 0.100000 0.100000 0.100000 -0.100000 -0.100000 0.100000 -0.100000 0.100000 -0.100000 0.100000 -0.100000 -0.100000 -0.100000 0.100000 0.100000 0.100000 -0.100000 0.064707 0.100000 0.100000 -0.100000 -0.100000 0.100000 -0.100000 
0.100000 -0.100000 -0.100000 -0.100000 0.064856 -0.100000 -0.100000 0.100000 0.100000 -0.100000 0.100000 -0.100000 -0.100000 0.100000 -0.100000 -0.100000 -0.001566 -0.100000 -0.100000 -0.100000 -0.100000 0.100000 0.100000 0.100000 0.100000 -0.100000 -0.100000 0.100000 -0.100000 0.100000 0.100000 -0.100000 -0.100000 -0.100000 0.100000 0.100000 -0.100000 0.100000 0.100000 0.100000 -0.100000 0.100000 0.100000 0.100000 -0.024563 0.100000 0.100000 -0.100000 -0.100000 0.100000 0.100000 -0.100000 0.100000 -0.100000 0.100000 -0.100000 -0.100000 -0.094621 -0.100000 0.100000 0.100000 -0.100000 0.100000 0.100000 -0.100000 -0.100000 -0.100000 -0.100000 0.100000 0.100000 -0.100000 0.100000 0.100000 0.100000 -0.100000 0.100000 -0.100000 -0.100000 -0.100000 0.100000 0.100000 0.100000 -0.100000 0.100000 0.100000 -0.100000 -0.100000 -0.100000 -0.100000 0.100000 0.100000 0.100000 0.097504 -0.100000 -0.100000 0.100000 -0.100000 0.100000 0.100000 0.100000 -0.100000 -0.100000 -0.030530 0.100000 -0.100000 -0.100000 -0.100000 -0.100000 0.100000 -0.100000 -0.100000 -0.100000 -0.100000 0.100000 0.100000 0.100000 0.100000 0.100000 -0.100000 0.100000 -0.100000 -0.100000 0.100000 -0.100000 -0.100000 -0.100000 0.100000 -0.100000 
-0.100000 -0.100000 -0.100000 -0.100000 -0.100000 -0.100000 -0.100000 -0.100000 -0.100000 -0.100000 0.100000 0.100000 -0.100000 0.021675 0.100000 0.100000 0.100000 0.100000 -0.100000 0.038758 -0.100000 -0.100000 -0.100000 -0.100000 -0.100000 0.100000 0.100000 0.100000 0.100000 0.100000 -0.100000 0.100000 -0.100000 0.100000 0.100000 -0.100000 0.100000 -0.100000 -0.100000 -0.021424 -0.100000 0.100000 0.100000 0.100000 -0.100000 -0.100000 -0.100000 0.100000 -0.100000 0.100000 0.100000 -0.100000 0.100000 0.100000 -0.100000 -0.100000 0.100000 -0.100000 0.100000 0.100000 0.100000 0.100000 -0.100000 0.100000 0.100000 -0.100000 -0.100000 0.100000 -0.100000 -0.100000 0.100000 -0.024441 -0.100000 0.100000 0.100000 -0.100000 0.058495 -0.100000 -0.100000 -0.100000 0.100000 -0.100000 0.100000 0.100000 -0.004075 -0.100000 0.060122 -0.100000 -0.062138 -0.100000 0.100000 0.080255 -0.100000 0.100000 -0.100000 0.100000 -0.100000 0.088854 0.100000 -0.036328 -0.100000 0.100000 0.100000 -0.100000 -0.100000 -0.100000 -0.100000 -0.100000 0.100000 0.100000 0.100000 -0.100000 -0.100000 0.100000 -0.100000 -0.100000 -0.100000 0.100000 -0.100000 -0.100000 -0.100000 -0.100000 0.100000 0.100000 0.100000 -0.100000 0.100000 0.100000 
-0.100000 0.100000 0.100000 0.100000 -0.100000 -0.100000 0.100000 0.100000 0.069622 0.049296 -0.100000 -0.057275 -0.100000 -0.100000 0.100000 0.100000 0.100000 -0.100000 0.100000 0.100000 0.100000 0.100000 -0.100000 -0.100000 -0.100000 -0.100000 -0.100000 0.100000 0.100000 -0.100000 -0.100000 0.100000 0.100000 0.100000 -0.100000 -0.100000 -0.100000 -0.100000 0.100000 0.100000 0.100000 -0.100000 -0.100000 -0.100000 0.100000 0.100000 -0.100000 0.100000 0.100000 0.100000 -0.100000 -0.100000 -0.035402 -0.100000 -0.100000 0.100000 -0.100000 -0.037533 0.100000 -0.100000 0.100000 0.100000 -0.100000 -0.100000 0.100000 -0.100000 -0.100000 0.100000 -0.100000 -0.100000 0.100000 -0.100000 -0.000820 -0.100000 0.083675 0.075645 -0.100000 -0.015510 -0.100000 -0.100000 0.100000 -0.100000 -0.100000 0.042510 -0.094307 0.100000 -0.100000 0.100000 0.100000 0.100000 0.100000 -0.100000 -0.100000 -0.100000 0.100000 0.018405 -0.100000 -0.100000 -0.100000 0.100000 -0.100000 0.100000 -0.100000 0.100000 -0.100000 0.100000 -0.100000 0.100000 0.100000 0.100000 -0.100000 0.100000 -0.099362 0.100000 -0.073452 -0.100000 0.100000 0.100000 -0.100000 -0.100000 0.100000 0.100000 -0.100000 -0.100000 -0.100000 0.092579 -0.100000 0.100000 
0.100000 0.100000 -0.100000 -0.100000 0.100000 -0.100000 -0.100000 -0.100000 -0.100000 0.100000 -0.100000 -0.100000 -0.100000 0.087923 0.100000 0.100000 -0.070098 0.100000 0.100000 -0.100000 -0.100000 0.100000 0.081029 0.100000 -0.100000 0.100000 0.100000 -0.100000 0.100000 -0.100000 -0.100000 -0.100000 -0.100000 0.100000 -0.100000 -0.100000 -0.100000 -0.100000 0.100000 0.100000 0.100000 0.100000 0.100000 -0.100000 -0.100000 -0.100000 -0.065970 0.100000 -0.100000 0.100000 0.100000 -0.100000 0.100000 0.100000 0.100000 -0.100000 0.100000 0.100000 -0.100000 0.100000 -0.100000 -0.100000 -0.100000 -0.100000 0.100000 0.100000 0.100000 -0.100000 0.100000 0.100000 -0.100000 -0.100000 0.059597 -0.100000 -0.100000 0.100000 -0.100000 0.100000 0.100000 -0.100000 0.100000 0.100000 0.031488 0.100000 0.100000 0.100000 0.100000 -0.100000 -0.100000 -0.100000 -0.100000 -0.100000 0.100000 -0.100000 0.100000 -0.100000 -0.100000 0.030547 -0.100000 -0.100000 -0.100000 -0.100000 0.100000 0.088314 0.100000 -0.100000 0.005066 0.100000 -0.100000 -0.100000 0.100000 -0.100000 -0.100000 -0.100000 -0.100000 -0.100000 -0.100000 -0.100000 0.100000 0.100000 -0.100000 0.100000 -0.100000 -0.100000 0.100000 0.100000 0.100000 -0.100000 
-0.100000 -0.100000 -0.100000 0.100000 0.100000 -0.100000 -0.100000 -0.100000 -0.100000 0.100000 0.100000 -0.100000 0.100000 0.100000 -0.100000 -0.100000 0.100000 0.100000 -0.100000 -0.100000 -0.100000 0.003283 -0.100000 0.100000 0.100000 0.100000 -0.100000 0.100000 0.100000 -0.100000 0.100000 0.100000 -0.100000 0.100000 -0.100000 -0.100000 0.100000 0.100000 -0.100000 -0.100000 0.100000 -0.100000 -0.100000 0.100000 0.100000 -0.100000 0.100000 0.100000 -0.100000 -0.100000 0.100000 0.100000 0.100000 0.100000 -0.100000 0.100000 -0.100000 0.100000 -0.100000 -0.100000 -0.100000 0.100000 -0.100000 -0.100000 -0.100000 -0.100000 0.100000 0.100000 -0.100000 -0.100000 -0.100000 0.048337 0.100000 0.100000 -0.100000 0.100000 0.100000 -0.015719 -0.100000 0.100000 0.100000 0.100000 0.100000 -0.100000 0.100000 0.100000 0.071176 -0.100000 -0.100000 -0.100000 0.090324 -0.100000 0.100000 0.100000 0.100000 -0.100000 -0.100000 0.100000 0.100000 0.100000 0.100000 0.100000 -0.100000 -0.100000 -0.100000 0.100000 0.100000 -0.100000 -0.100000 -0.100000 0.100000 0.037258 -0.100000 -0.100000 0.100000 -0.100000 0.100000 0.100000 -0.100000 -0.100000 0.100000 -0.100000 -0.100000 0.100000 0.100000 -0.100000 -0.100000 0.100000 
-0.100000 -0.100000 0.100000 0.100000 0.100000 -0.100000 -0.100000 -0.100000 0.026963 -0.100000 0.100000 0.100000 -0.100000 -0.100000 -0.100000 -0.100000 0.100000 0.100000 -0.100000 0.100000 0.100000 0.100000 -0.100000 0.100000 -0.100000 0.100000 0.100000 0.100000 0.100000 0.100000 0.100000 -0.100000 0.100000 0.100000 0.100000 -0.100000 -0.051686 -0.100000 0.100000 0.100000 -0.100000 -0.100000 -0.100000 0.100000 -0.100000 0.100000 -0.100000 -0.100000 0.100000 0.100000 0.100000 -0.100000 -0.100000 -0.100000 -0.100000 0.100000 -0.100000 -0.100000 -0.100000 -0.100000 0.100000 -0.100000 0.100000 0.100000 0.100000 -0.100000 -0.100000 0.100000 0.100000 0.050131 0.100000 -0.100000 0.100000 -0.100000 0.100000 0.100000 -0.100000 0.100000 0.100000 0.100000 -0.100000 -0.100000 0.100000 -0.045396 0.100000 -0.100000 -0.100000 0.100000 0.100000 0.100000 -0.100000 -0.100000 0.066541 0.100000 0.100000 -0.100000 -0.100000 -0.002615 0.051048 0.100000 0.100000 -0.100000 0.100000 -0.100000 -0.100000 -0.093997 -0.100000 -0.100000 -0.100000 0.001769 0.100000 0.100000 -0.100000 0.100000 0.100000 -0.100000 -0.100000 0.100000 -0.100000 -0.100000 -0.100000 0.100000 -0.100000 0.100000 -0.100000 -0.100000 -0.100000 0.100000 
-0.100000 0.100000 -0.100000 0.100000 -0.100000 0.100000 -0.100000 -0.100000 -0.100000 -0.100000 -0.100000 -0.100000 0.041465 -0.100000 0.100000 0.100000 0.100000 -0.100000 -0.100000 -0.100000 -0.100000 0.100000 -0.100000 -0.100000 0.100000 -0.100000 0.100000 -0.034078 -0.100000 0.100000 -0.100000 -0.100000 -0.100000 0.100000 -0.100000 -0.100000 0.100000 0.100000 -0.100000 -0.100000 -0.100000 -0.018240 -0.100000 0.100000 0.100000 -0.100000 -0.100000 -0.100000 0.100000 0.100000 0.100000 -0.100000 0.100000 0.100000 -0.066776 -0.006246 -0.100000 -0.100000 -0.100000 -0.100000 0.100000 0.007136 0.100000 -0.100000 -0.100000 -0.100000 -0.100000 0.100000 -0.100000 0.100000 0.100000 -0.100000 -0.100000 0.100000 0.100000 -0.100000 0.100000 -0.100000 -0.100000 -0.100000 -0.100000 0.100000 -0.063553 -0.100000 0.100000 -0.100000 0.100000 -0.100000 0.100000 -0.100000 0.100000 -0.100000 0.100000 -0.100000 0.100000 -0.100000 0.100000 -0.100000 -0.100000 0.062339 0.100000 0.100000 -0.100000 0.100000 0.053703 0.100000 0.100000 0.100000 0.100000 -0.100000 -0.100000 -0.100000 0.100000 0.100000 -0.100000 -0.100000 -0.100000 0.100000 0.100000 0.100000 0.100000 0.100000 0.100000 0.100000 0.100000 -0.100000 0.100000 -0.100000 
0.100000 -0.100000 -0.100000 0.100000 0.100000 0.100000 -0.100000 -0.100000 0.062537 0.100000 0.100000 0.100000 -0.100000 -0.100000 0.100000 -0.100000 0.100000 0.001691 -0.100000 0.100000 0.100000 -0.100000 0.100000 0.100000 0.100000 -0.100000 -0.100000 -0.100000 0.100000 -0.100000 0.094855 -0.100000 0.100000 -0.100000 -0.100000 -0.100000 0.100000 -0.100000 0.100000 0.100000 0.100000 -0.100000 0.100000 0.100000 0.100000 0.100000 0.100000 0.100000 0.095620 -0.100000 -0.100000 -0.100000 0.100000 -0.100000 0.100000 -0.100000 0.100000 0.100000 0.100000 0.100000 -0.100000 -0.100000 0.100000 0.100000 -0.100000 -0.100000 0.100000 0.100000 -0.100000 -0.100000 -0.100000 -0.100000 0.100000 -0.100000 0.100000 -0.100000 -0.100000 -0.100000 -0.100000 0.100000 0.100000 -0.086495 0.100000 -0.100000 0.100000 -0.100000 0.100000 0.100000 0.100000 0.100000 0.014510 -0.100000 0.100000 -0.100000 -0.100000 0.100000 0.100000 -0.085117 0.100000 -0.100000 -0.040015 -0.100000 0.100000 -0.048788 0.100000 0.100000 0.051203 0.100000 -0.100000 0.084148 -0.100000 0.100000 -0.100000 -0.100000 0.100000 0.100000 -0.100000 0.083598 0.100000 -0.100000 -0.100000 0.100000 0.100000 -0.054943 -0.100000 -0.100000 -0.008570 -0.100000 
-0.100000 -0.100000 -0.100000 0.100000 0.100000 0.100000 0.100000 -0.100000 0.100000 -0.100000 0.100000 -0.100000 0.100000 0.100000 0.100000 0.100000 0.100000 -0.100000 -0.100000 0.100000 0.100000 -0.100000 0.100000 0.100000 0.100000 0.100000 0.100000 0.100000 -0.100000 0.100000 0.100000 -0.100000 -0.100000 -0.100000 0.100000 -0.100000 0.100000 0.074406 -0.100000 0.100000 0.100000 -0.100000 0.100000 0.100000 0.100000 -0.100000 0.100000 -0.100000 0.100000 0.100000 -0.100000 -0.100000 0.100000 0.059465 0.100000 0.015879 -0.100000 0.100000 -0.100000 -0.100000 -0.100000 0.100000 -0.100000 -0.100000 0.100000 -0.100000 0.100000 0.100000 -0.100000 -0.100000 0.100000 -0.100000 -0.055895 -0.079284 -0.100000 0.100000 -0.100000 0.100000 0.100000 -0.100000 -0.100000 0.100000 -0.100000 -0.100000 0.100000 0.100000 -0.100000 -0.100000 -0.100000 0.100000 -0.100000 0.100000 0.100000 0.100000 -0.030607 -0.100000 0.100000 -0.100000 -0.100000 0.100000 -0.100000 -0.100000 -0.100000 -0.100000 -0.100000 0.100000 -0.100000 0.100000 0.100000 0.100000 -0.100000 -0.100000 -0.100000 -0.100000 0.100000 -0.011600 -0.100000 -0.100000 0.100000 0.100000 -0.100000 -0.100000 0.100000 0.100000 0.100000 0.100000 0.100000 0.100000 
-0.142604 0.204987 -0.164923 0.073106 0.059936 -0.110462 0.179714 -0.151671 0.154741 -0.120812 -0.105827 -0.125578 0.000739 0.066693 0.184578 0.072653 0.078715 0.050380 0.096988 -0.147855 0.192758 -0.027794 -0.152888 0.068447 0.049811 -0.117194 0.135896 0.132057 -0.051708 -0.145003 0.135309 -0.108843 0.141552 0.051590 -0.001808 0.076999 -0.044746 -0.058706 0.136615 -0.047207 0.043679 -0.038779 -0.067775 0.113743 0.036470 -0.073447 0.015411 -0.134869 0.172257 -0.021305 -0.087948 -0.153825 0.064237 0.150863 0.153978 0.066536 -0.139496 0.047969 -0.161072 -0.024946 0.144192 -0.076141 0.032701 -0.009161 0.158202 0.063866 -0.137408 -0.060044 0.111413 -0.119959 -0.134531 0.145102 0.193208 -0.091901 0.056882 0.077558 0.093755 0.083430 0.158565 0.152076 -0.046132 0.035224 0.054682 -0.164986 0.107079 -0.125497 -0.048632 0.048005 -0.182052 0.099850 -0.004477 -0.157533 -0.057528 -0.090864 0.133619 0.056275 0.043525 0.050218 -0.042823 -0.028268 0.154076 0.171932 0.035733 -0.109204 0.066383 0.047547 -0.120458 -0.175966 -0.044324 0.049398 0.125052 0.131301 0.079363 -0.107067 -0.178785 0.043382 -0.166936 -0.096154 -0.017068 -0.042881 -0.174408 0.012884 -0.037035 0.157807 0.152870 0.047396 -0.081817 0.096597 
-0.131476 0.047886 -0.162310 0.108151 0.106965 -0.095321 0.204701 -0.136205 -0.069429 0.011573 -0.123410 -0.143214 0.040030 0.073604 -0.019587 -0.094116 0.125297 -0.135104 -0.053646 -0.134512 -0.020689 -0.000790 0.084420 -0.095527 0.088440 0.106377 -0.102909 -0.094662 0.114688 -0.129261 0.098013 -0.079221 0.154309 -0.152799 0.218902 -0.091670 -0.093272 0.101035 -0.086083 -0.063321 0.053521 0.128689 0.107863 0.209666 0.022445 -0.069957 -0.176576 -0.115774 0.074082 0.022426 -0.056079 0.061139 -0.139821 -0.056307 0.163958 -0.100354 0.078071 0.064240 -0.149540 0.173073 0.114924 0.168907 -0.055533 0.035613 -0.065847 0.055970 -0.129259 -0.075863 0.059959 -0.095989 0.027761 0.112815 0.216192 0.066327 -0.118545 0.102902 0.140599 0.088660 -0.030322 0.093578 -0.033195 0.044862 0.076153 0.057829 0.106402 0.071965 -0.053042 0.057280 -0.016418 0.083316 0.240082 0.051462 -0.071929 0.104852 -0.026432 0.070737 -0.129282 0.118296 -0.068480 0.177737 -0.061911 0.143145 0.051029 0.129253 -0.049101 0.088344 -0.150295 0.021765 0.144656 0.292448 -0.104733 0.099931 -0.078482 0.133689 -0.016038 -0.154789 0.045451 0.150282 0.027124 0.138477 0.022024 -0.241966 -0.075754 -0.053679 -0.076748 -0.168966 0.128139 -0.066007 
-0.082208 -0.030183 0.110343 0.183987 0.200548 0.165908 0.135389 -0.077712 0.070628 0.190935 0.084513 0.080683 0.170935 0.131027 -0.122636 0.164495 0.188988 -0.067123 -0.016285 -0.072004 -0.118255 0.084294 0.158037 0.197476 0.182471 -0.037724 -0.195308 -0.149793 -0.168766 0.119557 -0.188150 0.001724 0.108108 -0.104004 -0.086037 0.172685 -0.186928 -0.195728 -0.154525 0.079650 -0.021481 -0.108906 -0.153895 -0.085914 0.103152 0.101702 -0.081595 0.140515 -0.125063 -0.002375 0.200593 -0.065095 0.100753 -0.113662 -0.110667 0.178917 0.134886 0.122604 -0.079208 -0.125774 0.061942 -0.007689 0.111090 -0.006649 -0.132170 0.094959 -0.093354 0.088267 0.105943 -0.083217 -0.154430 -0.080225 -0.055307 -0.189780 0.126876 0.156783 -0.011881 0.126197 0.110407 0.020893 -0.088497 -0.081547 0.126377 -0.067652 0.103335 0.096224 0.094969 -0.082219 -0.188833 0.085482 -0.031454 -0.075074 0.087189 0.095996 0.145572 0.119325 -0.066067 -0.085732 -0.144883 -0.099156 0.079625 0.038121 -0.074751 0.174413 0.065127 0.186249 -0.153774 0.100761 -0.117375 0.196514 0.051957 -0.172188 -0.016773 0.195317 0.044345 -0.092412 0.119015 -0.012864 -0.035030 -0.121984 0.098754 0.012719 0.040753 0.076442 0.019162 0.101081 0.070175 -0.001599 
-0.097388 -0.072139 0.101180 0.143197 -0.039476 -0.052824 0.110293 0.103817 0.097089 -0.051566 0.099091 -0.102512 -0.067733 -0.076052 -0.112872 0.128385 0.057454 -0.087797 0.133918 0.111892 -0.101819 0.037857 -0.081742 -0.043268 -0.060097 -0.064220 -0.152988 -0.118858 0.070733 -0.029051 0.055353 -0.035432 0.094300 0.088444 -0.102496 -0.065462 0.064604 -0.151982 0.071717 -0.103386 -0.097535 -0.034777 -0.122433 0.090085 0.114130 -0.099396 0.102117 0.001792 -0.119034 0.145606 -0.036942 0.112944 -0.094018 0.096969 0.085655 0.139194 0.112328 -0.018640 0.103032 -0.117972 -0.106541 -0.051794 -0.098117 0.147364 0.095198 0.099637 0.006600 0.101261 0.104833 0.096120 -0.120663 0.077739 -0.008581 -0.144443 0.103261 -0.069459 0.140730 -0.081696 -0.098644 -0.073572 0.101071 0.102423 -0.084773 -0.095183 0.100633 0.099320 -0.100303 -0.095184 0.050100 -0.101123 -0.077068 0.108205 0.098405 -0.098991 -0.053898 -0.095882 -0.094531 -0.131257 -0.115754 0.099502 0.098141 -0.127117 0.102785 0.137327 -0.102148 -0.058442 -0.119310 0.100497 -0.101533 -0.046894 0.080970 -0.136524 0.136404 -0.047326 0.077857 -0.098014 0.101896 0.136686 -0.078436 -0.103633 -0.100053 0.065619 0.086112 0.089243 0.005987 0.110893 0.101963 0.156195 
0.100000 -0.100000 -0.100000 -0.100000 0.100000 -0.100000 -0.100000 -0.100000 0.100000 -0.100000 -0.087296 -0.100000 -0.100000 0.100000 -0.100000 -0.100000 -0.100000 -0.100000 -0.100000 0.100000 0.100000 0.100000 -0.100000 0.100000 -0.100000 -0.100000 -0.100000 0.063820 0.100000 -0.059762 0.100000 0.100000 -0.100000 0.100000 0.100000 -0.100000 0.100000 -0.100000 -0.100000 -0.100000 0.078298 -0.002182 0.100000 -0.021664 0.100000 -0.100000 0.100000 -0.100000 0.100000 0.100000 -0.100000 -0.100000 0.100000 0.028815 -0.100000 0.100000 0.100000 0.100000 -0.100000 -0.100000 -0.100000 0.033733 0.100000 -0.100000 -0.100000 0.100000 0.100000 0.100000 -0.100000 0.100000 -0.100000 -0.100000 -0.100000 -0.100000 -0.100000 0.100000 -0.100000 -0.100000 -0.100000 -0.100000 -0.100000 -0.100000 0.100000 0.100000 -0.100000 -0.100000 -0.100000 -0.100000 0.100000 0.100000 0.100000 -0.100000 0.100000 -0.100000 0.100000 -0.100000 0.100000 0.100000 0.006500 -0.100000 -0.100000 0.100000 0.100000 0.100000 0.100000 0.100000 -0.100000 -0.100000 0.100000 0.100000 0.100000 -0.032817 0.100000 0.100000 0.100000 0.100000 0.100000 -0.100000 0.100000 -0.100000 0.100000 0.100000 0.100000 -0.100000 -0.100000 0.100000 -0.100000 -0.100000 
-0.100000 -0.100000 0.100000 0.100000 -0.100000 -0.100000 -0.100000 -0.024180 0.100000 -0.100000 -0.100000 -0.100000 0.100000 -0.100000 -0.100000 -0.100000 -0.014641 0.100000 -0.100000 0.100000 0.066480 -0.100000 -0.100000 0.100000 0.100000 0.041702 0.100000 0.040010 0.100000 -0.100000 0.100000 -0.100000 -0.100000 -0.100000 0.100000 0.100000 0.100000 -0.100000 0.100000 -0.100000 -0.100000 -0.100000 0.100000 -0.100000 0.052058 0.100000 -0.100000 0.100000 0.100000 0.100000 0.100000 0.100000 -0.100000 0.100000 -0.100000 -0.100000 -0.100000 0.100000 -0.100000 -0.100000 0.100000 0.100000 -0.100000 0.100000 0.014719 0.100000 -0.100000 0.100000 0.100000 0.100000 -0.100000 0.100000 0.100000 0.100000 -0.100000 0.100000 -0.100000 0.100000 0.100000 0.100000 -0.100000 -0.100000 0.100000 0.100000 0.046702 -0.100000 -0.100000 -0.100000 -0.100000 -0.100000 0.100000 -0.100000 -0.100000 0.100000 0.100000 -0.100000 -0.096013 0.100000 -0.100000 0.100000 0.100000 -0.100000 -0.066870 0.100000 -0.100000 0.100000 -0.100000 0.094857 -0.100000 -0.083570 -0.100000 -0.100000 -0.100000 -0.100000 -0.100000 -0.100000 -0.100000 0.100000 0.100000 -0.100000 0.100000 0.100000 -0.100000 -0.100000 -0.100000 -0.100000 0.100000 0.100000 
0.100000 0.100000 0.100000 0.100000 -0.100000 0.100000 0.100000 -0.100000 -0.100000 0.100000 -0.100000 -0.100000 0.100000 0.100000 0.100000 -0.100000 0.100000 -0.100000 -0.100000 -0.065826 -0.100000 0.100000 0.100000 0.100000 0.100000 -0.010794 -0.100000 0.100000 0.100000 0.100000 0.100000 0.100000 -0.100000 0.100000 0.100000 -0.100000 0.100000 -0.100000 -0.100000 0.100000 0.100000 -0.100000 0.100000 0.100000 0.100000 0.100000 -0.100000 0.100000 -0.100000 -0.100000 0.100000 0.100000 -0.100000 0.100000 -0.100000 0.100000 -0.100000 -0.100000 0.100000 -0.100000 -0.100000 0.100000 0.100000 0.062376 -0.100000 0.051563 0.100000 -0.100000 0.100000 -0.100000 -0.086545 -0.100000 -0.100000 0.100000 -0.100000 0.100000 0.100000 0.100000 0.100000 -0.100000 -0.100000 0.100000 -0.100000 -0.100000 -0.100000 -0.100000 -0.100000 -0.100000 -0.100000 0.100000 0.065937 0.100000 -0.100000 0.100000 -0.100000 -0.100000 0.100000 0.100000 -0.062094 0.059081 -0.100000 0.100000 -0.100000 -0.100000 -0.100000 0.100000 -0.100000 0.100000 0.100000 -0.043655 0.100000 0.100000 -0.100000 0.100000 -0.100000 -0.100000 0.100000 -0.100000 0.100000 0.100000 -0.100000 -0.100000 -0.100000 0.100000 -0.100000 0.069876 -0.100000 0.100000 
0.100000 -0.097597 -0.100000 0.100000 0.100000 -0.100000 -0.100000 0.100000 -0.100000 0.100000 0.100000 -0.100000 -0.100000 -0.100000 0.100000 0.100000 0.032178 -0.100000 -0.100000 -0.100000 -0.100000 0.100000 -0.100000 0.100000 0.100000 -0.100000 -0.100000 -0.100000 0.100000 -0.100000 -0.100000 0.100000 -0.100000 0.100000 0.100000 0.033610 -0.100000 0.100000 0.100000 0.100000 -0.100000 -0.100000 0.100000 -0.100000 0.100000 0.100000 0.100000 -0.100000 -0.100000 -0.100000 0.100000 -0.100000 -0.100000 0.100000 0.100000 -0.100000 0.100000 0.100000 0.100000 0.100000 0.100000 -0.100000 0.068643 0.021005 -0.100000 0.100000 -0.100000 0.100000 -0.100000 0.100000 0.100000 -0.100000 0.100000 0.100000 0.100000 -0.100000 0.100000 0.100000 0.100000 0.100000 -0.100000 -0.100000 -0.100000 -0.047136 0.100000 0.100000 -0.100000 -0.100000 -0.100000 -0.100000 -0.100000 0.100000 -0.100000 -0.100000 0.100000 0.100000 -0.100000 0.100000 0.100000 0.100000 0.100000 0.100000 -0.100000 0.100000 -0.100000 -0.100000 0.100000 -0.100000 0.100000 0.100000 -0.100000 -0.100000 0.100000 -0.100000 0.100000 -0.100000 -0.100000 0.100000 0.100000 0.100000 0.100000 0.100000 0.100000 0.100000 -0.100000 -0.100000 -0.100000 -0.086211 
-0.100000 0.100000 -0.100000 -0.100000 -0.100000 0.100000 0.100000 -0.072952 -0.100000 -0.100000 0.100000 0.100000 -0.100000 0.100000 -0.100000 0.100000 -0.100000 0.100000 0.100000 0.100000 0.069788 0.006222 0.030003 0.100000 0.100000 0.100000 0.100000 -0.100000 0.100000 -0.100000 -0.100000 -0.100000 0.100000 -0.100000 -0.100000 0.025191 0.100000 0.100000 -0.100000 0.100000 0.100000 0.100000 -0.100000 0.100000 0.100000 -0.100000 -0.100000 -0.100000 0.100000 0.100000 -0.100000 -0.100000 0.100000 -0.062967 0.100000 -0.100000 -0.100000 0.100000 0.100000 0.100000 0.100000 -0.100000 0.095416 -0.100000 0.100000 -0.100000 -0.100000 0.100000 0.081919 0.100000 -0.100000 0.100000 -0.100000 0.100000 -0.100000 -0.100000 0.100000 0.100000 0.100000 -0.100000 -0.100000 0.100000 -0.100000 -0.100000 0.100000 -0.100000 0.100000 -0.100000 0.100000 0.100000 -0.100000 -0.100000 0.100000 0.100000 0.100000 -0.100000 0.100000 0.100000 -0.100000 0.043575 0.100000 -0.100000 -0.100000 0.100000 -0.062419 0.100000 -0.100000 0.100000 -0.100000 0.100000 -0.100000 0.019113 0.100000 -0.100000 0.100000 -0.100000 -0.100000 -0.100000 -0.100000 0.100000 0.100000 0.100000 0.083793 -0.100000 -0.001709 -0.100000 0.100000 0.100000 
0.100000 0.100000 0.100000 0.096772 -0.100000 -0.100000 0.100000 0.100000 0.100000 -0.100000 -0.100000 0.100000 0.100000 -0.100000 0.100000 0.100000 0.100000 -0.075993 -0.100000 -0.035279 -0.100000 -0.100000 -0.100000 -0.100000 0.100000 -0.090870 0.100000 0.100000 0.100000 0.100000 -0.100000 0.100000 -0.100000 -0.100000 0.100000 -0.100000 0.100000 0.100000 0.100000 -0.100000 0.100000 -0.100000 -0.100000 0.100000 -0.100000 -0.100000 -0.100000 0.100000 0.100000 0.100000 -0.100000 0.100000 -0.100000 -0.100000 0.100000 -0.100000 -0.100000 -0.100000 0.100000 -0.100000 -0.100000 0.100000 -0.100000 0.100000 -0.100000 0.100000 0.100000 -0.100000 -0.100000 -0.100000 -0.100000 -0.100000 -0.100000 -0.100000 0.100000 -0.100000 0.100000 0.100000 0.100000 -0.100000 0.100000 0.100000 0.100000 -0.100000 0.100000 0.100000 0.100000 -0.100000 -0.100000 -0.100000 -0.100000 0.100000 -0.100000 -0.100000 0.100000 -0.100000 -0.100000 -0.100000 0.100000 0.100000 0.100000 -0.100000 -0.100000 -0.100000 -0.100000 -0.100000 0.100000 0.100000 -0.100000 -0.100000 0.100000 -0.100000 -0.100000 0.100000 -0.100000 -0.100000 0.100000 0.100000 0.100000 -0.100000 -0.100000 0.100000 0.100000 -0.100000 -0.100000 -0.100000 0.100000 0.024630 
-0.100000 0.100000 -0.100000 0.100000 0.100000 0.100000 -0.100000 -0.100000 -0.100000 0.100000 -0.100000 -0.100000 -0.100000 0.100000 -0.100000 0.100000 -0.100000 -0.100000 -0.100000 0.100000 -0.100000 -0.076289 -0.100000 -0.100000 -0.100000 0.100000 0.100000 -0.100000 0.100000 0.100000 0.100000 -0.100000 -0.046694 -0.100000 -0.100000 -0.100000 -0.100000 0.100000 0.100000 -0.100000 -0.100000 0.100000 -0.100000 -0.100000 0.002541 0.100000 0.100000 -0.100000 -0.100000 0.100000 -0.100000 0.100000 0.100000 -0.100000 0.100000 0.100000 0.100000 -0.100000 0.100000 -0.100000 -0.100000 -0.100000 -0.100000 -0.100000 -0.100000 0.100000 -0.100000 -0.100000 -0.100000 -0.100000 -0.100000 -0.100000 -0.100000 -0.100000 -0.100000 0.100000 0.100000 0.100000 -0.100000 -0.100000 0.100000 0.100000 -0.100000 -0.100000 -0.100000 -0.100000 0.100000 0.100000 -0.100000 0.100000 -0.100000 0.100000 0.100000 -0.099070 -0.100000 0.100000 -0.100000 0.100000 -0.100000 0.100000 0.100000 -0.100000 -0.100000 0.100000 0.100000 -0.100000 0.056611 -0.100000 0.100000 -0.100000 -0.100000 -0.100000 0.100000 0.100000 0.100000 0.100000 -0.100000 -0.074001 -0.100000 -0.100000 0.100000 -0.100000 0.100000 0.100000 0.100000 0.100000 -0.100000 0.100000 
-0.100000 -0.100000 0.100000 -0.100000 -0.100000 -0.100000 0.100000 0.100000 -0.100000 0.100000 0.100000 -0.100000 -0.100000 -0.100000 -0.100000 -0.100000 0.100000 0.022501 -0.100000 0.100000 0.100000 0.100000 -0.100000 -0.100000 0.100000 -0.100000 -0.100000 -0.073548 -0.100000 0.100000 -0.100000 -0.100000 -0.100000 -0.100000 0.100000 0.100000 -0.100000 -0.100000 0.100000 -0.100000 0.100000 -0.100000 -0.100000 -0.100000 0.100000 -0.100000 0.100000 -0.100000 0.100000 0.100000 0.100000 -0.100000 -0.008021 0.100000 -0.100000 0.100000 0.100000 0.100000 0.100000 -0.064102 -0.100000 0.100000 0.100000 0.100000 -0.049774 -0.100000 0.100000 -0.100000 -0.100000 -0.100000 -0.100000 -0.100000 -0.100000 -0.100000 -0.024515 0.100000 -0.100000 -0.100000 -0.100000 0.100000 0.007098 0.100000 -0.100000 -0.100000 0.100000 -0.100000 0.100000 0.100000 0.100000 0.100000 -0.100000 0.100000 -0.100000 0.100000 -0.100000 -0.100000 0.100000 -0.100000 -0.100000 0.100000 -0.062621 0.100000 0.100000 -0.018016 -0.100000 0.100000 -0.100000 -0.100000 0.100000 0.100000 -0.100000 -0.100000 -0.100000 -0.031265 0.100000 -0.100000 -0.003178 -0.100000 0.100000 0.100000 -0.100000 0.100000 -0.100000 0.100000 -0.100000 -0.100000 0.100000 0.100000 
-0.100000 -0.100000 -0.100000 0.057788 0.100000 0.100000 -0.100000 0.100000 -0.100000 -0.100000 -0.100000 -0.100000 -0.100000 -0.100000 0.100000 -0.100000 0.100000 0.035414 -0.100000 -0.100000 -0.088971 -0.100000 -0.100000 -0.100000 0.100000 -0.100000 -0.082695 -0.100000 0.100000 0.001101 -0.100000 -0.100000 0.088994 -0.100000 0.100000 -0.100000 0.100000 0.100000 -0.100000 -0.100000 0.100000 0.100000 0.100000 0.100000 -0.100000 0.100000 0.100000 0.100000 0.100000 0.100000 0.100000 -0.100000 0.100000 -0.100000 -0.089481 -0.100000 -0.100000 0.100000 -0.100000 0.100000 0.100000 0.100000 0.100000 -0.100000 -0.100000 -0.100000 0.100000 -0.100000 -0.100000 -0.100000 -0.100000 -0.095095 -0.100000 0.100000 0.100000 0.100000 -0.100000 0.100000 -0.100000 0.100000 0.100000 0.100000 -0.100000 0.100000 0.100000 0.100000 0.100000 0.100000 0.100000 0.100000 0.100000 -0.100000 -0.100000 -0.100000 -0.100000 -0.100000 -0.100000 0.100000 0.100000 -0.100000 -0.100000 -0.100000 -0.100000 -0.100000 0.100000 -0.100000 -0.100000 0.100000 0.100000 -0.019252 -0.100000 -0.100000 0.100000 0.100000 -0.100000 0.100000 0.100000 0.100000 -0.100000 -0.100000 0.100000 0.100000 0.100000 -0.100000 0.100000 -0.100000 -0.100000 0.100000 
-0.100000 0.100000 -0.017120 -0.100000 0.100000 -0.100000 0.100000 0.100000 -0.100000 0.100000 -0.100000 0.100000 -0.100000 0.100000 0.100000 0.100000 0.100000 -0.100000 0.100000 -0.100000 -0.100000 0.100000 0.100000 0.100000 -0.100000 0.062174 0.100000 0.100000 -0.100000 -0.100000 -0.100000 0.100000 -0.100000 -0.100000 0.045234 -0.100000 -0.100000 -0.100000 -0.100000 -0.100000 0.100000 -0.100000 -0.100000 -0.100000 -0.100000 0.100000 0.100000 -0.100000 0.100000 -0.033459 -0.100000 0.100000 -0.100000 0.100000 0.100000 0.100000 -0.100000 0.100000 -0.100000 0.100000 -0.100000 0.100000 -0.100000 -0.100000 -0.100000 0.100000 -0.100000 -0.100000 -0.100000 -0.100000 -0.008184 -0.100000 0.100000 0.004602 -0.095955 -0.100000 -0.100000 -0.100000 0.100000 -0.100000 0.100000 -0.100000 0.100000 0.100000 -0.100000 0.100000 0.034771 0.083371 0.100000 -0.100000 -0.100000 0.100000 0.100000 -0.100000 0.100000 0.100000 -0.100000 0.100000 -0.100000 0.081609 -0.100000 0.100000 0.100000 -0.100000 0.100000 -0.029656 -0.100000 -0.100000 -0.100000 0.100000 0.100000 0.100000 0.100000 0.096603 0.100000 -0.100000 0.100000 0.100000 0.100000 -0.100000 0.100000 -0.100000 -0.100000 0.100000 0.100000 0.100000 -0.100000 0.100000 
-0.100000 -0.100000 -0.100000 0.100000 -0.100000 0.100000 -0.100000 0.100000 0.100000 0.100000 0.100000 0.100000 -0.100000 -0.100000 -0.100000 -0.100000 0.100000 0.100000 0.100000 -0.100000 0.100000 -0.005434 -0.100000 -0.100000 0.100000 -0.099332 -0.100000 -0.100000 0.100000 -0.100000 0.100000 -0.100000 -0.100000 0.100000 0.100000 0.100000 -0.100000 -0.100000 -0.100000 -0.100000 0.100000 -0.100000 -0.100000 -0.100000 -0.100000 -0.100000 -0.100000 -0.038522 -0.100000 0.100000 -0.100000 0.100000 0.100000 -0.100000 0.100000 0.100000 0.100000 0.100000 0.100000 0.100000 -0.100000 0.100000 -0.100000 -0.094678 -0.100000 0.100000 0.100000 0.100000 -0.100000 -0.100000 0.100000 0.100000 -0.100000 -0.024990 0.100000 -0.100000 0.091936 -0.100000 -0.100000 0.100000 -0.100000 0.100000 0.100000 -0.100000 -0.100000 -0.100000 0.100000 0.100000 -0.100000 0.100000 -0.100000 -0.100000 0.100000 -0.100000 -0.100000 0.100000 0.100000 0.100000 0.100000 -0.100000 -0.075122 0.100000 0.100000 0.100000 -0.100000 -0.100000 0.018277 0.100000 0.100000 0.100000 -0.100000 0.100000 0.100000 0.100000 0.100000 0.069619 -0.100000 -0.100000 0.100000 -0.100000 -0.100000 0.100000 0.100000 0.100000 0.100000 0.100000 0.100000 0.100000 
0.100000 0.100000 -0.100000 0.100000 0.100000 0.100000 -0.100000 0.100000 0.100000 0.100000 0.100000 0.024632 -0.100000 0.100000 -0.100000 -0.100000 0.100000 0.100000 0.100000 -0.100000 0.043540 -0.100000 -0.100000 0.100000 0.100000 -0.100000 0.100000 -0.100000 -0.100000 -0.100000 0.100000 0.100000 0.100000 0.100000 0.100000 -0.100000 0.100000 -0.100000 0.100000 0.100000 0.038095 0.100000 0.100000 0.100000 -0.100000 0.100000 -0.100000 -0.100000 0.100000 0.100000 0.100000 0.100000 0.100000 -0.100000 -0.100000 -0.100000 -0.041941 -0.100000 0.100000 -0.005051 -0.100000 0.100000 0.100000 0.100000 0.100000 -0.100000 -0.100000 0.100000 0.100000 0.100000 -0.070152 0.100000 0.100000 -0.100000 -0.100000 0.067121 -0.100000 0.100000 -0.100000 -0.100000 0.100000 0.100000 0.100000 -0.100000 0.100000 0.100000 0.100000 -0.100000 -0.029784 0.100000 0.100000 -0.100000 0.063487 -0.100000 0.100000 -0.100000 0.100000 -0.019705 -0.100000 0.100000 -0.100000 0.100000 -0.100000 0.100000 0.100000 0.100000 0.100000 -0.100000 -0.100000 0.100000 0.010352 0.100000 0.100000 -0.100000 0.100000 -0.100000 0.100000 0.100000 -0.100000 0.100000 0.100000 0.100000 0.100000 0.100000 -0.100000 0.040016 0.100000 -0.100000 
0.060861 0.100000 -0.100000 0.100000 0.012189 0.100000 -0.100000 0.028653 0.100000 -0.100000 -0.100000 0.100000 -0.100000 0.100000 0.100000 0.100000 -0.100000 0.053438 -0.100000 -0.100000 0.100000 -0.100000 0.100000 0.100000 0.100000 0.100000 0.100000 -0.100000 0.100000 0.100000 -0.100000 -0.100000 0.100000 -0.100000 -0.100000 0.100000 -0.100000 -0.100000 -0.100000 -0.100000 -0.100000 0.100000 0.100000 -0.100000 -0.100000 -0.100000 -0.100000 0.100000 -0.100000 -0.100000 0.100000 -0.100000 -0.100000 0.100000 -0.100000 0.100000 -0.100000 0.100000 -0.100000 0.100000 -0.100000 0.100000 0.100000 0.100000 -0.100000 -0.100000 0.100000 -0.100000 0.100000 0.100000 -0.100000 -0.100000 0.100000 -0.100000 0.100000 0.100000 0.100000 0.100000 0.100000 0.100000 0.100000 0.100000 0.100000 -0.100000 -0.100000 -0.100000 -0.091407 -0.100000 -0.100000 0.100000 0.100000 0.100000 0.100000 -0.100000 0.100000 0.100000 -0.100000 0.100000 -0.100000 0.057047 -0.100000 -0.100000 0.100000 0.100000 -0.055807 0.100000 -0.100000 -0.100000 -0.100000 0.100000 0.100000 -0.100000 0.100000 -0.100000 0.100000 -0.100000 -0.100000 -0.100000 0.100000 0.062499 -0.100000 -0.046401 0.100000 0.100000 -0.100000 0.100000 0.100000 0.100000 
0.100000 0.100000 -0.100000 -0.100000 -0.100000 -0.100000 -0.100000 -0.100000 -0.055667 0.100000 -0.100000 0.100000 0.100000 -0.100000 -0.100000 0.098648 0.100000 -0.100000 0.100000 -0.072761 0.100000 0.100000 -0.100000 -0.100000 -0.083690 0.100000 -0.100000 0.078645 0.100000 0.100000 -0.100000 -0.100000 0.074256 0.100000 -0.100000 0.100000 -0.100000 -0.100000 0.100000 0.100000 0.051005 -0.100000 0.100000 0.100000 -0.100000 0.100000 0.100000 -0.100000 0.100000 0.072330 -0.100000 0.100000 0.100000 -0.100000 0.100000 0.100000 0.100000 -0.100000 -0.100000 -0.081282 -0.100000 0.100000 -0.100000 0.100000 0.100000 0.100000 0.100000 -0.100000 -0.100000 0.100000 -0.100000 0.100000 -0.100000 -0.100000 -0.100000 -0.100000 -0.100000 -0.100000 0.100000 0.100000 -0.092750 -0.100000 -0.100000 0.100000 0.100000 0.100000 0.090893 -0.100000 -0.100000 0.015481 -0.100000 0.100000 -0.100000 -0.100000 0.100000 -0.100000 0.100000 0.100000 0.100000 0.018354 -0.100000 -0.100000 0.100000 0.100000 0.100000 0.100000 0.100000 -0.100000 -0.100000 0.100000 -0.100000 0.056759 0.100000 0.100000 0.100000 -0.100000 0.100000 -0.100000 0.100000 0.100000 -0.100000 -0.100000 0.100000 -0.100000 -0.100000 0.039846 0.100000 0.100000 
0.073212 -0.100000 0.100000 -0.100000 0.100000 -0.100000 0.100000 -0.100000 0.100000 0.100000 0.100000 -0.100000 0.100000 -0.100000 -0.100000 0.100000 -0.100000 -0.100000 -0.011366 -0.100000 0.100000 0.100000 0.100000 0.100000 -0.100000 -0.100000 0.100000 -0.100000 -0.100000 -0.100000 -0.100000 0.100000 0.100000 0.100000 -0.100000 -0.100000 -0.100000 0.100000 0.100000 0.100000 -0.100000 0.100000 0.100000 0.100000 -0.100000 -0.100000 0.100000 -0.100000 0.100000 0.100000 -0.100000 0.100000 -0.100000 0.100000 -0.082202 0.100000 -0.100000 0.100000 -0.100000 0.100000 0.100000 0.100000 -0.100000 -0.100000 0.100000 -0.100000 0.100000 -0.100000 0.100000 0.100000 -0.100000 0.100000 0.100000 0.100000 -0.100000 -0.040334 0.100000 -0.100000 0.100000 0.100000 -0.100000 0.100000 -0.100000 -0.100000 -0.100000 -0.100000 -0.100000 0.100000 0.100000 0.086288 -0.100000 0.100000 0.100000 -0.100000 -0.100000 0.100000 -0.100000 0.100000 0.020435 0.100000 -0.100000 -0.100000 -0.100000 -0.100000 0.100000 0.100000 0.098492 0.100000 0.100000 0.100000 0.100000 -0.100000 0.100000 -0.100000 -0.100000 -0.100000 0.100000 0.100000 0.100000 -0.098573 -0.100000 -0.100000 0.100000 -0.100000 0.080895 0.100000 0.100000 0.100000 
-0.100000 0.100000 -0.100000 -0.020858 0.100000 -0.100000 0.100000 -0.100000 0.100000 -0.100000 0.100000 0.100000 0.100000 -0.100000 0.100000 0.100000 -0.100000 0.100000 0.100000 0.100000 0.100000 -0.100000 0.100000 -0.004970 -0.088908 0.100000 -0.100000 -0.100000 -0.100000 -0.100000 0.041448 -0.044454 0.100000 0.100000 -0.100000 0.100000 -0.100000 0.100000 0.100000 -0.100000 0.100000 0.100000 -0.100000 0.100000 -0.100000 0.100000 -0.087138 -0.100000 -0.100000 0.100000 -0.100000 0.100000 0.100000 0.100000 -0.100000 0.100000 0.100000 -0.100000 -0.100000 0.100000 -0.063509 -0.100000 -0.100000 0.100000 0.100000 0.100000 0.100000 -0.100000 0.100000 0.100000 -0.031472 0.100000 -0.045046 0.100000 -0.100000 -0.100000 -0.080952 0.100000 -0.011420 -0.100000 0.100000 0.100000 0.100000 -0.100000 -0.100000 -0.100000 0.100000 0.100000 -0.100000 0.100000 -0.100000 0.100000 -0.100000 -0.100000 -0.100000 -0.100000 0.100000 0.100000 0.100000 -0.100000 -0.100000 0.100000 0.100000 0.100000 0.019020 -0.100000 0.100000 -0.100000 0.100000 -0.100000 0.100000 0.100000 -0.100000 0.100000 -0.100000 0.100000 -0.001368 0.063435 -0.100000 0.100000 -0.100000 0.100000 0.100000 -0.100000 0.100000 -0.100000 -0.100000 -0.100000 
-0.103070 -0.096536 0.099997 -0.101436 0.102946 0.098398 0.102996 -0.098302 -0.100020 -0.103506 0.099994 -0.100001 -0.056829 0.096385 -0.095191 -0.100080 0.096216 0.099953 -0.096756 0.097789 -0.094437 0.100006 0.099434 -0.100000 -0.100074 0.099998 0.104671 -0.099958 -0.094620 0.100031 0.103742 0.096368 -0.100231 0.104447 0.106119 0.099947 0.100062 0.105760 -0.095972 0.096955 -0.100028 0.100047 -0.101920 0.105750 -0.100104 -0.095398 0.100008 0.018754 -0.095730 0.099632 -0.101695 0.099946 -0.094796 -0.099984 -0.099693 -0.102947 0.100010 -0.101011 -0.100037 -0.096879 0.099987 -0.034944 0.099981 0.100279 -0.099908 -0.036626 0.100083 0.097507 0.103419 -0.096854 0.077291 -0.100028 0.104369 0.103854 0.100013 -0.099982 -0.099982 -0.101378 -0.099936 -0.094152 -0.100001 -0.100047 0.096805 0.099810 0.100003 0.100025 0.100063 0.100040 0.100065 -0.099998 -0.096320 0.099943 -0.099981 0.101621 0.100008 -0.075294 -0.100012 -0.095257 0.099981 -0.095979 0.100039 -0.095051 0.100035 -0.100047 0.100004 -0.103624 -0.099988 -0.099906 0.100070 -0.095709 -0.099996 0.103995 -0.103640 0.096198 0.100399 0.100090 -0.096119 0.100028 -0.096931 -0.099926 0.099943 0.042827 0.100138 0.103112 -0.100523 0.096319 0.103380 0.002162 
0.107535 0.144466 0.060494 0.068122 0.145403 0.091075 0.021626 -0.112368 0.113172 0.059392 -0.124284 -0.124016 -0.079669 0.103374 0.115288 -0.110040 -0.099262 0.114207 -0.124174 0.065325 -0.066442 0.098440 -0.077943 -0.110198 0.084574 -0.095506 -0.080531 -0.118984 0.111897 0.074498 -0.089771 0.083639 0.132477 0.087616 0.148090 -0.079337 -0.078121 0.144974 0.092257 0.082243 0.084287 -0.124577 0.066707 -0.008760 0.069613 0.092378 -0.122434 0.115291 0.141590 -0.059423 -0.110057 -0.083901 0.114782 0.129615 0.088929 -0.122006 0.084484 0.076587 -0.103368 -0.109481 0.071709 0.132836 0.061450 0.126910 -0.098640 -0.125521 -0.096504 0.065297 0.109357 -0.083583 0.079522 -0.103753 -0.055182 0.090930 0.133150 -0.082624 -0.080687 0.071362 -0.071617 0.114524 -0.104133 -0.130708 0.088446 -0.111764 -0.079991 -0.040713 0.110198 -0.122836 -0.104222 -0.078111 0.141315 0.073477 0.075531 0.002216 -0.079981 0.076291 0.112880 -0.063371 -0.118416 0.136476 -0.038464 -0.058958 -0.110485 -0.084701 0.074618 0.063919 0.089914 0.086629 -0.114122 0.150035 0.064793 0.086492 -0.124599 0.083458 0.066480 0.075547 0.084738 0.088603 -0.080214 0.126444 0.089821 0.061470 0.103282 0.134518 -0.099547 0.054690 0.135419 0.080444 
-0.072080 0.264708 -0.041553 -0.004874 0.208535 -0.114086 0.032130 -0.008251 0.160559 -0.081562 -0.159573 0.031485 0.240409 -0.123718 0.169550 -0.121279 0.034112 -0.091693 -0.171596 -0.218542 0.018267 0.101447 -0.125836 0.068711 -0.247547 -0.094677 0.218510 -0.187386 0.150144 -0.225508 0.142004 -0.160026 0.028887 -0.222203 0.105208 -0.093366 -0.001217 0.105190 -0.121956 -0.166628 0.038439 -0.136107 -0.127407 0.295817 -0.268627 -0.158133 -0.190655 -0.075274 0.098011 0.023556 0.083883 0.130220 -0.101893 0.191650 -0.085924 -0.009012 0.120695 -0.026232 -0.101230 0.028721 -0.178227 -0.034589 -0.037811 0.009880 -0.079206 -0.161490 0.098277 -0.163951 -0.071558 -0.051401 -0.047176 -0.053927 0.292363 0.034890 -0.010050 -0.024326 -0.047751 -0.079538 0.192477 -0.024531 -0.090193 -0.220869 -0.145099 -0.178857 0.164017 -0.076002 0.136541 -0.201601 -0.179574 -0.196952 0.208478 -0.022283 -0.083834 -0.220273 0.184374 -0.168694 -0.094091 0.050140 -0.132743 0.145681 -0.027807 0.285651 -0.182904 -0.056963 -0.194805 -0.032647 0.118320 0.083686 0.097925 0.310665 0.031831 0.065920 -0.073951 -0.117599 -0.200155 -0.210734 0.011426 0.108072 -0.001960 0.054122 0.016944 -0.034334 0.130006 -0.009363 0.089003 -0.279634 0.173974 -0.199352 
-0.066043 0.143164 -0.082490 -0.195561 0.007895 -0.128962 0.263414 -0.249510 0.174143 -0.092069 0.036295 -0.107501 0.080735 -0.132085 0.159424 0.073776 -0.152585 -0.014417 -0.073380 -0.257387 0.162568 -0.100391 -0.111507 -0.143833 -0.045299 0.111617 0.216351 0.045851 0.029353 -0.059527 -0.039429 -0.163253 0.202915 -0.256843 0.181109 -0.141842 0.215635 0.378582 0.104836 -0.185715 0.023964 -0.124582 0.123370 0.286721 -0.273545 -0.156120 -0.063520 -0.083578 0.361905 0.077051 -0.123198 -0.082648 0.092774 0.326047 0.094190 -0.029885 0.080595 -0.067016 -0.114574 -0.115808 0.037125 0.009502 -0.292577 0.021048 0.139202 -0.002710 0.093861 -0.124845 0.186963 -0.062892 -0.108542 0.166484 0.140595 -0.148263 0.150080 0.165858 -0.041084 -0.075468 0.088207 0.166871 0.082504 -0.050494 -0.175482 -0.042077 0.202774 -0.120599 -0.059505 -0.222884 0.037971 -0.005013 0.007507 -0.076984 -0.184101 0.016579 -0.008688 0.017092 -0.103538 0.079438 -0.084327 -0.006355 0.167208 0.169424 -0.011806 -0.095279 0.001282 -0.258315 -0.125872 -0.126434 -0.073733 0.357429 0.027204 0.132020 -0.133721 -0.150867 -0.268090 -0.225422 -0.220175 -0.082695 0.185647 0.240953 -0.221367 -0.281425 0.162341 0.235607 -0.001564 -0.090140 0.179857 -0.028392 
-0.101323 0.375686 -0.472319 -0.324084 0.114400 0.018862 0.429684 -0.426015 0.278072 -0.395945 -0.026093 -0.150260 0.242951 -0.141417 0.183469 0.097650 -0.247166 -0.103095 -0.365304 -0.231563 0.277595 -0.095464 -0.170818 -0.043903 -0.176927 -0.165353 0.386104 -0.185397 0.396649 -0.217169 0.062060 -0.227801 0.122793 -0.362710 0.428012 0.052924 0.191581 0.624822 -0.042788 0.003991 -0.302371 -0.137963 -0.047738 0.405479 -0.477147 -0.250810 -0.362917 0.156259 0.594917 0.459996 -0.165859 0.113291 0.008851 0.421003 0.242615 -0.384499 -0.024943 -0.416994 -0.236046 0.115728 -0.013152 0.321817 -0.272762 0.358109 0.013189 -0.235809 0.040449 -0.193125 0.082376 0.231525 -0.401699 0.112076 0.558854 0.094446 -0.020367 0.168549 0.029505 0.112788 0.327060 0.080867 0.136085 -0.223302 -0.273361 -0.134159 0.045883 0.086658 0.048923 -0.174552 -0.026442 -0.344859 0.338349 -0.485132 -0.232224 -0.247831 0.275243 -0.279965 0.059179 0.286534 -0.078910 0.365618 0.293932 0.602691 -0.373461 -0.022510 -0.353868 -0.463502 -0.115576 -0.249401 -0.175881 0.593686 -0.134021 0.180906 -0.538481 -0.015183 -0.415760 -0.179205 -0.314403 -0.136699 0.159907 0.377423 -0.197464 -0.216366 0.095625 0.393795 0.171836 -0.434791 0.310405 -0.193068 
0.123787 0.573930 -0.480016 -0.176544 0.109369 -0.019919 0.180794 -0.236893 0.095171 -0.433273 -0.030870 -0.349201 0.271514 -0.150113 0.256706 -0.105090 -0.093196 -0.119863 -0.149465 -0.451778 0.318482 0.145867 0.005604 -0.259397 -0.165161 -0.147679 0.505666 0.039720 0.400848 -0.434981 0.254897 -0.238102 0.160410 -0.378074 0.479666 -0.079196 0.226075 0.680878 -0.012481 0.080058 -0.306479 0.072519 -0.005456 0.661860 -0.311446 -0.286100 -0.248184 0.172251 0.493167 0.281976 -0.252866 -0.114716 0.012984 0.340099 0.076474 -0.240490 -0.105643 -0.197725 -0.095976 0.124579 -0.200029 0.318880 -0.242807 0.409823 0.236751 -0.147220 -0.185629 -0.212314 0.366384 0.196328 -0.430539 0.391540 0.620775 -0.034858 0.133016 0.021578 0.027792 -0.080127 0.296406 0.111075 0.156197 -0.209295 -0.296746 -0.342116 0.067532 -0.151392 0.255991 -0.352451 -0.074164 -0.316493 0.211318 -0.478279 -0.021141 -0.020214 0.254876 -0.065837 0.034220 0.498873 -0.026573 0.197188 0.292665 0.640250 -0.197689 -0.052117 -0.149044 -0.322230 0.003707 -0.118573 -0.180785 0.627951 -0.072249 0.276776 -0.385019 -0.219862 -0.476788 -0.202788 -0.326610 0.046581 0.367213 0.346511 -0.205001 -0.228852 0.150221 0.400462 0.168534 -0.270563 0.307537 -0.386533 
-0.125665 0.654750 -0.268795 -0.195245 0.163946 -0.336685 0.242673 -0.415804 0.270108 -0.243438 0.023339 -0.342537 0.529795 -0.163498 0.555753 0.021252 -0.322551 -0.203179 -0.340409 -0.449875 0.583485 -0.010079 -0.138488 -0.321468 -0.444019 0.040554 0.400599 0.107582 0.518840 -0.442558 0.061120 -0.024827 0.167746 -0.285000 0.565656 -0.049516 0.265469 0.744878 0.067871 -0.089249 -0.111359 -0.160123 0.183988 0.528213 -0.515713 -0.135564 -0.417754 0.112979 0.517724 0.507051 -0.121349 0.034551 -0.115597 0.528334 0.109065 -0.245900 -0.146632 -0.372143 -0.366370 0.148799 -0.186572 0.078387 -0.481111 0.216968 0.080072 -0.205905 0.036390 -0.198656 0.149526 0.219021 -0.215151 0.150821 0.714259 0.222802 0.108235 -0.057025 -0.003989 -0.063330 0.080492 0.163153 -0.055119 -0.247627 -0.162483 -0.181106 0.044929 -0.002898 0.221463 -0.445582 -0.201335 -0.103296 0.380330 -0.550607 -0.054268 0.015416 -0.015312 -0.101897 -0.236731 0.340764 0.046508 0.483885 0.042076 0.726334 -0.223668 -0.237339 -0.133621 -0.310933 -0.116898 -0.243034 0.046885 0.495586 0.076161 0.223360 -0.376887 -0.278926 -0.497243 -0.360665 -0.185333 -0.066847 0.369781 0.131969 -0.456961 -0.466024 0.386112 0.378458 0.218338 -0.312247 0.372274 -0.233449 
-0.099950 0.735975 -0.659686 -0.334608 0.627313 -0.384365 0.254487 -0.381927 0.372054 -0.426579 -0.035177 -0.496201 0.796516 -0.524778 0.695914 -0.153578 -0.145848 -0.118178 -0.314195 -0.543564 0.879798 0.313326 -0.076901 -0.382945 -0.466245 -0.083780 0.499374 0.089778 0.558616 -0.573693 0.432976 0.024991 0.232751 -0.264157 1.135601 -0.243730 0.599524 1.074623 0.389637 -0.052627 -0.279234 -0.205347 0.132937 1.064143 -0.476219 0.166729 -0.586474 -0.090698 0.932772 0.840541 -0.430001 -0.058427 0.307112 0.511849 0.109584 -0.438291 -0.267574 -0.405360 -0.336448 -0.114556 -0.066630 0.386549 -0.705639 0.473487 0.224618 -0.569807 -0.009345 -0.224118 0.388890 0.050870 -0.417629 0.145330 1.011245 -0.148019 0.170721 -0.020323 0.277823 0.005257 0.064866 0.597148 0.014631 -0.636657 -0.286225 -0.277169 0.107672 -0.067548 0.032069 -0.522169 -0.082437 -0.253030 0.433071 -0.605141 -0.395911 -0.263197 0.028957 -0.358926 0.049811 0.814178 0.139012 0.554505 0.245455 0.872939 -0.609905 0.076094 -0.317211 -0.390164 -0.258855 -0.558196 -0.148922 1.017245 -0.110644 0.501078 -0.629038 -0.157815 -0.411753 -0.458266 -0.322919 -0.341955 0.208509 0.201846 -0.622533 -0.679310 0.404784 0.475071 0.394633 -0.695463 0.448980 -0.579079 
-0.133078 0.839190 -0.468117 -0.170423 0.558478 -0.394603 0.335036 -0.366758 0.249434 -0.679162 -0.233196 -0.476441 0.920410 -0.551676 0.757738 -0.284872 -0.535496 -0.143664 -0.473342 -0.365912 1.050423 0.377050 -0.125026 -0.266030 -0.672647 -0.212375 0.805704 -0.054391 0.895183 -0.356234 0.357071 -0.436771 0.532711 -0.315605 1.044238 -0.603941 0.769145 0.952612 0.445771 -0.108220 -0.490012 0.009837 0.170695 1.151137 -0.768466 0.035451 -0.527088 -0.224453 0.953901 0.662964 -0.490698 -0.152099 0.345375 0.498360 0.016141 -0.405049 -0.238753 -0.277473 -0.434563 0.237469 -0.015175 0.098705 -0.673076 0.571421 0.497177 -0.517147 0.157591 -0.020063 0.501840 0.219898 -0.257005 0.379821 1.125695 0.022260 -0.134348 -0.068195 0.113688 0.041381 0.345582 0.778668 -0.151952 -0.642894 -0.512933 -0.531543 0.180836 -0.038713 0.297297 -0.542287 -0.048778 -0.188418 0.459902 -0.741607 -0.345287 -0.028311 0.235243 -0.103284 -0.118444 0.940709 0.154880 0.721113 0.361176 1.079724 -0.397253 -0.348034 -0.561877 -0.613824 -0.226608 -0.481639 0.100097 1.204945 -0.077492 0.323212 -0.583683 -0.232647 -0.645629 -0.511526 -0.576425 -0.114510 0.592293 0.297219 -0.643184 -0.399712 0.646768 0.686096 0.587688 -0.770932 0.507882 -0.576886 
-0.034544 1.164610 -0.371808 -0.184199 0.611093 -0.142947 0.328810 -0.408354 0.251364 -0.335564 -0.104205 -0.318287 1.025628 -0.414727 0.983213 0.120430 -0.384862 -0.025586 -0.105276 -0.487930 0.997963 0.279164 -0.153274 -0.219200 -0.564322 0.182682 0.522386 -0.144243 0.780103 -0.448841 0.259413 -0.020951 0.506515 -0.144945 1.236231 -0.251706 0.753950 1.016599 0.311925 -0.218233 -0.384905 -0.290918 0.071777 1.099590 -0.604825 0.178570 -0.277384 -0.043757 1.046001 1.059559 -0.022634 0.013090 0.191832 0.532993 0.177269 -0.179897 -0.240012 -0.346005 -0.213387 0.080994 -0.318197 0.439340 -0.567713 0.744729 0.312350 -0.464132 0.029044 -0.122205 0.318061 0.138388 -0.384633 0.113985 1.038714 -0.159524 -0.061354 -0.025581 0.119673 0.035948 0.280724 0.639853 -0.152150 -0.558392 -0.139967 -0.172617 0.152224 -0.059328 0.204512 -0.196465 -0.005700 -0.430358 0.819125 -0.363129 -0.410591 -0.041374 0.206973 -0.218723 -0.157840 0.671878 -0.064741 0.408868 0.300579 1.171388 -0.308729 -0.179794 -0.336107 -0.416951 -0.009319 -0.356564 -0.082025 0.999272 -0.224346 0.062451 -0.675542 -0.010025 -0.631850 -0.155738 -0.244135 -0.126175 0.692257 0.189201 -0.568105 -0.519802 0.567494 0.529010 0.227117 -0.692233 0.449769 -0.147892 
0.118870 1.073973 -0.052113 0.292623 0.651477 -0.073933 0.204779 -0.271474 0.131934 -0.263855 -0.245924 -0.217468 0.891787 0.014064 0.784350 -0.138842 -0.398235 -0.109777 0.037731 -0.416698 0.656347 0.151386 -0.210871 -0.065259 -0.306655 0.241569 0.421595 -0.334770 0.549159 -0.067474 0.124380 -0.088609 0.177936 -0.205130 0.854409 -0.573063 0.279063 0.629788 0.306249 -0.168312 0.114733 -0.417632 0.153843 0.557448 -0.441714 0.535037 -0.151760 0.090941 0.643763 0.797063 -0.312475 0.113337 0.591449 0.013049 -0.260244 0.040584 -0.178487 0.050416 -0.038336 0.249888 -0.151533 0.933852 -0.283935 0.527534 0.101425 -0.208715 0.285567 -0.259429 0.478083 0.318768 0.163667 -0.058169 0.647443 -0.167426 0.260145 -0.129686 0.539106 0.102517 -0.051943 0.341463 -0.394883 -0.249328 -0.112476 -0.183728 0.141485 -0.327963 -0.318215 0.118550 -0.133456 -0.596178 0.445454 0.047906 -0.524647 -0.009840 0.233697 0.061638 0.292600 0.748391 0.028771 0.063605 -0.137555 0.830101 -0.373043 0.102947 -0.136494 0.125320 -0.126462 -0.108105 0.131308 0.970755 -0.351979 0.108515 -0.536659 -0.015459 -0.208420 -0.077153 -0.242517 -0.038253 0.227773 0.020525 -0.199330 -0.863790 0.217917 0.352140 0.031176 -0.647141 0.298385 0.142324 
-0.076575 0.827810 -0.427096 -0.008146 0.640789 0.076030 0.103639 -0.528810 0.073932 -0.479815 -0.333934 -0.445914 0.919142 0.122165 0.552738 -0.054958 -0.373016 -0.018502 -0.204789 -0.167455 0.505839 0.107069 -0.311496 0.025187 -0.645984 -0.038044 0.377102 -0.301120 0.369628 -0.244772 0.129753 -0.075923 0.281474 -0.334504 0.819764 -0.538961 0.223641 0.425431 0.256637 0.084833 -0.156292 -0.443376 0.216917 0.402902 -0.382837 0.131284 -0.110084 0.044377 0.612909 0.747359 -0.165857 0.101296 0.345046 -0.150448 0.244643 -0.192430 -0.307341 -0.170789 -0.012644 0.325739 -0.041927 0.584139 -0.244370 0.654082 0.307553 -0.110604 0.092708 -0.243220 0.334420 0.444641 -0.207116 -0.094224 0.823125 -0.037156 0.125750 0.163127 0.337267 -0.292770 -0.054841 0.638250 -0.041224 -0.375865 -0.197608 -0.346934 0.012793 -0.193335 -0.139398 -0.276445 -0.322326 -0.645194 0.514050 -0.100826 -0.275510 -0.048682 0.694888 -0.095615 -0.012918 0.504320 0.122370 0.238966 0.004668 0.747906 -0.546818 -0.083282 -0.582599 -0.010637 -0.220327 -0.378550 0.036923 0.806982 -0.227604 -0.163647 -0.571965 -0.182088 -0.350798 -0.058483 -0.464574 -0.124212 0.445262 0.199743 -0.349948 -0.261894 0.345837 0.029874 0.001829 -0.580953 0.222504 0.090191 
-0.399309 0.439118 -0.378876 -0.306486 0.559646 -0.163521 0.154741 -0.322385 -0.127922 -0.545037 -0.726421 -0.576217 1.245102 -0.150597 0.595871 0.105247 -0.211604 0.068691 -0.042951 -0.032449 0.281405 -0.137431 -0.223075 -0.096574 -0.727540 -0.326032 0.692305 -0.055337 0.579430 -0.150928 0.313685 -0.328649 0.289973 -0.112309 0.812498 -0.521585 0.577755 0.234320 0.595615 0.048942 -0.362000 -0.484569 0.088781 0.544550 -0.587422 0.255286 -0.053649 -0.046858 0.435002 0.635135 -0.001371 0.117140 0.417462 -0.033199 0.450384 -0.445544 -0.048266 -0.185655 -0.154422 0.259916 -0.173516 0.357646 -0.265422 0.544786 0.077018 -0.189547 0.035782 -0.215841 0.112734 0.506511 -0.091767 0.282029 0.990993 0.290536 0.262467 0.093478 0.067286 -0.192008 0.035222 0.528746 0.143599 -0.669817 -0.360827 -0.396937 -0.313770 0.091196 -0.088946 -0.143029 -0.253539 -0.668292 0.196267 -0.229167 -0.276630 -0.114826 0.590825 -0.177414 -0.038427 0.680453 -0.068954 0.569418 0.202565 0.655887 -0.357425 -0.006395 -0.573632 -0.260694 -0.269504 -0.473889 -0.274751 0.874109 -0.178391 0.119709 -0.568797 -0.015789 -0.030673 -0.415900 -0.268753 -0.248803 0.497227 0.272865 -0.236908 -0.306935 0.348818 0.203069 0.216438 -0.641392 0.314195 -0.250233 
-0.616888 0.603194 -0.309431 -0.463122 0.490986 -0.062782 0.252439 -0.309446 -0.084136 -0.347658 -0.265790 -0.786104 1.197812 -0.182764 0.878271 0.022602 -0.133309 0.114866 -0.198216 -0.023304 0.575277 -0.035717 -0.292035 -0.213697 -0.349183 -0.302773 0.701551 0.125877 0.500749 -0.243810 0.531978 -0.118924 0.448117 -0.060903 0.831846 -0.425516 0.703820 0.343411 0.787576 0.034075 -0.478034 -0.073835 0.399704 0.495483 -0.526140 0.005232 -0.181790 -0.163813 0.506266 0.378213 0.054615 -0.006484 -0.015533 0.204911 0.518665 -0.623299 -0.007598 -0.459550 -0.610480 0.379410 0.039214 0.015483 -0.339953 0.362039 0.318103 -0.100834 -0.137484 0.156507 0.303148 0.218770 -0.094619 0.285117 0.948221 0.457722 -0.172661 -0.089819 -0.196953 -0.460484 0.435447 0.851416 0.193493 -0.427100 -0.325015 -0.286390 -0.300537 -0.082017 0.281396 -0.317166 -0.229123 -0.219597 0.402339 -0.356469 -0.263511 0.076265 0.507101 -0.133341 -0.049353 0.478374 -0.206237 0.744506 0.187706 0.956315 -0.360338 -0.048367 -0.615257 -0.437405 -0.308996 -0.601011 -0.200059 0.886491 -0.187848 0.261927 -0.387924 -0.183221 -0.142171 -0.417608 -0.463153 -0.279370 0.820223 0.209290 -0.388743 -0.147864 0.273021 0.212640 0.279794 -0.657000 0.243835 -0.223811 
-0.303895 0.607335 -0.303693 -0.024479 0.392947 -0.166332 0.135028 -0.258034 0.210624 -0.163081 -0.166310 -0.210910 0.437031 -0.216534 0.580617 -0.042726 -0.302919 -0.101747 -0.066492 -0.249847 0.309623 0.235805 0.072005 -0.305403 -0.326211 -0.122279 0.241003 0.094298 0.590280 -0.258758 0.278789 -0.315319 0.189472 -0.185838 0.594082 -0.373740 0.354611 0.538110 0.559573 0.132458 -0.141058 0.123573 0.370291 0.581594 -0.321748 -0.124662 -0.253648 0.037922 0.474015 0.417914 0.000385 -0.211244 -0.013879 0.257627 0.187994 -0.439062 -0.200016 -0.131998 -0.130895 0.393720 -0.033827 0.086856 -0.150465 0.198998 0.218528 -0.178575 0.040327 0.114393 0.266280 0.123587 -0.129414 0.265126 0.637400 0.039256 -0.201782 -0.060236 -0.122125 0.001641 0.068336 0.594460 0.037345 -0.158951 -0.038392 -0.338362 0.073725 -0.060960 0.236784 -0.291131 0.015665 0.013345 0.270915 -0.102801 -0.106544 0.167110 0.178778 0.037526 0.015745 0.345174 0.138513 0.265529 0.102600 0.712468 -0.299426 -0.067480 -0.423914 -0.054173 -0.001555 -0.310571 -0.241500 0.517925 0.059229 0.102042 -0.417128 -0.434052 -0.038516 -0.324160 -0.208141 -0.221707 0.521731 0.059266 -0.281208 -0.140888 0.327325 0.257903 0.331118 -0.437328 0.296499 -0.295436 
-0.329197 0.649115 -0.173413 -0.417739 0.394780 -0.120266 0.456655 -0.401042 0.370382 -0.469728 0.017890 -0.401971 0.372781 -0.376971 0.486032 0.008269 -0.348041 -0.251305 -0.222103 -0.171162 0.394474 0.239186 -0.351897 -0.267949 -0.532884 -0.130635 0.451580 -0.065730 0.552381 -0.076936 0.324724 -0.262837 0.126337 -0.302470 0.582063 -0.264535 0.581649 0.639999 0.380079 0.218491 -0.197303 0.169733 0.174155 0.694425 -0.379056 0.014596 -0.346568 -0.010070 0.602425 0.220062 -0.278296 -0.036058 0.026677 0.185753 0.205223 -0.299498 -0.258802 -0.415113 -0.412667 0.154108 -0.064922 0.042895 -0.438376 0.316815 0.320193 -0.255432 0.284125 0.069287 0.035738 0.092089 -0.371116 0.382683 0.693051 0.088455 -0.178611 0.083704 0.214977 -0.068676 0.435314 0.411920 0.231886 -0.222882 -0.329817 -0.174589 -0.127218 -0.144712 0.251128 -0.361675 -0.163799 -0.266188 0.023301 -0.438749 0.113237 -0.080455 0.138160 -0.018083 -0.043717 0.457096 0.307174 0.245742 0.417198 0.489804 -0.326463 -0.161983 -0.225510 -0.520435 -0.149820 -0.203152 -0.177453 0.667187 0.188111 0.193040 -0.503872 -0.453564 -0.358262 -0.208703 -0.194973 -0.117026 0.373701 -0.019597 -0.412134 -0.216374 0.645764 0.269127 0.358594 -0.192673 0.228579 -0.256549 
-0.078397 0.538667 -0.431052 -0.456381 0.200056 -0.309636 0.243513 -0.235844 0.283674 -0.416087 -0.066436 -0.348241 0.337766 -0.323821 0.193899 -0.157569 -0.054632 0.080666 -0.042153 -0.308137 0.529708 0.381198 -0.082613 -0.220086 -0.258736 -0.320828 0.236467 -0.141370 0.253994 -0.120665 0.250636 -0.164395 0.120655 -0.315522 0.341199 -0.250703 0.529983 0.361377 0.271011 0.141019 -0.298657 -0.124807 0.297946 0.563836 -0.417957 0.141846 -0.204329 -0.076897 0.345816 0.488312 -0.119968 0.025519 0.030757 0.392154 0.369251 -0.262361 -0.141867 -0.444124 -0.365947 0.238936 0.073273 0.164202 -0.466170 0.376576 0.452503 -0.369334 0.215517 -0.232549 0.106990 0.228545 -0.202786 0.159279 0.417627 0.012406 0.174195 0.249126 0.240196 -0.198023 0.239075 0.195118 0.273809 -0.450132 -0.376789 -0.359171 0.034062 -0.067725 0.311184 -0.211387 -0.182935 -0.171635 0.140340 -0.468214 -0.224277 -0.223837 0.409086 -0.114217 0.062239 0.365759 0.072365 0.247976 0.257534 0.604333 -0.451458 -0.175174 -0.452282 -0.372174 -0.182479 -0.440088 -0.295659 0.372735 -0.096998 0.107588 -0.294699 -0.268977 -0.392491 -0.421383 -0.430426 -0.124528 0.309081 0.228813 -0.265822 -0.160628 0.319903 0.448229 0.304823 -0.218622 0.201102 -0.261054 
-0.047298 0.178526 -0.378217 -0.230464 0.064161 -0.285981 0.366067 -0.198136 0.362930 -0.372180 -0.012838 -0.176373 0.378905 -0.299464 0.287472 -0.134720 -0.263571 0.116224 -0.295238 -0.112175 0.416810 0.316014 -0.062056 -0.110186 -0.189594 -0.089558 0.173531 0.038414 0.333623 -0.133724 0.373147 -0.092999 0.323483 -0.362952 0.414492 -0.191992 0.243471 0.239303 0.270043 0.141224 -0.173813 0.096297 0.238427 0.252652 -0.177617 0.083876 -0.144183 0.139603 0.431843 0.179115 -0.105671 -0.154472 -0.188517 0.149992 0.090608 -0.181103 -0.040531 -0.405086 -0.105553 -0.036431 0.049995 0.064016 -0.391886 0.119747 0.254541 -0.116984 -0.120432 -0.061208 -0.114268 -0.045350 -0.156591 0.116434 0.248832 0.064590 0.170118 0.088136 -0.004318 0.056912 0.380249 0.066394 0.287682 -0.180186 -0.322411 -0.100352 0.021049 -0.036705 0.306186 -0.373621 0.008126 -0.115056 0.097254 -0.211792 -0.214836 -0.049844 0.329024 -0.098476 0.083935 0.437893 0.042014 0.197609 0.369998 0.441516 -0.377768 -0.152684 -0.176932 -0.399089 -0.101263 -0.384179 -0.111590 0.442101 0.111925 0.047316 -0.217722 0.000711 -0.257528 -0.169899 -0.170895 -0.279691 0.402212 0.267350 -0.161676 -0.278498 0.204153 0.360686 0.239234 -0.147723 0.198047 -0.183712 
-0.093578 0.305300 -0.143816 -0.246482 0.077484 0.013079 0.238409 -0.378948 0.290561 -0.124086 -0.294993 -0.372407 0.353468 -0.226199 0.388232 -0.133491 -0.088627 0.188351 -0.063903 -0.226448 0.139306 -0.013580 0.117578 -0.216457 -0.197112 -0.136331 -0.002583 -0.019231 -0.038992 -0.322843 0.023137 0.091740 0.341577 -0.146056 0.194361 0.149535 0.135804 0.314694 -0.016556 -0.184612 -0.313834 -0.230489 0.149170 0.158650 -0.340528 -0.232529 -0.333335 0.168667 0.338443 0.110295 -0.007684 -0.122418 0.127486 0.285604 0.151060 -0.032300 -0.202116 -0.141322 0.027311 0.037471 0.011623 0.012343 -0.380187 0.034527 -0.000364 -0.243228 0.013873 -0.294087 -0.017814 0.137359 -0.120700 0.127539 0.195428 -0.225777 0.028882 0.297354 0.205895 0.168486 0.258867 0.169895 0.211857 -0.342271 -0.249092 0.014026 0.024763 0.151230 0.248313 -0.348008 -0.129630 -0.306628 0.315190 -0.132485 -0.310420 -0.089364 0.096609 -0.080319 0.095131 0.188214 0.131514 0.138009 0.071720 0.396032 -0.149740 0.021388 -0.356264 -0.323693 0.117961 -0.191400 -0.345243 0.149625 -0.246700 0.077788 -0.172031 -0.045380 -0.349364 -0.092547 -0.346544 -0.077165 0.286346 0.321084 -0.078195 0.003174 0.185379 0.188089 -0.013393 -0.354949 0.219229 -0.315766 
0.124365 0.250784 -0.336730 -0.039538 0.275365 0.019751 0.211836 -0.178507 0.278822 -0.322426 -0.094141 -0.164146 0.152074 -0.215978 0.185347 0.060871 0.116380 -0.020573 -0.064681 -0.017539 0.129829 -0.015615 -0.079201 -0.151646 0.008374 0.075591 0.185399 -0.006139 0.158124 -0.122112 0.013867 -0.105603 0.138234 -0.205671 0.193228 -0.044078 0.334382 0.111727 0.180473 -0.163909 -0.106722 -0.230636 -0.037005 0.354466 -0.132341 -0.231128 -0.127303 -0.036218 0.335447 0.308480 -0.001991 0.077891 -0.066847 0.274929 0.147748 -0.229045 -0.195999 -0.340416 0.038228 0.042848 0.013730 0.212231 -0.373399 0.028996 -0.006863 -0.129840 0.011995 -0.289682 -0.216043 -0.063645 -0.311630 -0.077530 0.193229 -0.022895 0.224672 0.078130 0.197526 0.173298 0.050413 -0.029283 -0.003329 -0.136470 -0.241290 -0.192303 0.212868 0.142037 0.235069 -0.144213 0.077202 -0.102074 0.110817 -0.127866 -0.298879 -0.084516 0.089462 -0.175560 -0.112308 0.385802 -0.065916 0.130008 0.066486 0.392791 -0.174032 0.222435 -0.351286 -0.324640 0.117702 -0.189844 -0.141896 0.147726 -0.212190 0.076823 -0.371054 0.162587 -0.137527 -0.288600 -0.138885 -0.075861 0.282484 0.293340 -0.068976 0.007631 0.183528 0.178631 -0.009893 -0.152917 0.020057 -0.253360 
0.100000 0.100000 -0.100000 0.100000 -0.100000 -0.051583 0.072191 0.100000 0.100000 -0.100000 -0.100000 -0.100000 -0.100000 -0.100000 -0.100000 0.100000 0.100000 0.100000 -0.100000 -0.100000 0.100000 0.100000 -0.100000 -0.100000 0.100000 -0.100000 0.100000 -0.100000 0.100000 0.100000 -0.100000 -0.100000 -0.100000 0.100000 -0.100000 0.100000 0.100000 -0.100000 0.100000 -0.100000 0.100000 -0.100000 0.100000 0.100000 -0.100000 0.100000 -0.077053 -0.100000 -0.091846 0.100000 0.100000 0.100000 0.100000 -0.100000 0.100000 -0.100000 -0.100000 -0.100000 -0.100000 0.100000 0.100000 0.100000 0.100000 0.100000 0.100000 -0.100000 -0.100000 0.100000 0.100000 0.100000 0.100000 0.100000 -0.100000 0.100000 -0.100000 -0.100000 0.100000 -0.100000 0.100000 0.100000 -0.100000 0.100000 -0.100000 -0.100000 0.034578 -0.100000 0.092090 -0.043262 0.100000 0.100000 0.100000 0.100000 0.100000 0.100000 0.100000 0.100000 -0.100000 0.100000 -0.100000 -0.084695 -0.100000 0.100000 0.100000 -0.100000 0.100000 0.100000 0.100000 -0.100000 0.100000 0.100000 0.100000 -0.100000 -0.100000 0.100000 -0.100000 -0.100000 0.100000 0.100000 -0.100000 -0.100000 0.100000 0.100000 0.100000 0.100000 0.100000 0.100000 -0.100000 -0.100000 
-0.100000 -0.100000 -0.100000 0.100000 0.100000 0.100000 0.100000 0.100000 -0.100000 -0.100000 0.100000 -0.100000 0.100000 0.100000 0.100000 0.100000 -0.100000 -0.100000 -0.100000 0.100000 -0.100000 0.100000 -0.100000 -0.100000 -0.100000 0.100000 -0.100000 -0.100000 0.100000 -0.100000 0.100000 -0.100000 0.100000 0.100000 0.100000 0.100000 0.100000 0.100000 -0.100000 0.100000 0.100000 0.100000 0.100000 -0.100000 -0.024758 0.100000 0.100000 0.100000 0.100000 0.100000 0.074140 0.100000 -0.100000 0.100000 -0.100000 0.100000 0.100000 -0.100000 -0.096749 0.100000 0.100000 -0.100000 0.100000 -0.100000 -0.100000 0.100000 0.100000 0.100000 0.100000 -0.100000 -0.100000 -0.100000 -0.100000 0.100000 0.100000 0.001843 0.100000 0.100000 -0.100000 0.100000 0.100000 -0.100000 -0.100000 0.100000 -0.100000 -0.100000 -0.100000 -0.100000 -0.100000 -0.100000 0.100000 0.100000 0.100000 0.100000 0.100000 0.100000 -0.100000 -0.100000 0.100000 -0.100000 -0.100000 0.100000 -0.100000 0.100000 -0.010693 0.100000 -0.100000 -0.100000 0.100000 0.100000 -0.050929 -0.100000 -0.100000 -0.100000 0.100000 -0.100000 0.100000 0.100000 0.100000 -0.100000 0.100000 0.100000 0.100000 -0.100000 -0.100000 0.100000 -0.100000 0.100000 
-0.100000 0.100000 -0.100000 0.100000 -0.100000 -0.031957 -0.100000 -0.100000 0.100000 0.100000 0.100000 -0.100000 -0.100000 0.100000 0.100000 0.100000 -0.100000 0.069216 0.100000 0.100000 -0.100000 -0.100000 0.019287 0.100000 -0.100000 0.100000 -0.100000 -0.100000 -0.100000 -0.100000 0.100000 0.007500 -0.100000 0.100000 -0.100000 -0.100000 0.100000 0.100000 -0.100000 0.100000 -0.100000 0.100000 -0.100000 0.100000 -0.094513 -0.100000 -0.100000 -0.100000 0.100000 -0.100000 -0.100000 -0.100000 -0.100000 -0.100000 0.100000 -0.100000 -0.100000 -0.100000 0.100000 -0.100000 0.100000 -0.100000 -0.100000 0.100000 0.100000 -0.100000 0.100000 -0.100000 0.100000 0.100000 -0.100000 0.100000 -0.100000 0.100000 0.100000 0.100000 -0.100000 -0.100000 0.100000 0.100000 -0.100000 -0.004707 -0.100000 0.084179 0.100000 0.100000 -0.100000 -0.100000 0.100000 0.070124 0.100000 -0.100000 0.100000 0.100000 0.100000 0.100000 -0.100000 0.100000 0.100000 0.100000 0.100000 0.086380 0.100000 0.100000 0.100000 0.100000 -0.100000 -0.100000 -0.100000 -0.100000 -0.100000 -0.100000 0.100000 0.100000 0.100000 0.100000 0.100000 -0.100000 0.100000 -0.100000 0.100000 -0.100000 -0.100000 -0.100000 -0.100000 -0.100000 -0.100000 -0.100000 
-0.100000 0.100000 0.100000 0.100000 -0.100000 0.100000 0.100000 0.100000 0.100000 0.100000 -0.043820 -0.100000 -0.100000 -0.100000 0.100000 -0.100000 0.100000 0.062583 0.030155 0.100000 -0.100000 0.100000 -0.100000 0.030384 -0.100000 -0.100000 0.100000 -0.100000 0.100000 -0.100000 -0.100000 0.100000 -0.100000 0.026066 -0.100000 -0.044771 0.100000 0.100000 -0.100000 -0.100000 0.100000 0.100000 -0.100000 0.100000 0.100000 0.100000 -0.100000 0.100000 0.100000 0.100000 -0.100000 -0.100000 0.100000 -0.100000 -0.100000 0.100000 0.099736 -0.100000 0.079353 -0.100000 0.100000 -0.100000 0.100000 0.100000 0.100000 -0.100000 -0.100000 -0.100000 -0.100000 0.100000 -0.100000 0.100000 -0.100000 -0.100000 0.100000 0.025036 -0.100000 -0.052839 0.100000 -0.100000 0.100000 0.100000 -0.100000 0.100000 -0.100000 -0.100000 0.100000 -0.100000 -0.100000 -0.100000 -0.100000 0.100000 0.100000 -0.007296 0.100000 0.100000 -0.070620 -0.100000 0.100000 0.037647 0.100000 0.100000 0.100000 0.100000 -0.100000 0.100000 0.100000 -0.100000 0.054108 -0.100000 -0.100000 0.090273 0.100000 -0.100000 -0.100000 -0.100000 0.100000 0.100000 0.100000 -0.100000 0.100000 -0.054144 -0.100000 -0.100000 -0.100000 -0.100000 0.100000 -0.100000 
0.100000 0.083527 -0.100000 -0.100000 -0.100000 -0.100000 -0.100000 0.100000 -0.100000 -0.100000 -0.100000 -0.100000 -0.011815 0.100000 -0.100000 -0.100000 0.100000 -0.100000 -0.100000 -0.030300 0.100000 0.100000 -0.100000 -0.100000 0.100000 -0.100000 0.100000 0.100000 0.100000 0.100000 0.097773 -0.100000 0.100000 -0.100000 0.100000 -0.100000 0.100000 -0.100000 0.020303 -0.100000 0.091241 -0.100000 -0.100000 0.000758 0.080206 0.100000 -0.100000 0.100000 -0.100000 -0.100000 0.073593 0.100000 -0.100000 0.100000 -0.100000 0.100000 0.079833 -0.100000 -0.100000 0.100000 0.100000 -0.100000 -0.100000 -0.100000 0.100000 0.100000 0.100000 0.100000 0.100000 0.100000 0.100000 -0.100000 -0.100000 -0.100000 -0.100000 -0.081002 -0.100000 -0.100000 -0.100000 -0.100000 -0.100000 -0.100000 0.100000 -0.100000 0.100000 0.100000 -0.100000 -0.100000 -0.100000 -0.100000 -0.012333 0.100000 0.100000 -0.100000 0.100000 -0.100000 0.100000 -0.100000 0.100000 -0.100000 0.100000 -0.100000 0.100000 0.100000 -0.100000 0.100000 -0.100000 0.100000 -0.100000 -0.100000 0.063074 0.100000 -0.100000 -0.100000 0.100000 -0.100000 0.100000 0.100000 -0.100000 0.100000 -0.100000 -0.100000 -0.100000 -0.100000 -0.100000 0.100000 0.100000 0.100000 
-0.100000 -0.068990 0.100000 0.100000 -0.100000 -0.081022 -0.100000 0.100000 0.100000 -0.100000 0.100000 0.100000 -0.100000 0.100000 0.064341 0.100000 0.055104 0.100000 -0.100000 0.100000 -0.100000 0.100000 -0.100000 -0.100000 0.100000 -0.100000 -0.100000 0.100000 0.100000 -0.100000 -0.100000 -0.100000 -0.100000 -0.100000 -0.100000 -0.100000 -0.100000 -0.100000 -0.100000 0.100000 0.100000 -0.100000 0.100000 -0.100000 -0.100000 -0.100000 -0.100000 -0.100000 -0.100000 -0.100000 0.100000 -0.100000 0.100000 0.100000 0.100000 -0.100000 -0.100000 -0.100000 0.100000 0.100000 0.100000 0.100000 -0.100000 -0.100000 0.100000 -0.100000 -0.100000 -0.100000 0.100000 -0.100000 -0.100000 0.022965 -0.100000 -0.100000 -0.100000 0.100000 0.008262 -0.100000 -0.100000 0.100000 0.100000 -0.100000 -0.100000 0.100000 -0.100000 -0.100000 0.100000 -0.100000 0.100000 0.100000 -0.100000 -0.100000 0.100000 0.100000 -0.100000 -0.032140 -0.100000 0.020675 -0.100000 -0.100000 0.085313 -0.100000 0.021804 0.100000 0.100000 0.100000 -0.100000 -0.100000 0.100000 -0.100000 -0.100000 -0.034067 -0.100000 0.032855 -0.100000 -0.053031 0.100000 0.100000 -0.100000 -0.100000 -0.100000 0.100000 -0.100000 -0.100000 0.100000 -0.100000 0.100000 0.100000 
-0.102893 0.104815 0.100371 -0.100497 0.118927 0.099777 0.106104 0.099882 0.100432 0.099702 -0.101090 0.099248 0.120574 -0.098974 -0.083538 -0.102147 -0.099738 0.099577 0.100261 0.100051 0.119882 0.111236 -0.054830 -0.102562 -0.105512 -0.100005 0.114776 -0.099052 0.118328 -0.099582 -0.096469 0.101971 0.096836 0.101825 -0.094330 -0.114020 -0.094021 0.118803 -0.082432 0.100286 0.099096 0.023613 0.115399 -0.082842 0.100675 0.102411 -0.100433 -0.104388 0.110220 -0.088483 -0.099520 -0.100422 -0.089511 -0.100859 -0.092230 0.099460 0.099812 0.100032 0.099679 -0.099106 -0.099590 0.108254 0.099635 0.102168 -0.096117 -0.099481 -0.099264 0.103081 0.101213 -0.100918 -0.085146 0.104046 -0.082465 -0.106128 0.099360 -0.100209 0.112658 0.095940 -0.099316 -0.087559 -0.100150 -0.100863 0.097489 -0.098803 0.099453 0.099705 0.097815 -0.099897 0.100692 0.099577 -0.105229 0.099712 -0.100285 0.102796 -0.099564 -0.074065 -0.099799 -0.093533 0.101172 -0.099004 -0.086058 -0.079250 -0.100470 -0.100738 0.095631 -0.099732 -0.110072 0.099098 0.102346 0.119245 0.094257 0.103972 0.098569 -0.112853 0.100280 -0.100592 0.100094 -0.101336 -0.099294 -0.111589 0.096429 0.087419 -0.085019 -0.100148 -0.097426 0.099651 -0.101604 0.099463 
-0.061556 -0.112629 -0.216101 -0.031837 0.181733 0.196826 0.092831 -0.033912 0.213758 -0.219972 -0.135530 -0.033180 0.212889 -0.028022 -0.220015 0.018341 -0.199878 0.036578 -0.040039 0.033578 0.208666 0.093275 -0.000189 0.219979 -0.020411 0.060256 0.211452 -0.023763 -0.080924 -0.234331 0.001418 0.146017 0.039749 -0.181622 -0.002233 0.039531 0.107019 -0.070103 -0.038125 0.204005 -0.116074 -0.012699 -0.239936 0.153965 -0.237925 -0.121899 -0.011446 0.086069 0.239910 0.234536 0.219341 0.148731 0.001669 0.230941 0.039819 -0.142758 0.018823 -0.235533 -0.206641 -0.225676 -0.020083 -0.215062 -0.237298 0.239957 -0.102972 0.083332 -0.003018 -0.239150 -0.082215 0.039860 -0.035761 0.218855 0.039929 0.020109 0.034907 0.231240 0.012247 0.115166 0.039956 -0.020232 0.167209 -0.107298 0.200161 -0.043782 0.136522 0.239932 0.035152 -0.038423 0.000066 -0.019673 0.199910 -0.004618 -0.089603 -0.060044 0.039979 0.110239 0.234368 -0.166264 0.000731 0.239918 0.037957 -0.219908 -0.125051 0.098780 -0.031264 -0.075980 -0.104250 -0.153835 -0.238185 0.012457 -0.030977 -0.018253 -0.238678 -0.000679 -0.022787 -0.236310 -0.032543 0.014795 0.039932 0.238935 -0.026080 0.120457 0.163498 -0.036725 -0.007876 -0.020074 0.034661 -0.229489 
0.123012 0.238657 -0.110575 -0.309815 0.127436 0.232368 0.295666 -0.308846 0.278431 -0.249570 0.065289 -0.127010 0.307793 -0.111788 0.065660 0.263405 -0.194190 0.046924 0.085297 -0.000539 0.371081 -0.060804 -0.281132 0.268943 -0.357126 -0.026217 0.123426 -0.301485 0.123781 -0.106148 0.112376 -0.068035 0.351725 -0.112769 0.354822 0.116322 0.395021 0.287154 -0.003571 0.042728 -0.015970 0.016504 -0.210554 0.306928 -0.138266 -0.189162 -0.030154 0.091120 0.177366 0.129883 0.180508 0.030267 -0.248341 0.314578 0.067904 -0.315499 0.041886 -0.113240 -0.033635 -0.161521 -0.331744 0.073630 -0.331142 0.261649 0.179595 0.035912 0.089873 -0.329982 0.041423 0.130402 -0.145925 0.063076 0.278747 -0.239457 0.265125 0.296236 0.064847 0.063016 0.354954 0.022640 0.093616 -0.202657 0.016057 0.145653 -0.059066 0.310141 0.101519 -0.306939 -0.268313 -0.307611 0.092905 -0.083228 -0.070408 -0.106180 0.329862 0.100052 0.070955 0.188673 -0.147875 0.348420 0.173587 -0.042354 0.039932 0.052481 -0.120037 -0.365425 -0.014911 0.012269 -0.273555 0.173317 -0.089578 -0.009271 -0.172875 0.210748 -0.335741 -0.338017 -0.079702 0.267369 0.322544 0.283476 -0.110955 -0.197978 0.084450 0.054684 -0.280021 -0.345428 0.127601 -0.155226 
-0.133216 -0.070152 0.089188 -0.028541 0.040430 0.054631 -0.086919 0.106804 0.033905 0.077393 -0.009901 -0.194781 0.098056 0.131679 0.274426 -0.124921 0.114868 -0.117753 0.130815 0.125461 -0.049803 0.149824 0.016899 0.091747 0.108055 -0.189038 0.148518 0.101514 0.018644 0.076380 0.177298 -0.069219 0.117376 0.059450 0.010338 -0.187233 0.007808 0.136569 0.017274 -0.167408 -0.220301 -0.183806 -0.024587 0.148901 0.118731 -0.076776 0.028957 0.021739 -0.041450 -0.055085 0.130934 0.030084 0.010915 -0.088340 -0.052491 -0.075060 -0.103753 0.116569 0.107388 0.157630 0.072228 0.087593 0.062887 0.196938 0.096799 0.086910 0.162795 0.157657 -0.026562 0.178249 -0.079176 0.159094 0.277632 -0.093053 -0.189814 -0.183200 0.027794 -0.170763 -0.042849 0.056533 0.084039 -0.099751 0.147063 -0.176010 -0.166043 -0.078894 -0.081916 -0.093578 0.088838 -0.174221 -0.075623 -0.018378 -0.201760 0.123340 -0.061989 0.113822 -0.113638 0.164293 -0.047941 0.134693 0.205024 0.239880 0.007123 -0.217033 -0.199230 0.103934 -0.235713 0.012992 -0.065160 0.197726 -0.174248 -0.030756 -0.131686 -0.107590 0.128740 0.018573 -0.083633 0.063512 -0.001680 0.095559 -0.201596 -0.057840 -0.032868 0.026888 0.214605 -0.081890 0.109665 -0.170853 
0.066705 0.122463 0.020647 -0.243613 0.382281 -0.154510 0.162021 0.025291 0.005390 -0.041341 -0.334859 -0.139940 0.322615 -0.056920 0.430632 0.062042 -0.112939 0.035643 -0.070997 -0.158277 0.046480 0.174059 0.063053 0.095244 -0.006520 -0.102997 0.235978 -0.079501 0.109045 -0.229210 0.041022 0.182829 0.027461 -0.253068 0.451787 -0.297725 -0.061279 0.113355 0.115101 -0.298250 -0.079930 -0.244961 0.021465 0.363101 -0.021910 -0.066070 -0.331536 -0.013369 0.121751 0.313074 0.059218 -0.127794 0.102471 0.217294 0.027767 0.074587 -0.193434 -0.125641 -0.076509 -0.041755 0.112700 0.248920 -0.270335 0.293036 -0.133834 -0.156345 0.010691 0.045467 0.029497 0.229605 -0.162793 0.006160 0.548911 -0.023715 -0.219920 -0.183428 -0.174284 0.031635 -0.018157 0.183534 -0.038930 -0.401812 -0.051431 -0.059972 -0.139727 -0.269001 0.099834 -0.101051 0.048201 -0.079953 0.195558 -0.389363 -0.327898 0.059215 0.053043 0.090353 -0.032462 0.254521 0.193009 0.183505 0.174582 0.594768 -0.363096 -0.016068 -0.351671 -0.130352 -0.060897 -0.224275 0.194311 0.194124 -0.114823 0.269471 -0.267906 -0.059177 -0.181930 -0.208457 0.061068 -0.085045 0.294745 -0.038622 -0.288362 0.037885 0.021031 0.068143 0.381745 0.023693 -0.101978 -0.240572 
-0.184034 0.541954 -0.314972 -0.145715 0.304876 -0.157033 0.228034 -0.046937 0.009180 -0.211599 -0.457701 -0.512157 0.702973 0.056935 0.503747 0.045197 -0.186582 -0.128646 -0.166738 -0.168029 0.381285 0.160475 0.248904 0.013313 -0.189528 0.081434 0.258400 0.080200 0.219441 -0.349253 0.004345 0.144238 0.336875 -0.295225 0.711376 -0.339457 -0.017064 0.542916 0.078057 -0.288005 -0.375949 -0.137978 -0.005915 0.391653 -0.151813 -0.161384 -0.269978 -0.052368 0.559193 0.251942 -0.081491 -0.129744 0.302722 0.189957 0.103650 -0.246523 -0.226903 -0.069757 0.026407 0.005030 -0.158295 0.132667 -0.440714 0.393076 -0.119355 -0.064786 0.185054 0.004608 0.032318 0.329597 -0.120410 0.083329 0.601996 0.044955 -0.249188 0.062655 -0.108859 -0.191222 0.045920 0.395306 0.047138 -0.555658 0.089230 -0.363271 -0.152904 -0.025317 -0.008762 -0.176315 0.008244 -0.198691 0.157842 -0.353310 -0.392059 -0.145522 0.042992 0.051744 0.033089 0.404355 0.188871 0.119356 0.043102 0.616102 -0.473303 -0.025362 -0.509581 -0.247879 -0.306576 -0.141457 0.103465 0.352063 -0.228191 0.360380 -0.419213 -0.100283 -0.295380 -0.291241 -0.211404 -0.157449 0.217295 0.085249 -0.387272 -0.241669 0.246544 0.303698 0.198197 -0.318077 0.236606 -0.364439 
-0.182136 0.727008 -0.642891 -0.325827 0.800490 -0.067588 0.570154 -0.205440 -0.221414 -0.441425 -0.702286 -0.642708 0.927586 -0.106052 0.764424 0.054893 -0.221496 0.092614 -0.014584 -0.449938 0.568189 0.023948 0.349436 0.074544 -0.416277 -0.009619 0.454022 -0.097209 0.458208 -0.420437 0.304212 0.280080 0.405625 -0.562478 1.266076 -0.224176 0.297893 0.808785 0.095347 -0.293014 -0.559245 -0.438028 -0.016705 0.965752 -0.409222 0.044444 -0.688647 0.179556 0.914767 0.784378 0.034747 -0.024739 0.230967 0.483326 0.139620 -0.184001 -0.172173 -0.530094 -0.556726 0.030460 -0.527034 0.733447 -0.788558 0.537911 -0.114269 -0.640981 0.190877 0.006041 0.556336 0.567958 -0.289022 0.135609 1.289058 0.009232 -0.063393 0.095283 0.224253 -0.178869 0.053423 0.492288 -0.282975 -0.845473 0.110589 -0.300533 0.008186 -0.334306 -0.083717 -0.222118 -0.066708 -0.623595 0.862986 -0.749715 -0.454355 -0.257567 0.090427 -0.134183 -0.286531 0.389129 -0.073235 0.391857 0.130407 0.955969 -0.616005 -0.231514 -0.631511 -0.553308 -0.241296 -0.455198 -0.020853 0.936793 -0.648414 0.124548 -0.927146 0.045674 -0.313351 -0.476599 -0.150707 0.128556 0.388168 0.011253 -0.394145 -0.195166 0.133646 0.230095 0.179092 -0.388565 0.265399 -0.548690 
-0.217991 0.991797 -0.727864 -0.399286 1.196505 -0.146966 0.597022 -0.404197 -0.109859 -0.411861 -0.480198 -0.665490 1.007265 -0.442498 1.030465 0.031380 -0.079639 -0.078030 -0.512246 -0.666179 1.096061 0.327797 0.520472 0.028346 -0.144422 0.054554 0.711135 0.074088 0.984940 -0.572280 0.277423 0.171427 0.351170 -0.435799 1.656315 -0.173079 0.733985 1.036088 0.644189 -0.504017 -0.423502 -0.421255 0.184720 1.213618 -0.718693 -0.059224 -0.649841 0.047678 1.343715 1.040762 0.054564 -0.018401 0.683292 0.855045 0.405677 -0.406731 -0.692246 -0.384763 -0.392717 0.351015 -0.441695 0.978518 -0.699141 0.882625 0.014872 -0.861207 0.132824 -0.184928 0.768302 0.654172 -0.533422 0.198954 1.383093 -0.149367 -0.084098 -0.216096 0.251441 -0.135818 -0.013145 0.711400 -0.176073 -0.789264 -0.262515 -0.674263 0.157599 -0.359744 -0.075351 -0.688975 0.164463 -0.619643 1.139112 -0.967186 -0.660641 -0.043705 0.198933 -0.046390 -0.146120 0.863759 0.190176 0.650499 0.213953 1.536632 -0.595760 -0.512570 -0.644353 -0.801200 -0.482076 -0.776748 -0.286870 1.193570 -0.477045 0.750238 -1.196231 -0.193923 -0.646054 -0.348390 -0.528317 -0.011327 0.569462 0.206824 -0.793665 -0.118130 0.293972 0.819288 0.835305 -0.590945 0.298230 -0.613826 
0.158526 1.636297 -0.463998 -0.336867 1.947135 -0.222185 0.539640 -0.684966 -0.140135 -0.257584 -0.627175 -0.788157 1.708388 -0.335222 1.839855 0.164290 0.123918 -0.176987 -0.169253 -0.475511 1.091574 0.158323 0.789721 -0.179005 -0.088808 0.133711 0.813008 0.287823 1.168628 -0.540394 0.303468 0.246061 0.372980 -0.392072 2.191416 -0.710135 0.566772 1.463210 0.767984 -0.660360 -0.582008 -0.471581 0.452738 1.638741 -0.434335 0.278151 -1.140028 0.055741 1.344065 1.636554 -0.090055 -0.277033 1.233947 0.690260 0.266057 -0.017842 -0.950804 -0.211920 -0.264481 0.843065 -0.451055 1.278608 -0.985652 1.067921 0.166505 -1.304586 0.281888 -0.183008 0.462654 0.636886 -0.376938 0.255814 1.988807 -0.039309 -0.283047 -0.175977 0.684125 -0.016204 -0.039703 0.665154 -0.522092 -1.251250 -0.167922 -0.556674 0.050858 -0.583392 -0.110687 -0.453917 0.219870 -0.765103 1.237761 -1.376607 -1.309987 -0.199979 0.115706 -0.127406 -0.293174 0.911487 0.380417 0.470154 -0.233344 2.161515 -0.980801 -0.299624 -0.951099 -0.516226 -0.530892 -0.871548 0.014274 1.162439 -1.102132 0.965970 -1.237794 -0.065046 -0.525048 -0.510612 -0.442870 -0.400714 0.282663 0.111682 -0.749329 -0.726768 0.598144 0.767536 1.268142 -0.796554 0.482563 -0.401114 
0.064422 2.421274 -0.775370 -0.451895 2.650894 -0.264197 0.699415 -0.920192 -0.164293 -0.182208 -1.132689 -1.238861 2.148061 -0.273213 2.718859 0.088513 -0.265288 -0.143024 -0.586646 -0.659766 1.935507 0.506047 0.858814 0.013902 -0.163630 0.244736 1.087641 0.457580 1.821932 -0.599153 0.777176 0.197281 0.613964 -0.409003 2.805150 -0.965042 0.887637 1.768791 0.936526 -0.959631 -0.978508 -0.573219 0.734272 1.974290 -0.581966 0.073259 -1.174592 -0.151366 1.914778 2.222039 -0.132553 -0.553077 1.479692 0.586038 -0.366750 -0.072903 -1.199868 -0.292460 -0.323164 0.908735 -0.651543 1.502721 -1.112304 1.035904 0.341462 -1.553316 0.580231 0.025675 1.089330 0.737045 -0.345034 0.120153 2.281844 -0.393249 -0.105916 -0.499763 0.470404 0.096141 -0.265418 1.516605 -0.718417 -1.451384 -0.539355 -0.736483 0.019179 -1.028145 -0.401886 -0.533783 0.568943 -1.206103 1.709919 -1.679934 -1.740524 0.148178 0.196336 -0.122483 -0.036094 1.666072 0.737133 0.959882 -0.088237 3.116892 -1.261201 -0.347489 -1.356526 -0.348603 -1.261227 -1.288882 0.385984 1.937775 -1.481688 0.864802 -1.896210 0.150512 -0.604189 -0.696454 -0.979819 -0.426054 0.626001 -0.035832 -1.464268 -0.904601 0.954633 1.068442 1.731851 -0.818241 0.665411 -0.424390 
-0.247023 2.430714 -0.210540 -0.036002 2.837264 0.012089 0.794049 -0.539015 -0.779283 0.344988 -1.214765 -1.226653 2.249099 -0.166721 2.792082 0.360506 0.204219 -0.245529 -0.075629 -0.110649 1.540297 0.314491 1.214655 0.029813 0.252954 0.096675 0.976755 0.736169 1.950842 -0.822863 1.019225 0.660184 0.373965 -0.292618 2.323628 -0.818382 0.333727 1.511510 1.286681 -1.370635 -1.199129 -0.931150 1.066726 1.707496 0.075734 0.062822 -1.293660 -0.437978 1.463507 2.508422 0.386730 -0.507248 2.396569 -0.035446 -0.136632 0.160344 -1.211600 0.296756 -0.502219 1.147885 -0.652188 2.097251 -0.851618 1.370263 0.124944 -1.447668 0.811108 0.564994 1.505035 1.247596 0.357862 -0.006056 2.337719 -0.157084 -0.772060 -0.685917 0.207788 -0.043189 -0.311964 1.687687 -0.924216 -1.432883 -0.322195 -0.809786 -0.476702 -1.739771 -0.420760 0.273383 0.318515 -1.063630 1.706308 -1.314245 -2.210610 1.195105 0.373666 0.409479 -0.161265 1.324480 0.661955 0.643028 -0.093580 2.887784 -1.156204 -0.459848 -1.727862 0.254103 -1.296311 -1.161423 0.105242 1.550238 -1.682596 0.712272 -1.210648 -0.213328 0.110024 -0.431009 -0.365088 -0.159530 0.714279 -0.713561 -1.375525 -0.547242 0.874732 0.827029 1.465485 -0.060196 0.478565 0.289307 
-1.223979 2.787074 -0.065204 -0.332011 3.128481 -0.232312 1.061127 -0.564767 -0.785884 0.322957 -1.483255 -1.680612 2.811893 -0.365843 3.354394 0.154919 -0.126270 -0.646184 0.029506 -0.559421 2.246355 0.277314 1.105127 -0.078750 -0.047614 -0.384357 1.484650 0.874596 2.750862 -0.977340 1.390259 0.706329 0.164092 -0.512959 2.687859 -1.354240 0.667564 1.845619 1.778964 -1.243290 -1.722965 -0.836651 1.929164 1.880556 0.234848 -0.028095 -1.177489 -0.812656 1.847859 2.670187 0.264692 -0.691861 2.447871 0.206292 0.167085 -0.139639 -1.525866 -0.066780 -0.987255 2.151984 -0.315258 2.187142 -0.966533 1.837911 0.083934 -1.176890 0.514266 0.636101 1.521284 1.183077 0.280009 0.819399 2.884121 0.298449 -0.992189 -0.913856 -0.365157 -0.613164 0.032927 2.480756 -0.593721 -1.627822 -0.480552 -0.997584 -0.949094 -1.882086 -0.372488 0.151675 0.072723 -0.952339 1.658732 -1.443707 -1.917964 1.555224 0.340653 0.530894 -0.261177 1.461617 1.370547 1.010462 0.445425 3.426372 -1.445300 -0.724126 -1.756600 0.046969 -1.573262 -0.936092 0.262668 2.292703 -1.519256 0.835527 -1.577779 -0.694482 0.497242 -1.069247 -0.160335 -0.396954 1.591913 -0.655975 -1.652893 -0.369272 1.292564 0.440452 1.202937 -0.264573 0.614790 0.229344 
-0.780387 2.769300 0.096117 0.180679 3.064224 -0.134123 0.620759 -0.207880 -0.929823 0.251040 -1.520272 -1.814366 2.712673 0.478424 3.538844 0.100868 0.142869 -0.696509 -0.050559 -0.269273 2.005912 0.283578 1.072963 -0.068169 -0.069084 0.181963 1.357253 0.745252 2.171896 -0.524438 1.390670 0.484698 -0.574897 -0.273581 2.531118 -1.304697 0.287580 1.075990 1.842203 -0.968449 -1.194767 -0.862836 1.313533 1.261724 0.305152 0.326065 -0.808918 -0.703821 1.200085 2.200679 0.101627 -0.536052 2.713557 -0.634859 -0.033565 -0.132070 -1.316445 0.689371 -0.415356 1.904952 -0.354605 1.846777 -0.658453 1.546998 0.223935 -0.811911 0.666295 0.411029 1.091979 1.123357 0.382944 0.149316 2.154680 0.189150 -0.834110 -1.102289 0.262781 -0.574852 -0.065229 2.113291 -0.832758 -1.299871 -0.362453 -0.727050 -0.869502 -1.328141 -0.558987 0.611534 -0.019445 -1.206218 1.204467 -1.201038 -1.560456 0.996392 0.725932 0.312739 0.161459 1.663143 0.948276 1.067350 0.293365 3.083586 -1.169579 -0.082055 -1.753401 0.928221 -1.270876 -0.979896 0.045712 1.864423 -1.611128 0.759563 -1.250109 -0.162112 0.009207 -0.570502 0.054030 -0.449927 1.317610 -0.900625 -1.238625 -1.219509 1.301321 -0.170475 1.028209 -0.742140 0.664887 0.637248 
-0.896185 3.042271 -0.342276 0.611684 2.988050 -0.022791 0.520742 -0.290737 -0.715331 0.285944 -1.151708 -1.912267 3.085837 0.446990 3.642289 -0.033563 0.118834 -0.840465 0.108033 -0.067370 1.943288 0.374982 1.113351 0.349289 0.008784 0.184648 0.941645 0.740001 2.791926 -0.309577 1.813827 0.759112 -0.640121 -0.356595 2.587237 -1.690642 0.107684 1.080936 2.517330 -0.967020 -1.171411 -0.632679 1.810965 1.395406 0.806174 0.557044 -1.001115 -0.636535 1.128220 2.423053 0.376000 -0.722755 2.814952 -0.632906 0.051676 -0.106104 -1.037137 0.372314 -0.344990 2.369420 0.153393 1.733530 -0.603015 1.477711 0.935337 -0.836959 1.015819 0.499619 1.182152 1.093524 0.420789 0.031334 2.244892 0.532294 -0.936483 -1.215910 0.661264 -0.679817 -0.252242 2.614241 -0.640313 -1.510475 -0.165801 -0.653133 -0.583975 -1.140354 -0.461561 0.317115 -0.309997 -1.522051 0.772889 -1.142789 -1.371294 0.831428 0.907610 0.124586 -0.023389 2.055800 0.443183 0.606787 0.807814 3.447950 -1.282545 -0.692623 -2.011059 0.870765 -1.244074 -0.822625 -0.224996 2.069303 -1.505401 0.695539 -1.261387 -0.650412 0.335964 -0.770659 -0.127169 -0.315962 1.083635 -1.164785 -1.243688 -1.400444 1.897404 -0.225474 1.068628 -0.545698 0.499674 0.603438 
-1.022530 2.838105 -0.865942 0.624888 3.058321 0.246365 0.692257 -0.603956 -0.433601 0.041614 -1.261777 -2.030769 3.559761 0.388344 3.672065 0.210099 0.300710 -0.757398 0.292789 -0.034316 1.824394 0.396386 1.427643 0.470859 0.236016 0.576919 0.679027 0.739983 2.412217 -0.477607 1.769975 0.980595 -0.475931 -0.320545 2.610105 -1.406434 0.310908 0.843482 2.382223 -1.100477 -1.464495 -0.982858 1.267252 1.501414 0.145908 0.375925 -0.675302 -0.090219 1.074676 2.729824 0.399306 -0.194195 2.279832 -0.582417 0.469070 -0.158382 -0.617168 -0.061599 -0.615209 1.750619 -0.284948 1.817958 -0.615395 1.580339 0.908533 -0.861958 1.238761 0.296593 0.705935 1.590577 -0.111459 -0.108435 2.533162 0.101906 -0.694210 -0.959604 1.055660 -0.813975 -0.118453 2.465604 -0.374410 -1.376667 -0.183555 -0.541866 -0.672105 -0.993543 -0.187004 0.353588 -0.363163 -1.472801 0.997191 -1.257425 -1.672770 0.569281 1.004788 0.195638 0.449310 1.851873 -0.857117 1.058791 0.830732 3.242662 -1.274916 -0.113671 -1.941808 1.111469 -1.201719 -0.860717 -0.613900 2.598878 -1.690899 0.204887 -1.481470 -0.281337 0.054921 -1.126728 -0.223959 -0.095283 1.450773 -1.261718 -1.237530 -1.342375 1.771380 -0.170578 0.032608 -0.773802 1.020096 0.509955 
-0.711418 2.858979 -0.973779 0.497059 2.604655 -0.005962 0.805347 -0.514610 -0.059907 -0.097521 -1.120600 -1.996538 3.301347 -0.133622 3.035759 0.032025 -0.052850 -0.421915 -0.053494 -0.293244 2.199990 0.556815 0.711154 -0.105040 -0.270247 0.223739 0.636496 0.648034 2.501730 -0.588483 1.595462 0.559920 -0.053867 -0.149818 2.362773 -1.709918 1.085225 1.347289 2.375061 -0.640823 -1.206301 -0.607088 0.967839 1.743702 -0.206746 0.531081 -0.806302 0.099189 1.500422 2.027315 0.109344 -0.273599 1.846651 -0.315134 0.852195 -0.626484 -0.640065 -0.307160 -0.992097 1.463293 0.103743 1.119759 -0.749785 1.706412 1.487988 -0.705921 1.055309 0.389392 0.667500 1.424769 -0.130331 0.072295 2.635558 0.682216 -1.096128 -0.796278 0.717167 -1.045588 -0.046629 2.230434 -0.379848 -1.204784 -0.290026 -0.736651 -0.757736 -0.885376 -0.120448 -0.257091 0.073240 -0.973949 0.871965 -1.122044 -1.087762 0.599327 0.797716 -0.112378 0.373280 2.142261 -0.672370 1.063702 1.300945 3.115591 -1.387449 -0.216803 -1.722519 0.200951 -1.236382 -1.044986 -0.414001 2.570258 -1.054578 0.338973 -1.255006 -0.888734 -0.197618 -0.905518 -0.051832 -0.136342 1.198546 -1.048123 -1.429164 -1.546944 1.984797 0.177656 0.691161 -0.825085 0.733135 -0.153294 
-0.644420 2.592267 -0.788267 0.288302 2.330561 -0.031557 0.746245 -0.330756 0.311368 -0.303557 -0.609502 -1.010735 2.451286 -0.103154 2.642344 -0.316707 -0.265280 -0.532897 -0.154279 -0.411344 2.209376 1.064153 0.833533 -0.601934 -0.508114 0.141546 0.607972 0.893188 2.207045 -0.378391 1.459001 -0.308538 -0.546283 -0.115106 1.949536 -1.841200 1.092404 1.642303 2.182849 -0.441286 -1.007977 -0.334783 0.567377 1.942298 -0.472458 0.785258 -0.941958 -0.190343 1.002441 1.842039 -0.150775 -0.313108 1.228537 0.046920 0.456071 -0.879247 -0.563431 -0.323169 -0.640293 1.250724 0.345196 0.948569 -0.520543 0.600679 1.554931 -0.753996 1.151785 0.349464 0.271217 0.606063 -0.421538 0.226635 2.028275 0.669712 -0.647683 -0.474098 0.554411 -0.865832 0.129737 2.146210 -0.393414 -0.932821 -0.443408 -0.829861 -0.098729 -0.638350 -0.102130 -0.056377 0.769047 -0.506882 0.393449 -1.171523 -0.803515 0.267423 0.057990 -0.103836 0.200443 2.609353 0.090301 0.912992 1.182579 2.989098 -0.926592 -0.633560 -1.289901 -0.038601 -0.760228 -0.824854 0.017380 2.250828 -0.610113 0.484052 -1.066229 -1.289600 -0.213511 -0.659473 -0.139500 -0.410584 0.794271 -0.784385 -0.782853 -1.582404 2.221194 0.772622 1.153451 -0.624613 0.832162 -0.514390 
-0.677758 2.705381 -0.998099 -0.629151 2.030914 -0.379274 1.358676 -1.211208 0.706358 -0.673473 -0.829511 -1.284522 2.468844 -0.682946 2.425082 -0.035970 -0.603617 -0.657950 -0.250576 -0.987398 2.299444 1.432993 -0.015156 -0.710469 -1.316236 -0.082537 1.244639 0.266242 1.939053 -0.302207 1.415963 -0.654461 0.137930 -0.509977 2.170827 -2.251088 1.450005 1.806441 2.407838 -0.623391 -1.285595 -0.307023 0.709191 2.116177 -1.037012 1.061331 -1.071549 0.127800 1.895529 1.812458 -0.432095 -0.321549 0.887831 1.004634 0.807128 -1.449167 -0.771806 -0.706958 -0.964263 0.838769 -0.211309 1.308299 -0.973215 0.736872 1.975658 -0.870807 1.337194 -0.080466 0.099894 1.445218 -0.978328 0.606472 2.495637 0.282702 -0.433247 -0.490302 0.830739 -1.009332 0.694027 2.043791 0.118449 -1.483176 -0.601258 -0.715852 0.063868 -0.389347 0.173551 -0.566544 0.535761 -1.086264 0.621033 -1.326737 -0.912607 -0.336052 0.244319 -0.141709 0.340092 2.954903 -0.003357 1.193837 1.520468 3.242857 -1.235284 -1.088978 -1.589143 -1.087909 -0.794848 -1.101436 0.220258 2.378844 -0.475688 0.707031 -1.829711 -1.332776 -1.096313 -0.691430 -0.664989 -0.760398 1.097879 -0.706264 -1.274215 -2.188592 2.646591 1.618385 0.770870 -1.517176 0.813050 -1.555930 
-0.669810 2.149531 -1.208958 -0.416224 1.706556 -0.632922 1.020534 -0.749165 0.880790 -1.033740 -0.579194 -1.171088 2.044905 -0.695665 1.723448 -0.565141 -0.730334 -0.408110 -0.260686 -1.155467 2.285707 1.217544 -0.152878 -0.946295 -1.124797 -0.351967 1.487725 -0.077045 1.830159 -0.757611 1.309968 -0.704415 0.535817 -0.708945 1.945286 -2.094148 1.393123 1.978850 1.746463 -0.031893 -1.161570 0.100755 0.853746 1.908724 -1.227245 0.557023 -0.764520 -0.120997 1.689048 1.277899 -0.741078 -0.581760 0.738114 0.985407 0.784765 -1.257729 -0.603884 -0.890026 -1.100000 0.560914 -0.176842 0.977906 -1.227370 0.184704 1.653984 -0.856119 0.913940 -0.274556 0.224865 0.642667 -0.835514 0.561772 2.435241 0.415298 -0.009831 0.155003 0.956129 -0.749609 0.585385 1.666931 0.017335 -1.427526 -0.887783 -0.972115 0.060101 0.077057 0.250677 -0.642032 0.721659 -1.003506 0.754424 -1.316039 -0.560679 -0.468701 0.176665 -0.641610 0.263574 2.744845 0.360849 1.397053 1.158662 2.820466 -0.841219 -0.506554 -1.431417 -1.177854 -0.473311 -0.973530 -0.086724 2.236226 -0.007644 0.623834 -1.649126 -1.196238 -1.271133 -0.616999 -0.841173 -0.410153 0.896167 0.183283 -1.192552 -1.776563 2.609292 1.633581 0.937950 -1.504051 0.587937 -1.649073 
-0.649100 1.936211 -0.955311 -0.560358 1.596174 -0.506377 0.803527 -0.811959 0.619962 -0.755016 -0.637235 -1.388621 1.677533 -0.571403 1.707145 -0.236423 -0.435137 -0.580345 -0.140132 -1.261358 1.824708 1.033344 0.266492 -0.790145 -0.812124 -0.669458 1.445385 0.174114 1.888200 -0.567247 1.578968 -0.331238 0.627084 -0.605795 1.746103 -1.810632 1.106292 1.771479 1.543607 -0.229506 -1.048442 0.049954 0.483222 1.624062 -0.826049 0.475589 -0.969185 0.000618 1.116811 1.038323 -0.586074 -0.532712 0.734010 0.627458 0.842723 -1.027545 -0.734865 -0.660057 -1.189828 0.716154 -0.081029 1.042430 -0.986534 0.377299 1.429820 -0.386456 0.968917 0.049597 0.231698 0.684269 -0.618994 0.790688 2.124464 0.274904 -0.152578 0.138766 0.798513 -0.864386 0.418906 1.679668 0.231982 -1.412484 -0.501889 -0.606203 0.040494 0.016571 0.383121 -0.577496 0.365318 -0.851400 0.945811 -1.195363 -0.369466 -0.193489 0.557054 -0.257477 -0.188125 1.886676 0.517308 0.921560 1.158277 2.257426 -0.859618 -0.280987 -1.467415 -0.825941 -0.677473 -1.022628 -0.057899 1.392000 -0.106572 0.566317 -1.322645 -1.263280 -0.887536 -0.854454 -0.994505 -0.402675 1.191617 -0.019586 -1.086795 -1.124881 2.221293 1.138248 1.170261 -0.847181 0.315077 -1.537685 
-0.653219 1.197971 -0.687345 -0.608342 1.037495 -0.482672 0.712686 -0.438360 0.586268 -0.830572 -0.420652 -0.872583 1.371608 -0.353718 1.102385 -0.271007 -0.487792 -0.438390 0.052238 -0.647198 1.308174 0.792279 0.238991 -0.646306 -0.518348 -0.507683 0.974452 -0.044945 1.299391 -0.360152 0.994266 -0.125590 0.705083 -0.395667 1.088756 -0.996302 0.701805 1.219949 1.008760 -0.219961 -0.665297 -0.000121 0.396071 1.333578 -0.542545 0.497302 -0.566035 0.031668 0.784357 0.631844 -0.405091 -0.309912 0.382991 0.540139 0.419948 -0.647084 -0.565648 -0.341523 -0.546855 0.557619 -0.181041 0.702699 -0.694047 0.259185 1.043179 -0.244968 0.488611 -0.178125 0.015721 0.457248 -0.612431 0.811862 1.704514 0.042737 0.113682 0.042313 0.383160 -0.684158 0.458148 1.147114 0.160930 -0.861133 -0.583992 -0.502532 -0.150493 0.023069 0.292214 -0.585715 0.201066 -0.615929 0.511026 -0.592290 -0.363820 -0.211878 0.492166 -0.185709 -0.096362 1.272975 0.378155 0.596510 0.892559 1.544343 -0.610438 -0.200251 -0.917971 -0.540627 -0.521105 -0.668335 0.047564 0.928100 -0.041510 0.597633 -1.113900 -0.699042 -0.525334 -0.412547 -0.696625 -0.312884 0.695798 0.038197 -0.729040 -0.574189 1.275742 0.678145 0.681626 -0.627141 0.180570 -1.036763 
-0.342660 0.558436 -0.163089 -0.341260 0.659022 -0.216294 0.047119 -0.275822 0.323697 -0.513419 -0.381332 -0.702477 0.600029 -0.143398 0.600913 -0.168091 -0.104032 0.075403 0.078339 -0.356779 0.660214 0.425588 0.332126 -0.375114 -0.056656 0.000701 0.455062 -0.051054 0.421625 -0.026141 0.491219 0.150666 0.336280 -0.230705 0.689900 -0.433769 0.198286 0.321318 0.484580 -0.359772 -0.537674 -0.351560 0.273116 0.663603 -0.293711 0.052903 -0.576596 -0.032566 0.232495 0.279254 -0.170613 -0.027681 0.609282 0.262399 0.141055 -0.396536 -0.184428 -0.138654 -0.111309 0.105659 0.128333 0.373392 -0.342903 0.373563 0.415468 -0.162973 0.305937 -0.127127 -0.342440 0.408101 -0.307152 0.242247 0.840578 0.046626 0.195874 0.044508 0.467283 -0.146667 0.047461 0.365273 0.077911 -0.410399 -0.340511 -0.042975 -0.130721 -0.151021 -0.090470 -0.263112 0.384808 -0.391327 0.225980 -0.276043 -0.534870 -0.286588 0.412441 -0.303275 -0.132806 0.576411 0.278477 0.304248 0.308058 0.825139 -0.358764 0.331883 -0.737147 -0.190150 -0.218367 -0.480110 -0.018263 0.364427 -0.225875 0.222745 -0.414429 -0.422914 -0.374252 -0.297124 -0.227397 -0.412579 0.295989 0.007825 -0.199500 -0.343973 0.468702 0.095782 0.630524 -0.300759 0.155574 -0.551552 
-0.111233 -0.047207 0.208267 0.121792 0.131190 0.182503 -0.011747 -0.064969 -0.169979 -0.038218 -0.271693 0.024177 -0.012696 0.211745 0.098793 0.195607 0.010390 0.150537 0.015629 0.170351 0.088045 0.000989 0.262965 -0.049105 0.191338 -0.032625 -0.104981 -0.034352 -0.089208 0.249906 -0.129267 0.081360 0.073560 0.128744 -0.118728 0.063335 -0.194856 0.045894 -0.054872 -0.235117 0.084136 -0.019670 -0.145061 -0.127038 0.209636 0.218728 0.080416 0.217449 0.004364 -0.031942 0.198548 -0.036544 0.119696 -0.219493 -0.067095 0.167674 0.079591 0.172423 -0.030576 -0.032078 0.142992 0.047152 -0.028644 0.034600 0.095799 0.145105 0.262723 -0.030963 0.014252 0.005782 -0.054242 0.051668 -0.037807 -0.188349 -0.042209 0.092137 0.041665 -0.145385 0.014144 -0.054341 -0.017540 -0.052946 -0.026664 0.163267 -0.210802 -0.147099 -0.052010 0.154089 0.174579 0.018020 0.191897 0.145511 -0.021335 0.092882 -0.078199 -0.039294 -0.037732 0.101906 -0.160959 0.055929 -0.135377 0.240543 0.094800 0.052430 -0.107855 0.232806 -0.068404 0.003782 0.148864 -0.123845 -0.117949 0.055923 0.134639 0.090456 0.140692 0.233662 -0.056223 -0.098777 -0.097427 -0.002692 0.045250 -0.086610 0.129420 -0.181192 0.005425 0.155733 -0.203245 0.130637 
-0.045462 0.019467 -0.010114 0.203338 -0.012152 0.009852 -0.201702 0.121005 -0.209755 0.227573 -0.203616 -0.083750 0.066041 0.204354 -0.109989 0.217951 0.226831 0.001076 0.185181 0.224369 -0.137359 -0.001920 0.006814 0.208473 0.165716 -0.010280 -0.208836 -0.063493 -0.206837 0.019364 -0.228283 0.113725 -0.166625 -0.049744 -0.205753 0.201427 -0.027740 -0.011220 0.025152 -0.007963 0.147461 0.015436 0.031845 -0.015644 0.100197 -0.035829 -0.058486 0.169359 -0.225185 0.102056 0.211105 0.079887 0.023268 -0.205543 -0.062236 0.229176 -0.088548 0.206646 0.025981 0.076351 0.141321 -0.020234 -0.011788 0.205469 -0.227742 -0.088264 0.165927 0.021790 -0.211667 0.151240 -0.014167 -0.012906 -0.218789 -0.006694 -0.025383 -0.104490 0.185485 0.113797 -0.205904 -0.227896 -0.012877 0.195051 0.209900 0.019446 0.052698 0.083784 -0.206039 0.186598 -0.080429 0.073313 0.132044 0.202983 -0.184868 -0.126266 0.097535 -0.001534 -0.001536 -0.226945 -0.027190 -0.202785 -0.226759 0.069783 -0.030360 0.016538 0.095554 0.228375 -0.204118 0.083953 0.093411 -0.200274 -0.008270 -0.007281 0.007782 0.206630 0.006922 0.207904 -0.016833 -0.063306 -0.181250 -0.204880 -0.018572 0.176862 -0.027433 -0.025620 -0.110312 0.200069 -0.199978 0.011922 
